digraph Tree {
node [shape=box, style="filled, rounded", color="black", fontname=helvetica] ;
edge [fontname=helvetica] ;
0 [label="X[1864] <= 0.16\ngini = 0.99\nsamples = 31633\nvalue = [478, 490, 493, 482, 526, 477, 499, 452, 508, 495\n501, 466, 528, 518, 522, 535, 483, 506, 488, 504\n465, 499, 471, 482, 517, 520, 491, 495, 489, 464\n522, 513, 531, 466, 504, 525, 514, 527, 517, 519\n509, 473, 475, 493, 470, 496, 525, 502, 513, 499\n547, 482, 497, 516, 493, 487, 529, 503, 525, 492\n491, 535, 489, 505, 511, 530, 489, 500, 518, 528\n524, 493, 522, 483, 499, 517, 509, 506, 515, 488\n471, 513, 500, 485, 503, 486, 525, 482, 437, 492\n510, 505, 531, 453, 486, 491, 487, 516, 478, 489]", fillcolor="#ffffff"] ;
1 [label="X[1897] <= 0.92\ngini = 0.99\nsamples = 4043\nvalue = [56, 61, 54, 91, 86, 50, 62, 56, 56, 65, 76, 54\n57, 81, 94, 72, 59, 65, 42, 58, 92, 59, 60, 69\n66, 63, 56, 81, 58, 60, 62, 70, 77, 65, 77, 91\n53, 72, 65, 116, 65, 50, 50, 71, 45, 47, 67, 80\n57, 70, 57, 73, 40, 58, 58, 59, 74, 73, 54, 59\n76, 94, 53, 68, 65, 74, 66, 65, 46, 58, 68, 69\n79, 52, 62, 48, 46, 76, 86, 48, 81, 47, 76, 85\n45, 74, 55, 59, 49, 57, 52, 51, 71, 67, 75, 39\n60, 48, 52, 56]", fillcolor="#feffff"] ;
0 -> 1 [labeldistance=2.5, labelangle=45, headlabel="True"] ;
2 [label="X[2930] <= 0.61\ngini = 0.99\nsamples = 4042\nvalue = [56, 61, 54, 91, 86, 50, 62, 56, 56, 65, 76, 54\n57, 81, 94, 72, 59, 65, 42, 58, 92, 59, 60, 69\n66, 57, 56, 81, 58, 60, 62, 70, 77, 65, 77, 91\n53, 72, 65, 116, 65, 50, 50, 71, 45, 47, 67, 80\n57, 70, 57, 73, 40, 58, 58, 59, 74, 73, 54, 59\n76, 94, 53, 68, 65, 74, 66, 65, 46, 58, 68, 69\n79, 52, 62, 48, 46, 76, 86, 48, 81, 47, 76, 85\n45, 74, 55, 59, 49, 57, 52, 51, 71, 67, 75, 39\n60, 48, 52, 56]", fillcolor="#feffff"] ;
1 -> 2 ;
3 [label="X[437] <= 0.01\ngini = 0.99\nsamples = 3723\nvalue = [53, 54, 46, 83, 82, 47, 61, 52, 54, 63, 73, 47\n56, 74, 86, 69, 56, 54, 42, 52, 90, 58, 56, 64\n60, 55, 46, 77, 54, 46, 60, 69, 73, 64, 70, 89\n46, 67, 57, 107, 52, 49, 47, 60, 40, 46, 66, 68\n53, 49, 54, 70, 39, 55, 52, 56, 72, 62, 48, 58\n66, 85, 52, 66, 56, 63, 64, 57, 38, 56, 65, 61\n79, 52, 61, 48, 46, 75, 85, 45, 73, 43, 73, 81\n38, 64, 53, 53, 49, 53, 45, 46, 66, 56, 72, 38\n58, 38, 48, 49]", fillcolor="#feffff"] ;
2 -> 3 ;
4 [label="X[2705] <= 0.58\ngini = 0.93\nsamples = 34\nvalue = [1, 0, 0, 2, 0, 0, 0, 2, 0, 0, 1, 0, 0, 3\n2, 0, 0, 0, 0, 0, 0, 0, 0, 0, 0, 1, 0, 1\n0, 0, 0, 1, 2, 0, 1, 0, 0, 3, 0, 2, 0, 0\n0, 0, 0, 0, 0, 0, 0, 0, 0, 0, 0, 1, 0, 0\n1, 0, 1, 0, 0, 0, 1, 0, 0, 3, 0, 0, 0, 0\n0, 0, 0, 2, 0, 0, 0, 0, 3, 0, 1, 0, 0, 0\n0, 4, 0, 0, 0, 0, 2, 0, 0, 12, 0, 1, 0, 0\n3, 1]", fillcolor="#fbe2e2"] ;
3 -> 4 ;
5 [label="X[2851] <= 0.57\ngini = 0.95\nsamples = 31\nvalue = [1, 0, 0, 2, 0, 0, 0, 2, 0, 0, 1, 0, 0, 3\n2, 0, 0, 0, 0, 0, 0, 0, 0, 0, 0, 1, 0, 1\n0, 0, 0, 1, 2, 0, 1, 0, 0, 3, 0, 2, 0, 0\n0, 0, 0, 0, 0, 0, 0, 0, 0, 0, 0, 1, 0, 0\n1, 0, 1, 0, 0, 0, 1, 0, 0, 3, 0, 0, 0, 0\n0, 0, 0, 2, 0, 0, 0, 0, 3, 0, 1, 0, 0, 0\n0, 4, 0, 0, 0, 0, 2, 0, 0, 5, 0, 0, 0, 0\n3, 1]", fillcolor="#fefbfb"] ;
4 -> 5 ;
6 [label="X[1200] <= 0.96\ngini = 0.95\nsamples = 30\nvalue = [1, 0, 0, 2, 0, 0, 0, 2, 0, 0, 1, 0, 0, 3\n2, 0, 0, 0, 0, 0, 0, 0, 0, 0, 0, 1, 0, 1\n0, 0, 0, 1, 2, 0, 1, 0, 0, 3, 0, 2, 0, 0\n0, 0, 0, 0, 0, 0, 0, 0, 0, 0, 0, 1, 0, 0\n1, 0, 1, 0, 0, 0, 1, 0, 0, 3, 0, 0, 0, 0\n0, 0, 0, 2, 0, 0, 0, 0, 3, 0, 1, 0, 0, 0\n0, 0, 0, 0, 0, 0, 2, 0, 0, 5, 0, 0, 0, 0\n3, 1]", fillcolor="#fef6f6"] ;
5 -> 6 ;
7 [label="gini = 0.95\nsamples = 28\nvalue = [1, 0, 0, 2, 0, 0, 0, 2, 0, 0, 1, 0, 0, 3\n2, 0, 0, 0, 0, 0, 0, 0, 0, 0, 0, 1, 0, 1\n0, 0, 0, 1, 2, 0, 1, 0, 0, 3, 0, 2, 0, 0\n0, 0, 0, 0, 0, 0, 0, 0, 0, 0, 0, 1, 0, 0\n1, 0, 1, 0, 0, 0, 1, 0, 0, 3, 0, 0, 0, 0\n0, 0, 0, 2, 0, 0, 0, 0, 3, 0, 1, 0, 0, 0\n0, 0, 0, 0, 0, 0, 2, 0, 0, 1, 0, 0, 0, 0\n3, 1]", fillcolor="#ffffff"] ;
6 -> 7 ;
8 [label="gini = 0.0\nsamples = 2\nvalue = [0, 0, 0, 0, 0, 0, 0, 0, 0, 0, 0, 0, 0, 0\n0, 0, 0, 0, 0, 0, 0, 0, 0, 0, 0, 0, 0, 0\n0, 0, 0, 0, 0, 0, 0, 0, 0, 0, 0, 0, 0, 0\n0, 0, 0, 0, 0, 0, 0, 0, 0, 0, 0, 0, 0, 0\n0, 0, 0, 0, 0, 0, 0, 0, 0, 0, 0, 0, 0, 0\n0, 0, 0, 0, 0, 0, 0, 0, 0, 0, 0, 0, 0, 0\n0, 0, 0, 0, 0, 0, 0, 0, 0, 4, 0, 0, 0, 0\n0, 0]", fillcolor="#e5393c"] ;
6 -> 8 ;
9 [label="gini = 0.0\nsamples = 1\nvalue = [0, 0, 0, 0, 0, 0, 0, 0, 0, 0, 0, 0, 0, 0\n0, 0, 0, 0, 0, 0, 0, 0, 0, 0, 0, 0, 0, 0\n0, 0, 0, 0, 0, 0, 0, 0, 0, 0, 0, 0, 0, 0\n0, 0, 0, 0, 0, 0, 0, 0, 0, 0, 0, 0, 0, 0\n0, 0, 0, 0, 0, 0, 0, 0, 0, 0, 0, 0, 0, 0\n0, 0, 0, 0, 0, 0, 0, 0, 0, 0, 0, 0, 0, 0\n0, 4, 0, 0, 0, 0, 0, 0, 0, 0, 0, 0, 0, 0\n0, 0]", fillcolor="#e5398c"] ;
5 -> 9 ;
10 [label="gini = 0.22\nsamples = 3\nvalue = [0, 0, 0, 0, 0, 0, 0, 0, 0, 0, 0, 0, 0, 0\n0, 0, 0, 0, 0, 0, 0, 0, 0, 0, 0, 0, 0, 0\n0, 0, 0, 0, 0, 0, 0, 0, 0, 0, 0, 0, 0, 0\n0, 0, 0, 0, 0, 0, 0, 0, 0, 0, 0, 0, 0, 0\n0, 0, 0, 0, 0, 0, 0, 0, 0, 0, 0, 0, 0, 0\n0, 0, 0, 0, 0, 0, 0, 0, 0, 0, 0, 0, 0, 0\n0, 0, 0, 0, 0, 0, 0, 0, 0, 7, 0, 1, 0, 0\n0, 0]", fillcolor="#e95558"] ;
4 -> 10 ;
11 [label="X[2838] <= 0.99\ngini = 0.99\nsamples = 3689\nvalue = [52, 54, 46, 81, 82, 47, 61, 50, 54, 63, 72, 47\n56, 71, 84, 69, 56, 54, 42, 52, 90, 58, 56, 64\n60, 54, 46, 76, 54, 46, 60, 68, 71, 64, 69, 89\n46, 64, 57, 105, 52, 49, 47, 60, 40, 46, 66, 68\n53, 49, 54, 70, 39, 54, 52, 56, 71, 62, 47, 58\n66, 85, 51, 66, 56, 60, 64, 57, 38, 56, 65, 61\n79, 50, 61, 48, 46, 75, 82, 45, 72, 43, 73, 81\n38, 60, 53, 53, 49, 53, 43, 46, 66, 44, 72, 37\n58, 38, 45, 48]", fillcolor="#feffff"] ;
3 -> 11 ;
12 [label="X[1681] <= 1.0\ngini = 0.99\nsamples = 3687\nvalue = [52, 54, 46, 81, 82, 47, 61, 50, 54, 63, 72, 47\n56, 71, 84, 69, 56, 54, 42, 52, 90, 58, 56, 64\n60, 54, 46, 76, 54, 46, 60, 68, 71, 64, 69, 89\n46, 64, 57, 105, 52, 48, 47, 60, 40, 46, 66, 68\n53, 49, 54, 70, 39, 54, 52, 56, 71, 62, 47, 58\n66, 85, 51, 66, 56, 60, 64, 57, 38, 56, 65, 61\n79, 50, 61, 48, 46, 75, 82, 45, 72, 43, 73, 81\n38, 60, 53, 53, 49, 53, 43, 46, 66, 40, 72, 37\n58, 38, 45, 48]", fillcolor="#feffff"] ;
11 -> 12 ;
13 [label="X[1627] <= 1.0\ngini = 0.99\nsamples = 3685\nvalue = [52, 54, 46, 81, 82, 47, 61, 50, 54, 63, 72, 47\n56, 71, 84, 69, 56, 54, 42, 52, 90, 58, 56, 64\n60, 54, 46, 76, 54, 46, 60, 68, 71, 64, 69, 89\n46, 64, 57, 105, 52, 48, 47, 60, 40, 46, 66, 68\n53, 49, 54, 70, 36, 54, 52, 56, 71, 62, 47, 58\n66, 85, 51, 66, 56, 60, 60, 57, 38, 56, 65, 61\n79, 50, 61, 48, 46, 75, 82, 45, 72, 43, 73, 81\n38, 60, 53, 53, 49, 53, 43, 46, 66, 40, 72, 37\n58, 38, 45, 48]", fillcolor="#feffff"] ;
12 -> 13 ;
14 [label="X[1811] <= 0.99\ngini = 0.99\nsamples = 3670\nvalue = [52, 54, 46, 80, 82, 47, 60, 50, 51, 62, 72, 47\n56, 70, 84, 69, 55, 54, 42, 52, 90, 58, 56, 64\n60, 54, 46, 76, 54, 46, 60, 68, 71, 64, 69, 89\n46, 64, 57, 105, 52, 48, 47, 60, 38, 46, 66, 68\n53, 49, 54, 70, 36, 54, 52, 56, 70, 62, 47, 58\n66, 85, 51, 66, 56, 60, 60, 57, 38, 56, 57, 61\n79, 50, 61, 48, 46, 73, 82, 45, 71, 43, 73, 81\n38, 59, 53, 53, 49, 53, 43, 46, 66, 40, 71, 37\n58, 38, 45, 48]", fillcolor="#feffff"] ;
13 -> 14 ;
15 [label="X[2567] <= 0.0\ngini = 0.99\nsamples = 3667\nvalue = [52, 54, 46, 79, 77, 47, 60, 50, 51, 62, 72, 47\n56, 70, 84, 69, 55, 54, 42, 52, 90, 58, 56, 64\n60, 54, 46, 76, 54, 46, 60, 68, 71, 64, 69, 89\n46, 64, 57, 105, 52, 48, 47, 60, 38, 46, 66, 68\n53, 49, 54, 70, 36, 54, 52, 56, 70, 62, 47, 58\n66, 85, 51, 66, 56, 60, 60, 57, 38, 56, 57, 61\n79, 50, 61, 48, 46, 73, 82, 45, 71, 43, 73, 81\n38, 59, 53, 53, 49, 53, 43, 46, 66, 40, 71, 37\n58, 38, 45, 48]", fillcolor="#feffff"] ;
14 -> 15 ;
16 [label="X[244] <= 0.12\ngini = 0.93\nsamples = 34\nvalue = [3, 0, 0, 0, 0, 0, 0, 0, 0, 0, 11, 0, 0, 0\n1, 0, 0, 0, 2, 0, 0, 0, 0, 0, 0, 0, 0, 0\n0, 0, 0, 0, 2, 0, 0, 1, 0, 2, 0, 0, 0, 1\n3, 0, 0, 0, 0, 2, 0, 0, 0, 2, 0, 0, 0, 2\n0, 0, 3, 0, 0, 0, 0, 2, 2, 1, 2, 0, 0, 0\n0, 0, 0, 0, 0, 2, 0, 0, 0, 0, 2, 0, 0, 2\n0, 0, 0, 0, 0, 0, 0, 3, 0, 0, 1, 0, 3, 0\n2, 1]", fillcolor="#fbfbe2"] ;
15 -> 16 ;
17 [label="gini = 0.32\nsamples = 5\nvalue = [0, 0, 0, 0, 0, 0, 0, 0, 0, 0, 8, 0, 0, 0\n0, 0, 0, 0, 0, 0, 0, 0, 0, 0, 0, 0, 0, 0\n0, 0, 0, 0, 2, 0, 0, 0, 0, 0, 0, 0, 0, 0\n0, 0, 0, 0, 0, 0, 0, 0, 0, 0, 0, 0, 0, 0\n0, 0, 0, 0, 0, 0, 0, 0, 0, 0, 0, 0, 0, 0\n0, 0, 0, 0, 0, 0, 0, 0, 0, 0, 0, 0, 0, 0\n0, 0, 0, 0, 0, 0, 0, 0, 0, 0, 0, 0, 0, 0\n0, 0]", fillcolor="#e9ec6a"] ;
16 -> 17 ;
18 [label="gini = 0.95\nsamples = 29\nvalue = [3, 0, 0, 0, 0, 0, 0, 0, 0, 0, 3, 0, 0, 0\n1, 0, 0, 0, 2, 0, 0, 0, 0, 0, 0, 0, 0, 0\n0, 0, 0, 0, 0, 0, 0, 1, 0, 2, 0, 0, 0, 1\n3, 0, 0, 0, 0, 2, 0, 0, 0, 2, 0, 0, 0, 2\n0, 0, 3, 0, 0, 0, 0, 2, 2, 1, 2, 0, 0, 0\n0, 0, 0, 0, 0, 2, 0, 0, 0, 0, 2, 0, 0, 2\n0, 0, 0, 0, 0, 0, 0, 3, 0, 0, 1, 0, 3, 0\n2, 1]", fillcolor="#ffffff"] ;
16 -> 18 ;
19 [label="X[2517] <= 0.73\ngini = 0.99\nsamples = 3633\nvalue = [49, 54, 46, 79, 77, 47, 60, 50, 51, 62, 61, 47\n56, 70, 83, 69, 55, 54, 40, 52, 90, 58, 56, 64\n60, 54, 46, 76, 54, 46, 60, 68, 69, 64, 69, 88\n46, 62, 57, 105, 52, 47, 44, 60, 38, 46, 66, 66\n53, 49, 54, 68, 36, 54, 52, 54, 70, 62, 44, 58\n66, 85, 51, 64, 54, 59, 58, 57, 38, 56, 57, 61\n79, 50, 61, 46, 46, 73, 82, 45, 69, 43, 73, 79\n38, 59, 53, 53, 49, 53, 43, 43, 66, 40, 70, 37\n55, 38, 43, 47]", fillcolor="#feffff"] ;
15 -> 19 ;
20 [label="X[2452] <= 0.98\ngini = 0.99\nsamples = 3315\nvalue = [44, 51, 44, 76, 64, 43, 54, 46, 46, 60, 59, 45\n38, 65, 71, 57, 54, 53, 37, 50, 85, 55, 53, 58\n59, 48, 40, 61, 48, 43, 51, 61, 65, 57, 63, 82\n36, 57, 53, 75, 49, 46, 38, 55, 34, 41, 64, 55\n48, 48, 49, 61, 32, 44, 49, 46, 61, 54, 42, 53\n63, 84, 49, 58, 50, 52, 56, 53, 36, 49, 56, 59\n66, 45, 46, 33, 46, 67, 76, 44, 68, 43, 66, 71\n37, 58, 47, 49, 47, 45, 42, 40, 65, 34, 57, 35\n50, 33, 42, 46]", fillcolor="#ffffff"] ;
19 -> 20 ;
21 [label="X[2427] <= 0.98\ngini = 0.99\nsamples = 3311\nvalue = [44, 51, 44, 76, 64, 43, 54, 46, 46, 60, 59, 45\n38, 65, 71, 57, 54, 53, 37, 48, 85, 55, 53, 58\n59, 48, 40, 61, 48, 43, 51, 60, 65, 57, 63, 82\n36, 57, 53, 70, 49, 46, 38, 55, 34, 41, 64, 55\n48, 48, 49, 61, 32, 44, 49, 46, 61, 54, 42, 53\n63, 84, 49, 58, 50, 52, 56, 53, 36, 49, 56, 59\n66, 45, 46, 33, 46, 67, 76, 44, 68, 43, 66, 71\n37, 58, 47, 49, 47, 45, 42, 40, 65, 34, 57, 35\n50, 33, 42, 46]", fillcolor="#ffffff"] ;
20 -> 21 ;
22 [label="X[2225] <= 0.99\ngini = 0.99\nsamples = 3275\nvalue = [44, 51, 44, 76, 64, 43, 53, 46, 46, 60, 51, 45\n38, 65, 71, 57, 51, 52, 37, 48, 85, 55, 50, 57\n59, 48, 40, 61, 48, 43, 51, 60, 64, 56, 61, 82\n33, 57, 47, 70, 47, 45, 37, 55, 33, 41, 64, 54\n46, 48, 49, 59, 32, 44, 49, 46, 61, 54, 42, 52\n62, 84, 48, 58, 49, 52, 56, 53, 36, 49, 56, 59\n66, 45, 46, 33, 45, 67, 76, 44, 60, 42, 65, 71\n37, 56, 47, 49, 45, 44, 42, 40, 65, 34, 57, 35\n50, 33, 40, 46]", fillcolor="#ffffff"] ;
21 -> 22 ;
23 [label="X[1715] <= 1.0\ngini = 0.99\nsamples = 3232\nvalue = [44, 51, 44, 75, 64, 43, 53, 46, 46, 57, 51, 39\n32, 65, 71, 52, 51, 52, 37, 46, 85, 53, 50, 47\n58, 48, 40, 61, 48, 42, 50, 59, 63, 55, 60, 82\n33, 57, 47, 67, 47, 45, 34, 55, 33, 41, 64, 53\n46, 48, 49, 59, 32, 43, 49, 46, 61, 52, 41, 52\n62, 84, 46, 58, 49, 52, 56, 53, 35, 47, 56, 57\n65, 44, 46, 33, 45, 67, 75, 44, 59, 39, 65, 71\n37, 56, 47, 48, 45, 44, 42, 37, 65, 34, 57, 35\n50, 32, 40, 45]", fillcolor="#ffffff"] ;
22 -> 23 ;
24 [label="X[913] <= 1.0\ngini = 0.99\nsamples = 3231\nvalue = [44, 51, 44, 75, 64, 43, 53, 46, 46, 57, 51, 39\n32, 65, 71, 48, 51, 52, 37, 46, 85, 53, 50, 47\n58, 48, 40, 61, 48, 42, 50, 59, 63, 55, 60, 82\n33, 57, 47, 67, 47, 45, 34, 55, 33, 41, 64, 53\n46, 48, 49, 59, 32, 43, 49, 46, 61, 52, 41, 52\n62, 84, 46, 58, 49, 52, 56, 53, 35, 47, 56, 57\n65, 44, 46, 33, 45, 67, 75, 44, 59, 39, 65, 71\n37, 56, 47, 48, 45, 44, 42, 37, 65, 34, 57, 35\n50, 32, 40, 45]", fillcolor="#ffffff"] ;
23 -> 24 ;
25 [label="X[2252] <= 1.0\ngini = 0.99\nsamples = 3230\nvalue = [44, 51, 44, 75, 64, 43, 53, 46, 46, 57, 51, 39\n32, 65, 71, 48, 51, 52, 37, 46, 81, 53, 50, 47\n58, 48, 40, 61, 48, 42, 50, 59, 63, 55, 60, 82\n33, 57, 47, 67, 47, 45, 34, 55, 33, 41, 64, 53\n46, 48, 49, 59, 32, 43, 49, 46, 61, 52, 41, 52\n62, 84, 46, 58, 49, 52, 56, 53, 35, 47, 56, 57\n65, 44, 46, 33, 45, 67, 75, 44, 59, 39, 65, 71\n37, 56, 47, 48, 45, 44, 42, 37, 65, 34, 57, 35\n50, 32, 40, 45]", fillcolor="#ffffff"] ;
24 -> 25 ;
26 [label="X[1311] <= 0.44\ngini = 0.99\nsamples = 3225\nvalue = [44, 51, 44, 75, 64, 43, 53, 46, 46, 57, 51, 39\n32, 65, 69, 48, 51, 52, 37, 46, 81, 53, 50, 47\n58, 48, 40, 60, 48, 42, 50, 59, 63, 55, 60, 82\n33, 57, 47, 67, 47, 45, 34, 55, 33, 41, 64, 53\n46, 48, 49, 59, 32, 43, 49, 46, 61, 52, 41, 52\n62, 84, 46, 58, 49, 52, 56, 53, 35, 47, 56, 57\n65, 44, 46, 33, 45, 67, 75, 44, 59, 39, 65, 71\n37, 56, 47, 48, 45, 38, 42, 37, 65, 34, 57, 35\n48, 32, 40, 45]", fillcolor="#ffffff"] ;
25 -> 26 ;
27 [label="X[250] <= 1.0\ngini = 0.99\nsamples = 1865\nvalue = [28, 35, 18, 52, 32, 21, 32, 26, 21, 20, 19, 27\n21, 38, 34, 32, 30, 37, 23, 32, 46, 21, 26, 19\n31, 32, 20, 30, 35, 28, 13, 31, 32, 40, 25, 35\n19, 35, 19, 44, 25, 22, 25, 33, 22, 31, 39, 36\n24, 24, 21, 43, 26, 25, 42, 21, 24, 35, 24, 35\n32, 31, 21, 43, 30, 30, 39, 24, 21, 32, 37, 30\n30, 25, 32, 22, 18, 36, 46, 31, 41, 14, 44, 31\n19, 41, 21, 33, 23, 30, 29, 25, 48, 15, 35, 14\n38, 14, 20, 30]", fillcolor="#ffffff"] ;
26 -> 27 ;
28 [label="X[942] <= 0.74\ngini = 0.99\nsamples = 1862\nvalue = [28, 35, 18, 51, 32, 21, 32, 26, 21, 20, 19, 27\n21, 38, 34, 32, 30, 37, 23, 32, 46, 21, 26, 19\n31, 32, 20, 30, 35, 28, 13, 31, 32, 40, 25, 35\n19, 35, 19, 44, 25, 22, 25, 33, 22, 31, 39, 36\n24, 24, 21, 43, 26, 25, 42, 21, 24, 35, 24, 35\n32, 31, 21, 43, 30, 30, 38, 24, 21, 27, 37, 30\n30, 25, 32, 22, 18, 36, 46, 31, 41, 14, 44, 31\n19, 41, 21, 33, 23, 30, 29, 25, 48, 15, 35, 14\n38, 14, 20, 30]", fillcolor="#ffffff"] ;
27 -> 28 ;
29 [label="X[314] <= 0.98\ngini = 0.99\nsamples = 1751\nvalue = [28, 34, 18, 46, 29, 21, 30, 24, 21, 20, 19, 23\n21, 37, 26, 32, 25, 36, 22, 32, 44, 21, 26, 17\n29, 20, 17, 28, 31, 28, 13, 29, 31, 28, 24, 29\n18, 35, 19, 38, 24, 22, 25, 28, 22, 31, 36, 35\n24, 22, 21, 41, 25, 23, 42, 21, 22, 31, 24, 31\n29, 31, 17, 43, 23, 30, 38, 23, 21, 26, 37, 30\n30, 25, 32, 21, 18, 29, 46, 30, 32, 13, 41, 29\n19, 41, 19, 28, 22, 30, 29, 23, 46, 13, 34, 13\n36, 14, 20, 29]", fillcolor="#ffffff"] ;
28 -> 29 ;
30 [label="X[493] <= 0.0\ngini = 0.99\nsamples = 1740\nvalue = [22, 34, 18, 46, 29, 21, 30, 24, 21, 20, 19, 23\n21, 37, 26, 32, 25, 36, 22, 32, 44, 21, 26, 16\n29, 20, 17, 28, 31, 28, 13, 29, 29, 28, 24, 25\n18, 35, 19, 38, 24, 22, 25, 28, 22, 31, 36, 35\n24, 22, 21, 41, 25, 22, 41, 20, 22, 31, 24, 31\n29, 31, 15, 43, 23, 30, 38, 23, 21, 26, 37, 30\n30, 25, 32, 21, 18, 29, 46, 30, 32, 13, 41, 29\n19, 41, 19, 28, 22, 30, 29, 23, 46, 12, 34, 13\n36, 14, 20, 29]", fillcolor="#ffffff"] ;
29 -> 30 ;
31 [label="gini = 0.71\nsamples = 6\nvalue = [0, 0, 0, 0, 0, 0, 0, 1, 0, 0, 0, 0, 0, 0\n0, 0, 0, 0, 0, 0, 0, 0, 0, 0, 0, 0, 0, 0\n0, 0, 0, 0, 0, 0, 0, 2, 0, 0, 0, 0, 0, 0\n0, 0, 0, 0, 0, 0, 0, 0, 0, 0, 0, 0, 0, 0\n0, 0, 0, 0, 0, 0, 0, 0, 0, 0, 0, 0, 0, 0\n0, 0, 0, 0, 0, 0, 0, 5, 0, 0, 0, 0, 0, 0\n0, 1, 0, 2, 0, 0, 0, 0, 0, 0, 0, 0, 0, 0\n0, 0]", fillcolor="#f6bdf4"] ;
30 -> 31 ;
32 [label="X[2364] <= 0.94\ngini = 0.99\nsamples = 1734\nvalue = [22, 34, 18, 46, 29, 21, 30, 23, 21, 20, 19, 23\n21, 37, 26, 32, 25, 36, 22, 32, 44, 21, 26, 16\n29, 20, 17, 28, 31, 28, 13, 29, 29, 28, 24, 23\n18, 35, 19, 38, 24, 22, 25, 28, 22, 31, 36, 35\n24, 22, 21, 41, 25, 22, 41, 20, 22, 31, 24, 31\n29, 31, 15, 43, 23, 30, 38, 23, 21, 26, 37, 30\n30, 25, 32, 21, 18, 24, 46, 30, 32, 13, 41, 29\n19, 40, 19, 26, 22, 30, 29, 23, 46, 12, 34, 13\n36, 14, 20, 29]", fillcolor="#ffffff"] ;
30 -> 32 ;
33 [label="X[1050] <= 0.99\ngini = 0.99\nsamples = 1730\nvalue = [22, 34, 18, 46, 29, 21, 30, 23, 21, 20, 19, 23\n21, 36, 26, 32, 25, 36, 22, 32, 44, 21, 26, 16\n29, 20, 17, 28, 31, 28, 13, 29, 29, 28, 24, 23\n18, 35, 19, 38, 24, 22, 25, 28, 22, 31, 36, 35\n19, 22, 21, 41, 25, 22, 41, 19, 22, 31, 24, 31\n29, 31, 15, 43, 23, 30, 38, 23, 21, 26, 37, 30\n30, 25, 32, 21, 18, 24, 46, 30, 32, 13, 41, 29\n19, 40, 19, 26, 22, 30, 29, 23, 46, 12, 34, 13\n36, 14, 20, 29]", fillcolor="#ffffff"] ;
32 -> 33 ;
34 [label="X[104] <= 0.72\ngini = 0.99\nsamples = 1718\nvalue = [22, 34, 18, 46, 29, 21, 30, 23, 21, 20, 19, 23\n21, 36, 26, 32, 25, 36, 22, 32, 44, 21, 26, 16\n29, 20, 17, 28, 31, 28, 13, 29, 29, 28, 24, 23\n18, 35, 19, 37, 24, 22, 25, 28, 22, 31, 35, 35\n19, 22, 21, 41, 25, 22, 41, 19, 22, 31, 23, 31\n29, 31, 15, 43, 23, 30, 38, 23, 21, 26, 37, 25\n30, 22, 32, 21, 18, 24, 43, 29, 32, 13, 41, 29\n19, 40, 19, 25, 22, 30, 29, 23, 40, 12, 34, 13\n36, 14, 20, 29]", fillcolor="#ffffff"] ;
33 -> 34 ;
35 [label="X[1322] <= 1.0\ngini = 0.99\nsamples = 1536\nvalue = [18, 34, 16, 42, 29, 21, 29, 18, 20, 18, 19, 22\n21, 34, 24, 32, 22, 33, 21, 27, 42, 21, 25, 13\n25, 20, 15, 28, 31, 26, 11, 25, 26, 27, 22, 21\n17, 30, 19, 36, 16, 19, 24, 28, 21, 30, 33, 30\n13, 17, 21, 31, 24, 22, 29, 19, 18, 28, 21, 31\n23, 13, 11, 37, 22, 28, 28, 23, 17, 25, 36, 21\n28, 20, 28, 21, 17, 24, 39, 24, 29, 12, 40, 21\n17, 36, 16, 19, 20, 25, 25, 16, 35, 12, 31, 11\n31, 14, 20, 25]", fillcolor="#ffffff"] ;
34 -> 35 ;
36 [label="X[2897] <= 0.0\ngini = 0.99\nsamples = 1535\nvalue = [18, 34, 16, 42, 29, 21, 29, 18, 20, 18, 19, 22\n21, 34, 24, 32, 22, 33, 21, 27, 38, 21, 25, 13\n25, 20, 15, 28, 31, 26, 11, 25, 26, 27, 22, 21\n17, 30, 19, 36, 16, 19, 24, 28, 21, 30, 33, 30\n13, 17, 21, 31, 24, 22, 29, 19, 18, 28, 21, 31\n23, 13, 11, 37, 22, 28, 28, 23, 17, 25, 36, 21\n28, 20, 28, 21, 17, 24, 39, 24, 29, 12, 40, 21\n17, 36, 16, 19, 20, 25, 25, 16, 35, 12, 31, 11\n31, 14, 20, 25]", fillcolor="#ffffff"] ;
35 -> 36 ;
37 [label="gini = 0.9\nsamples = 21\nvalue = [2, 0, 0, 8, 0, 0, 0, 0, 0, 0, 0, 0, 0, 0\n2, 0, 1, 0, 0, 0, 2, 0, 0, 0, 0, 0, 0, 0\n0, 0, 1, 0, 0, 0, 0, 0, 0, 5, 0, 0, 0, 0\n0, 0, 0, 0, 2, 0, 0, 0, 0, 0, 0, 1, 0, 0\n0, 0, 0, 0, 2, 3, 1, 0, 0, 0, 0, 0, 0, 2\n1, 0, 0, 1, 0, 0, 0, 0, 0, 0, 0, 0, 1, 0\n0, 0, 0, 0, 0, 0, 0, 0, 0, 0, 0, 0, 1, 0\n0, 1]", fillcolor="#fdf6ec"] ;
36 -> 37 ;
38 [label="X[1616] <= 0.01\ngini = 0.99\nsamples = 1514\nvalue = [16, 34, 16, 34, 29, 21, 29, 18, 20, 18, 19, 22\n21, 34, 22, 32, 21, 33, 21, 27, 36, 21, 25, 13\n25, 20, 15, 28, 31, 26, 10, 25, 26, 27, 22, 21\n17, 25, 19, 36, 16, 19, 24, 28, 21, 30, 31, 30\n13, 17, 21, 31, 24, 21, 29, 19, 18, 28, 21, 31\n21, 10, 10, 37, 22, 28, 28, 23, 17, 23, 35, 21\n28, 19, 28, 21, 17, 24, 39, 24, 29, 12, 39, 21\n17, 36, 16, 19, 20, 25, 25, 16, 35, 12, 31, 11\n30, 14, 20, 24]", fillcolor="#ffffff"] ;
36 -> 38 ;
39 [label="gini = 0.0\nsamples = 1\nvalue = [0, 0, 0, 0, 0, 0, 0, 0, 0, 0, 0, 0, 0, 0\n0, 0, 0, 0, 0, 0, 0, 0, 0, 0, 0, 0, 0, 0\n0, 0, 0, 0, 0, 0, 4, 0, 0, 0, 0, 0, 0, 0\n0, 0, 0, 0, 0, 0, 0, 0, 0, 0, 0, 0, 0, 0\n0, 0, 0, 0, 0, 0, 0, 0, 0, 0, 0, 0, 0, 0\n0, 0, 0, 0, 0, 0, 0, 0, 0, 0, 0, 0, 0, 0\n0, 0, 0, 0, 0, 0, 0, 0, 0, 0, 0, 0, 0, 0\n0, 0]", fillcolor="#39e586"] ;
38 -> 39 ;
40 [label="X[1910] <= 0.6\ngini = 0.99\nsamples = 1513\nvalue = [16, 34, 16, 34, 29, 21, 29, 18, 20, 18, 19, 22\n21, 34, 22, 32, 21, 33, 21, 27, 36, 21, 25, 13\n25, 20, 15, 28, 31, 26, 10, 25, 26, 27, 18, 21\n17, 25, 19, 36, 16, 19, 24, 28, 21, 30, 31, 30\n13, 17, 21, 31, 24, 21, 29, 19, 18, 28, 21, 31\n21, 10, 10, 37, 22, 28, 28, 23, 17, 23, 35, 21\n28, 19, 28, 21, 17, 24, 39, 24, 29, 12, 39, 21\n17, 36, 16, 19, 20, 25, 25, 16, 35, 12, 31, 11\n30, 14, 20, 24]", fillcolor="#ffffff"] ;
38 -> 40 ;
41 [label="X[2504] <= 0.93\ngini = 0.99\nsamples = 1450\nvalue = [16, 33, 16, 34, 17, 21, 21, 13, 19, 18, 17, 21\n21, 34, 22, 31, 21, 33, 19, 27, 34, 20, 24, 13\n25, 18, 15, 28, 30, 26, 7, 25, 25, 27, 17, 21\n15, 25, 19, 36, 16, 19, 24, 24, 21, 27, 30, 30\n10, 17, 18, 30, 24, 18, 29, 18, 18, 26, 19, 28\n21, 10, 8, 36, 21, 23, 28, 22, 15, 23, 35, 21\n28, 18, 27, 20, 17, 24, 39, 24, 29, 12, 38, 21\n17, 36, 15, 18, 19, 25, 25, 16, 34, 11, 30, 11\n29, 13, 19, 24]", fillcolor="#ffffff"] ;
40 -> 41 ;
42 [label="X[1138] <= 0.0\ngini = 0.99\nsamples = 1443\nvalue = [16, 33, 16, 34, 17, 21, 18, 13, 19, 18, 17, 21\n21, 34, 22, 31, 21, 32, 19, 27, 34, 20, 24, 13\n25, 18, 15, 28, 30, 26, 7, 25, 25, 27, 17, 21\n15, 25, 19, 36, 16, 19, 24, 24, 21, 27, 30, 30\n10, 17, 18, 30, 24, 18, 29, 18, 18, 26, 19, 28\n21, 10, 8, 36, 21, 23, 23, 22, 15, 23, 35, 21\n28, 18, 25, 20, 17, 24, 38, 24, 29, 12, 38, 21\n17, 36, 15, 18, 19, 25, 25, 16, 34, 11, 30, 11\n29, 13, 19, 24]", fillcolor="#ffffff"] ;
41 -> 42 ;
43 [label="gini = 0.91\nsamples = 25\nvalue = [0, 0, 0, 0, 0, 0, 0, 1, 0, 3, 0, 1, 0, 0\n0, 0, 0, 4, 0, 1, 0, 0, 0, 1, 0, 0, 2, 0\n0, 0, 0, 0, 0, 0, 0, 0, 0, 1, 0, 0, 0, 0\n0, 1, 0, 0, 0, 0, 0, 0, 0, 0, 0, 0, 0, 0\n0, 1, 0, 2, 1, 0, 0, 0, 1, 0, 6, 3, 3, 0\n0, 1, 0, 0, 0, 0, 0, 0, 0, 0, 1, 2, 0, 0\n0, 8, 0, 0, 0, 0, 0, 0, 0, 0, 0, 0, 0, 0\n0, 0]", fillcolor="#fef5f9"] ;
42 -> 43 ;
44 [label="X[2253] <= 0.95\ngini = 0.99\nsamples = 1418\nvalue = [16, 33, 16, 34, 17, 21, 18, 12, 19, 15, 17, 20\n21, 34, 22, 31, 21, 28, 19, 26, 34, 20, 24, 12\n25, 18, 13, 28, 30, 26, 7, 25, 25, 27, 17, 21\n15, 24, 19, 36, 16, 19, 24, 23, 21, 27, 30, 30\n10, 17, 18, 30, 24, 18, 29, 18, 18, 25, 19, 26\n20, 10, 8, 36, 20, 23, 17, 19, 12, 23, 35, 20\n28, 18, 25, 20, 17, 24, 38, 24, 28, 10, 38, 21\n17, 28, 15, 18, 19, 25, 25, 16, 34, 11, 30, 11\n29, 13, 19, 24]", fillcolor="#ffffff"] ;
42 -> 44 ;
45 [label="X[150] <= 0.99\ngini = 0.99\nsamples = 1413\nvalue = [16, 33, 16, 34, 17, 21, 18, 12, 19, 15, 17, 20\n21, 34, 22, 31, 21, 28, 19, 26, 34, 20, 24, 12\n25, 18, 13, 28, 30, 26, 7, 25, 23, 27, 17, 21\n15, 24, 19, 36, 16, 19, 24, 23, 21, 27, 30, 25\n10, 17, 18, 30, 24, 18, 29, 18, 18, 25, 19, 26\n19, 10, 8, 35, 20, 23, 17, 19, 12, 23, 35, 20\n28, 18, 25, 20, 17, 24, 38, 24, 28, 10, 38, 21\n17, 28, 15, 18, 19, 25, 25, 16, 34, 11, 30, 11\n29, 13, 19, 24]", fillcolor="#ffffff"] ;
44 -> 45 ;
46 [label="X[2127] <= 0.96\ngini = 0.99\nsamples = 1411\nvalue = [16, 33, 16, 34, 17, 21, 18, 12, 19, 15, 17, 20\n21, 34, 22, 31, 21, 28, 19, 26, 34, 20, 24, 12\n25, 18, 13, 28, 28, 26, 7, 25, 23, 27, 17, 21\n15, 24, 19, 36, 16, 19, 24, 23, 21, 27, 30, 25\n10, 17, 18, 30, 24, 18, 29, 18, 18, 25, 19, 26\n19, 10, 8, 35, 20, 23, 17, 19, 12, 23, 35, 20\n28, 18, 25, 20, 17, 20, 38, 24, 28, 10, 38, 21\n17, 28, 15, 18, 19, 25, 25, 16, 34, 11, 30, 11\n29, 13, 19, 24]", fillcolor="#ffffff"] ;
45 -> 46 ;
47 [label="X[1112] <= 0.85\ngini = 0.99\nsamples = 1402\nvalue = [16, 33, 16, 34, 17, 21, 18, 12, 19, 13, 17, 20\n21, 34, 22, 31, 21, 28, 17, 26, 34, 20, 23, 12\n25, 18, 13, 28, 28, 26, 7, 25, 23, 27, 17, 21\n15, 24, 18, 30, 16, 19, 24, 23, 21, 27, 30, 25\n10, 17, 18, 30, 24, 17, 29, 18, 18, 25, 19, 26\n18, 10, 8, 35, 20, 23, 17, 19, 12, 23, 35, 20\n28, 18, 25, 20, 17, 20, 38, 24, 28, 10, 38, 21\n17, 28, 15, 18, 19, 21, 25, 16, 34, 11, 30, 11\n29, 13, 19, 24]", fillcolor="#ffffff"] ;
46 -> 47 ;
48 [label="X[1067] <= 0.91\ngini = 0.99\nsamples = 1381\nvalue = [16, 33, 16, 32, 13, 19, 18, 12, 19, 13, 17, 20\n21, 34, 22, 30, 21, 28, 17, 26, 34, 20, 23, 12\n25, 18, 13, 26, 28, 26, 7, 25, 23, 27, 17, 21\n15, 23, 18, 30, 16, 19, 24, 22, 21, 27, 30, 25\n10, 15, 18, 27, 24, 17, 27, 17, 16, 25, 19, 26\n18, 10, 8, 35, 20, 21, 17, 19, 12, 23, 35, 20\n28, 18, 25, 20, 17, 20, 38, 24, 28, 9, 38, 21\n17, 19, 15, 18, 19, 21, 25, 16, 34, 11, 30, 11\n29, 13, 19, 24]", fillcolor="#ffffff"] ;
47 -> 48 ;
49 [label="X[2579] <= 0.03\ngini = 0.99\nsamples = 1374\nvalue = [16, 32, 16, 32, 13, 19, 18, 12, 19, 13, 17, 20\n21, 34, 22, 30, 21, 28, 16, 26, 34, 20, 23, 12\n25, 18, 13, 26, 22, 26, 7, 25, 23, 27, 17, 21\n15, 23, 17, 30, 16, 19, 24, 22, 21, 27, 30, 25\n10, 15, 18, 27, 24, 17, 27, 17, 16, 25, 19, 26\n18, 10, 8, 35, 20, 21, 17, 19, 12, 23, 35, 20\n28, 18, 25, 20, 17, 20, 38, 24, 28, 9, 38, 21\n17, 19, 15, 18, 19, 21, 25, 16, 33, 11, 30, 11\n29, 13, 19, 22]", fillcolor="#ffffff"] ;
48 -> 49 ;
50 [label="X[3034] <= 0.44\ngini = 0.95\nsamples = 59\nvalue = [0, 6, 0, 0, 1, 1, 0, 0, 0, 0, 0, 0, 0, 2\n2, 0, 1, 0, 0, 1, 1, 0, 0, 0, 1, 5, 0, 3\n1, 0, 0, 0, 0, 0, 0, 0, 1, 1, 0, 3, 0, 0\n1, 2, 1, 0, 0, 0, 0, 0, 3, 0, 1, 1, 0, 2\n0, 0, 2, 1, 9, 0, 0, 12, 2, 1, 1, 2, 0, 2\n0, 2, 0, 0, 0, 0, 0, 3, 1, 0, 0, 0, 0, 0\n0, 0, 0, 0, 0, 0, 0, 0, 0, 0, 0, 2, 1, 1\n2, 2]", fillcolor="#f9f7fe"] ;
49 -> 50 ;
51 [label="X[2241] <= 0.54\ngini = 0.95\nsamples = 54\nvalue = [0, 6, 0, 0, 1, 1, 0, 0, 0, 0, 0, 0, 0, 0\n0, 0, 1, 0, 0, 1, 1, 0, 0, 0, 1, 5, 0, 3\n1, 0, 0, 0, 0, 0, 0, 0, 1, 1, 0, 3, 0, 0\n1, 2, 1, 0, 0, 0, 0, 0, 1, 0, 1, 1, 0, 2\n0, 0, 2, 1, 9, 0, 0, 4, 2, 1, 1, 2, 0, 2\n0, 2, 0, 0, 0, 0, 0, 3, 1, 0, 0, 0, 0, 0\n0, 0, 0, 0, 0, 0, 0, 0, 0, 0, 0, 2, 1, 1\n2, 2]", fillcolor="#f6f6fe"] ;
50 -> 51 ;
52 [label="X[553] <= 0.71\ngini = 0.96\nsamples = 52\nvalue = [0, 2, 0, 0, 1, 1, 0, 0, 0, 0, 0, 0, 0, 0\n0, 0, 1, 0, 0, 1, 1, 0, 0, 0, 1, 5, 0, 3\n1, 0, 0, 0, 0, 0, 0, 0, 1, 1, 0, 3, 0, 0\n1, 2, 1, 0, 0, 0, 0, 0, 1, 0, 1, 1, 0, 2\n0, 0, 2, 1, 9, 0, 0, 4, 2, 1, 1, 2, 0, 2\n0, 2, 0, 0, 0, 0, 0, 3, 1, 0, 0, 0, 0, 0\n0, 0, 0, 0, 0, 0, 0, 0, 0, 0, 0, 2, 1, 1\n2, 2]", fillcolor="#f3f3fd"] ;
51 -> 52 ;
53 [label="X[353] <= 0.66\ngini = 0.96\nsamples = 38\nvalue = [0, 1, 0, 0, 1, 1, 0, 0, 0, 0, 0, 0, 0, 0\n0, 0, 0, 0, 0, 1, 0, 0, 0, 0, 1, 0, 0, 1\n1, 0, 0, 0, 0, 0, 0, 0, 1, 1, 0, 3, 0, 0\n1, 2, 1, 0, 0, 0, 0, 0, 1, 0, 1, 1, 0, 1\n0, 0, 2, 0, 0, 0, 0, 4, 2, 1, 1, 2, 0, 2\n0, 2, 0, 0, 0, 0, 0, 3, 1, 0, 0, 0, 0, 0\n0, 0, 0, 0, 0, 0, 0, 0, 0, 0, 0, 0, 1, 1\n2, 2]", fillcolor="#fbfafe"] ;
52 -> 53 ;
54 [label="X[2581] <= 0.22\ngini = 0.96\nsamples = 35\nvalue = [0, 1, 0, 0, 1, 1, 0, 0, 0, 0, 0, 0, 0, 0\n0, 0, 0, 0, 0, 1, 0, 0, 0, 0, 0, 0, 0, 1\n1, 0, 0, 0, 0, 0, 0, 0, 1, 1, 0, 3, 0, 0\n1, 2, 1, 0, 0, 0, 0, 0, 1, 0, 1, 1, 0, 1\n0, 0, 2, 0, 0, 0, 0, 0, 2, 1, 1, 2, 0, 2\n0, 2, 0, 0, 0, 0, 0, 3, 1, 0, 0, 0, 0, 0\n0, 0, 0, 0, 0, 0, 0, 0, 0, 0, 0, 0, 1, 1\n2, 2]", fillcolor="#ffffff"] ;
53 -> 54 ;
55 [label="X[1754] <= 0.65\ngini = 0.96\nsamples = 32\nvalue = [0, 1, 0, 0, 1, 1, 0, 0, 0, 0, 0, 0, 0, 0\n0, 0, 0, 0, 0, 1, 0, 0, 0, 0, 0, 0, 0, 1\n1, 0, 0, 0, 0, 0, 0, 0, 1, 1, 0, 0, 0, 0\n1, 2, 1, 0, 0, 0, 0, 0, 1, 0, 1, 1, 0, 1\n0, 0, 2, 0, 0, 0, 0, 0, 2, 1, 1, 2, 0, 2\n0, 2, 0, 0, 0, 0, 0, 3, 1, 0, 0, 0, 0, 0\n0, 0, 0, 0, 0, 0, 0, 0, 0, 0, 0, 0, 1, 1\n2, 0]", fillcolor="#fef9fe"] ;
54 -> 55 ;
56 [label="X[2594] <= 0.01\ngini = 0.96\nsamples = 31\nvalue = [0, 1, 0, 0, 1, 1, 0, 0, 0, 0, 0, 0, 0, 0\n0, 0, 0, 0, 0, 1, 0, 0, 0, 0, 0, 0, 0, 1\n1, 0, 0, 0, 0, 0, 0, 0, 1, 1, 0, 0, 0, 0\n1, 2, 1, 0, 0, 0, 0, 0, 1, 0, 1, 1, 0, 1\n0, 0, 2, 0, 0, 0, 0, 0, 0, 1, 1, 2, 0, 2\n0, 2, 0, 0, 0, 0, 0, 3, 1, 0, 0, 0, 0, 0\n0, 0, 0, 0, 0, 0, 0, 0, 0, 0, 0, 0, 1, 1\n2, 0]", fillcolor="#fef9fe"] ;
55 -> 56 ;
57 [label="gini = 0.73\nsamples = 6\nvalue = [0, 0, 0, 0, 1, 0, 0, 0, 0, 0, 0, 0, 0, 0\n0, 0, 0, 0, 0, 0, 0, 0, 0, 0, 0, 0, 0, 0\n1, 0, 0, 0, 0, 0, 0, 0, 0, 0, 0, 0, 0, 0\n0, 0, 0, 0, 0, 0, 0, 0, 0, 0, 1, 0, 0, 0\n0, 0, 0, 0, 0, 0, 0, 0, 0, 1, 0, 0, 0, 0\n0, 0, 0, 0, 0, 0, 0, 3, 0, 0, 0, 0, 0, 0\n0, 0, 0, 0, 0, 0, 0, 0, 0, 0, 0, 0, 0, 0\n0, 0]", fillcolor="#f6bdf4"] ;
56 -> 57 ;
58 [label="gini = 0.95\nsamples = 25\nvalue = [0, 1, 0, 0, 0, 1, 0, 0, 0, 0, 0, 0, 0, 0\n0, 0, 0, 0, 0, 1, 0, 0, 0, 0, 0, 0, 0, 1\n0, 0, 0, 0, 0, 0, 0, 0, 1, 1, 0, 0, 0, 0\n1, 2, 1, 0, 0, 0, 0, 0, 1, 0, 0, 1, 0, 1\n0, 0, 2, 0, 0, 0, 0, 0, 0, 0, 1, 2, 0, 2\n0, 2, 0, 0, 0, 0, 0, 0, 1, 0, 0, 0, 0, 0\n0, 0, 0, 0, 0, 0, 0, 0, 0, 0, 0, 0, 1, 1\n2, 0]", fillcolor="#ffffff"] ;
56 -> 58 ;
59 [label="gini = 0.0\nsamples = 1\nvalue = [0, 0, 0, 0, 0, 0, 0, 0, 0, 0, 0, 0, 0, 0\n0, 0, 0, 0, 0, 0, 0, 0, 0, 0, 0, 0, 0, 0\n0, 0, 0, 0, 0, 0, 0, 0, 0, 0, 0, 0, 0, 0\n0, 0, 0, 0, 0, 0, 0, 0, 0, 0, 0, 0, 0, 0\n0, 0, 0, 0, 0, 0, 0, 0, 2, 0, 0, 0, 0, 0\n0, 0, 0, 0, 0, 0, 0, 0, 0, 0, 0, 0, 0, 0\n0, 0, 0, 0, 0, 0, 0, 0, 0, 0, 0, 0, 0, 0\n0, 0]", fillcolor="#6439e5"] ;
55 -> 59 ;
60 [label="gini = 0.48\nsamples = 3\nvalue = [0, 0, 0, 0, 0, 0, 0, 0, 0, 0, 0, 0, 0, 0\n0, 0, 0, 0, 0, 0, 0, 0, 0, 0, 0, 0, 0, 0\n0, 0, 0, 0, 0, 0, 0, 0, 0, 0, 0, 3, 0, 0\n0, 0, 0, 0, 0, 0, 0, 0, 0, 0, 0, 0, 0, 0\n0, 0, 0, 0, 0, 0, 0, 0, 0, 0, 0, 0, 0, 0\n0, 0, 0, 0, 0, 0, 0, 0, 0, 0, 0, 0, 0, 0\n0, 0, 0, 0, 0, 0, 0, 0, 0, 0, 0, 0, 0, 0\n0, 2]", fillcolor="#bdf6e8"] ;
54 -> 60 ;
61 [label="gini = 0.32\nsamples = 3\nvalue = [0, 0, 0, 0, 0, 0, 0, 0, 0, 0, 0, 0, 0, 0\n0, 0, 0, 0, 0, 0, 0, 0, 0, 0, 1, 0, 0, 0\n0, 0, 0, 0, 0, 0, 0, 0, 0, 0, 0, 0, 0, 0\n0, 0, 0, 0, 0, 0, 0, 0, 0, 0, 0, 0, 0, 0\n0, 0, 0, 0, 0, 0, 0, 4, 0, 0, 0, 0, 0, 0\n0, 0, 0, 0, 0, 0, 0, 0, 0, 0, 0, 0, 0, 0\n0, 0, 0, 0, 0, 0, 0, 0, 0, 0, 0, 0, 0, 0\n0, 0]", fillcolor="#826aec"] ;
53 -> 61 ;
62 [label="gini = 0.78\nsamples = 14\nvalue = [0, 1, 0, 0, 0, 0, 0, 0, 0, 0, 0, 0, 0, 0\n0, 0, 1, 0, 0, 0, 1, 0, 0, 0, 0, 5, 0, 2\n0, 0, 0, 0, 0, 0, 0, 0, 0, 0, 0, 0, 0, 0\n0, 0, 0, 0, 0, 0, 0, 0, 0, 0, 0, 0, 0, 1\n0, 0, 0, 1, 9, 0, 0, 0, 0, 0, 0, 0, 0, 0\n0, 0, 0, 0, 0, 0, 0, 0, 0, 0, 0, 0, 0, 0\n0, 0, 0, 0, 0, 0, 0, 0, 0, 0, 0, 2, 0, 0\n0, 0]", fillcolor="#d4d3f9"] ;
52 -> 62 ;
63 [label="gini = 0.0\nsamples = 2\nvalue = [0, 4, 0, 0, 0, 0, 0, 0, 0, 0, 0, 0, 0, 0\n0, 0, 0, 0, 0, 0, 0, 0, 0, 0, 0, 0, 0, 0\n0, 0, 0, 0, 0, 0, 0, 0, 0, 0, 0, 0, 0, 0\n0, 0, 0, 0, 0, 0, 0, 0, 0, 0, 0, 0, 0, 0\n0, 0, 0, 0, 0, 0, 0, 0, 0, 0, 0, 0, 0, 0\n0, 0, 0, 0, 0, 0, 0, 0, 0, 0, 0, 0, 0, 0\n0, 0, 0, 0, 0, 0, 0, 0, 0, 0, 0, 0, 0, 0\n0, 0]", fillcolor="#e58939"] ;
51 -> 63 ;
64 [label="gini = 0.61\nsamples = 5\nvalue = [0, 0, 0, 0, 0, 0, 0, 0, 0, 0, 0, 0, 0, 2\n2, 0, 0, 0, 0, 0, 0, 0, 0, 0, 0, 0, 0, 0\n0, 0, 0, 0, 0, 0, 0, 0, 0, 0, 0, 0, 0, 0\n0, 0, 0, 0, 0, 0, 0, 0, 2, 0, 0, 0, 0, 0\n0, 0, 0, 0, 0, 0, 0, 8, 0, 0, 0, 0, 0, 0\n0, 0, 0, 0, 0, 0, 0, 0, 0, 0, 0, 0, 0, 0\n0, 0, 0, 0, 0, 0, 0, 0, 0, 0, 0, 0, 0, 0\n0, 0]", fillcolor="#ac9cf2"] ;
50 -> 64 ;
65 [label="X[1754] <= 0.0\ngini = 0.99\nsamples = 1315\nvalue = [16, 26, 16, 32, 12, 18, 18, 12, 19, 13, 17, 20\n21, 32, 20, 30, 20, 28, 16, 25, 33, 20, 23, 12\n24, 13, 13, 23, 21, 26, 7, 25, 23, 27, 17, 21\n14, 22, 17, 27, 16, 19, 23, 20, 20, 27, 30, 25\n10, 15, 15, 27, 23, 16, 27, 15, 16, 25, 17, 25\n9, 10, 8, 23, 18, 20, 16, 17, 12, 21, 35, 18\n28, 18, 25, 20, 17, 17, 37, 24, 28, 9, 38, 21\n17, 19, 15, 18, 19, 21, 25, 16, 33, 11, 30, 9\n28, 12, 17, 20]", fillcolor="#ffffff"] ;
49 -> 65 ;
66 [label="gini = 0.87\nsamples = 17\nvalue = [2, 0, 0, 0, 0, 0, 0, 0, 0, 0, 0, 2, 0, 1\n1, 0, 0, 0, 0, 0, 0, 0, 0, 0, 0, 0, 0, 0\n0, 3, 0, 0, 0, 0, 0, 0, 0, 0, 0, 1, 0, 0\n1, 0, 0, 0, 0, 3, 0, 0, 0, 0, 1, 0, 0, 0\n0, 0, 0, 0, 0, 0, 0, 0, 0, 0, 0, 0, 0, 0\n0, 0, 0, 0, 1, 0, 0, 0, 0, 0, 0, 0, 0, 0\n0, 0, 0, 0, 0, 0, 0, 0, 2, 0, 2, 0, 8, 0\n0, 0]", fillcolor="#faddd7"] ;
65 -> 66 ;
67 [label="X[1071] <= 0.97\ngini = 0.99\nsamples = 1298\nvalue = [14, 26, 16, 32, 12, 18, 18, 12, 19, 13, 17, 18\n21, 31, 19, 30, 20, 28, 16, 25, 33, 20, 23, 12\n24, 13, 13, 23, 21, 23, 7, 25, 23, 27, 17, 21\n14, 22, 17, 26, 16, 19, 22, 20, 20, 27, 30, 22\n10, 15, 15, 27, 22, 16, 27, 15, 16, 25, 17, 25\n9, 10, 8, 23, 18, 20, 16, 17, 12, 21, 35, 18\n28, 18, 24, 20, 17, 17, 37, 24, 28, 9, 38, 21\n17, 19, 15, 18, 19, 21, 25, 16, 31, 11, 28, 9\n20, 12, 17, 20]", fillcolor="#ffffff"] ;
65 -> 67 ;
68 [label="X[2679] <= 0.0\ngini = 0.99\nsamples = 1297\nvalue = [14, 26, 16, 32, 12, 18, 18, 12, 19, 13, 17, 18\n21, 31, 19, 30, 20, 28, 16, 25, 33, 20, 23, 12\n24, 13, 13, 23, 21, 23, 7, 25, 23, 27, 17, 21\n14, 22, 17, 26, 16, 19, 22, 20, 20, 27, 30, 22\n10, 15, 15, 27, 22, 16, 27, 15, 16, 25, 17, 25\n9, 10, 8, 23, 18, 20, 16, 17, 12, 21, 35, 18\n28, 18, 24, 20, 17, 17, 37, 21, 28, 9, 38, 21\n17, 19, 15, 18, 19, 21, 25, 16, 31, 11, 28, 9\n20, 12, 17, 20]", fillcolor="#ffffff"] ;
67 -> 68 ;
69 [label="gini = 0.77\nsamples = 8\nvalue = [0, 0, 0, 0, 0, 0, 0, 0, 0, 0, 0, 0, 0, 0\n0, 0, 0, 0, 0, 0, 0, 0, 6, 0, 0, 0, 0, 2\n0, 0, 0, 1, 0, 0, 0, 0, 0, 0, 0, 0, 0, 0\n0, 0, 0, 3, 0, 0, 0, 0, 0, 0, 0, 0, 0, 0\n0, 2, 2, 0, 0, 0, 0, 0, 0, 0, 0, 0, 0, 0\n0, 0, 0, 0, 0, 0, 0, 0, 0, 0, 0, 0, 0, 0\n0, 0, 0, 0, 0, 0, 0, 0, 0, 0, 0, 0, 0, 0\n0, 0]", fillcolor="#dcf9d1"] ;
68 -> 69 ;
70 [label="X[1431] <= 0.94\ngini = 0.99\nsamples = 1289\nvalue = [14, 26, 16, 32, 12, 18, 18, 12, 19, 13, 17, 18\n21, 31, 19, 30, 20, 28, 16, 25, 33, 20, 17, 12\n24, 13, 13, 21, 21, 23, 7, 24, 23, 27, 17, 21\n14, 22, 17, 26, 16, 19, 22, 20, 20, 24, 30, 22\n10, 15, 15, 27, 22, 16, 27, 15, 16, 23, 15, 25\n9, 10, 8, 23, 18, 20, 16, 17, 12, 21, 35, 18\n28, 18, 24, 20, 17, 17, 37, 21, 28, 9, 38, 21\n17, 19, 15, 18, 19, 21, 25, 16, 31, 11, 28, 9\n20, 12, 17, 20]", fillcolor="#ffffff"] ;
68 -> 70 ;
71 [label="X[2473] <= 0.92\ngini = 0.99\nsamples = 1287\nvalue = [14, 26, 16, 32, 12, 18, 18, 12, 19, 13, 17, 18\n18, 31, 19, 30, 20, 28, 16, 25, 33, 20, 17, 12\n24, 13, 13, 21, 21, 23, 7, 24, 23, 27, 17, 21\n14, 22, 17, 26, 16, 19, 22, 20, 20, 24, 30, 22\n10, 15, 15, 27, 22, 16, 27, 15, 16, 23, 15, 25\n9, 10, 8, 23, 18, 20, 16, 17, 12, 21, 35, 18\n28, 18, 24, 20, 17, 17, 37, 21, 28, 9, 38, 21\n17, 19, 15, 18, 19, 21, 25, 16, 31, 11, 28, 9\n20, 12, 17, 20]", fillcolor="#ffffff"] ;
70 -> 71 ;
72 [label="X[491] <= 0.01\ngini = 0.99\nsamples = 1284\nvalue = [14, 26, 16, 32, 12, 18, 18, 12, 19, 13, 17, 18\n18, 31, 19, 30, 20, 28, 16, 25, 33, 20, 17, 12\n24, 13, 13, 21, 21, 23, 7, 20, 23, 27, 17, 21\n14, 22, 16, 26, 16, 19, 22, 20, 20, 24, 27, 22\n10, 15, 15, 27, 22, 16, 27, 15, 16, 23, 15, 25\n9, 10, 8, 23, 18, 20, 16, 17, 12, 21, 35, 18\n28, 18, 24, 20, 17, 17, 37, 21, 28, 9, 38, 21\n17, 19, 15, 18, 19, 21, 25, 16, 31, 11, 28, 9\n20, 12, 17, 20]", fillcolor="#ffffff"] ;
71 -> 72 ;
73 [label="gini = 0.69\nsamples = 6\nvalue = [0, 0, 0, 0, 0, 0, 0, 0, 0, 0, 0, 0, 0, 0\n0, 0, 0, 0, 0, 0, 0, 0, 0, 0, 0, 0, 0, 0\n0, 0, 0, 0, 0, 0, 0, 0, 0, 0, 0, 0, 0, 0\n0, 0, 0, 5, 0, 3, 0, 0, 0, 1, 0, 0, 0, 0\n0, 1, 0, 0, 0, 0, 0, 0, 0, 0, 0, 0, 0, 0\n0, 0, 0, 0, 0, 0, 0, 0, 0, 0, 0, 0, 0, 0\n0, 0, 0, 0, 0, 0, 1, 0, 0, 0, 0, 0, 0, 0\n0, 0]", fillcolor="#cef4f8"] ;
72 -> 73 ;
74 [label="X[561] <= 0.41\ngini = 0.99\nsamples = 1278\nvalue = [14, 26, 16, 32, 12, 18, 18, 12, 19, 13, 17, 18\n18, 31, 19, 30, 20, 28, 16, 25, 33, 20, 17, 12\n24, 13, 13, 21, 21, 23, 7, 20, 23, 27, 17, 21\n14, 22, 16, 26, 16, 19, 22, 20, 20, 19, 27, 19\n10, 15, 15, 26, 22, 16, 27, 15, 16, 22, 15, 25\n9, 10, 8, 23, 18, 20, 16, 17, 12, 21, 35, 18\n28, 18, 24, 20, 17, 17, 37, 21, 28, 9, 38, 21\n17, 19, 15, 18, 19, 21, 24, 16, 31, 11, 28, 9\n20, 12, 17, 20]", fillcolor="#ffffff"] ;
72 -> 74 ;
75 [label="X[397] <= 0.04\ngini = 0.99\nsamples = 507\nvalue = [4, 11, 12, 16, 2, 8, 10, 0, 4, 1, 4, 8, 8\n24, 8, 18, 6, 5, 5, 11, 18, 12, 7, 6, 15, 8\n8, 6, 8, 15, 0, 10, 11, 19, 3, 7, 7, 3, 9, 9\n5, 11, 5, 8, 13, 8, 20, 7, 4, 4, 1, 13, 14\n2, 4, 0, 9, 16, 5, 8, 4, 5, 3, 12, 3, 3, 7\n4, 5, 10, 18, 3, 9, 12, 6, 16, 4, 6, 10, 10\n5, 3, 13, 9, 8, 7, 2, 6, 7, 10, 12, 10, 21\n3, 3, 5, 12, 3, 3, 4]", fillcolor="#fffffe"] ;
74 -> 75 ;
76 [label="gini = 0.85\nsamples = 16\nvalue = [2, 0, 0, 8, 0, 0, 0, 0, 0, 0, 0, 0, 0, 0\n0, 0, 0, 0, 0, 0, 0, 0, 0, 0, 0, 0, 0, 0\n0, 2, 0, 0, 0, 0, 0, 0, 0, 0, 0, 0, 0, 0\n0, 1, 1, 0, 0, 0, 0, 1, 0, 0, 0, 0, 0, 0\n0, 3, 0, 2, 0, 0, 0, 0, 2, 0, 0, 0, 0, 0\n0, 0, 0, 0, 0, 0, 0, 0, 1, 0, 0, 0, 0, 0\n0, 0, 0, 0, 0, 1, 0, 0, 0, 0, 0, 0, 0, 1\n0, 0]", fillcolor="#f9e9d2"] ;
75 -> 76 ;
77 [label="X[1919] <= 0.87\ngini = 0.99\nsamples = 491\nvalue = [2, 11, 12, 8, 2, 8, 10, 0, 4, 1, 4, 8, 8, 24\n8, 18, 6, 5, 5, 11, 18, 12, 7, 6, 15, 8, 8\n6, 8, 13, 0, 10, 11, 19, 3, 7, 7, 3, 9, 9, 5\n11, 5, 7, 12, 8, 20, 7, 4, 3, 1, 13, 14, 2\n4, 0, 9, 13, 5, 6, 4, 5, 3, 12, 1, 3, 7, 4\n5, 10, 18, 3, 9, 12, 6, 16, 4, 6, 9, 10, 5\n3, 13, 9, 8, 7, 2, 6, 7, 9, 12, 10, 21, 3, 3\n5, 12, 2, 3, 4]", fillcolor="#fffffe"] ;
75 -> 77 ;
78 [label="X[2422] <= 0.01\ngini = 0.99\nsamples = 487\nvalue = [2, 11, 12, 8, 2, 8, 10, 0, 4, 1, 4, 8, 8, 24\n8, 18, 6, 5, 5, 11, 18, 12, 7, 6, 15, 8, 8\n6, 8, 13, 0, 10, 11, 19, 3, 7, 7, 3, 9, 9, 5\n11, 5, 7, 12, 8, 20, 7, 4, 3, 1, 13, 14, 2\n4, 0, 9, 13, 4, 6, 4, 5, 3, 12, 1, 3, 7, 4\n5, 7, 18, 3, 8, 7, 6, 16, 4, 6, 9, 10, 5, 3\n13, 9, 8, 7, 2, 6, 7, 9, 12, 10, 21, 3, 3, 5\n12, 2, 3, 4]", fillcolor="#fffffe"] ;
77 -> 78 ;
79 [label="gini = 0.32\nsamples = 2\nvalue = [0, 0, 0, 0, 0, 0, 0, 0, 0, 0, 0, 0, 0, 0\n0, 0, 0, 0, 0, 0, 0, 1, 0, 0, 0, 0, 0, 0\n0, 0, 0, 0, 0, 0, 0, 0, 0, 0, 0, 0, 0, 0\n4, 0, 0, 0, 0, 0, 0, 0, 0, 0, 0, 0, 0, 0\n0, 0, 0, 0, 0, 0, 0, 0, 0, 0, 0, 0, 0, 0\n0, 0, 0, 0, 0, 0, 0, 0, 0, 0, 0, 0, 0, 0\n0, 0, 0, 0, 0, 0, 0, 0, 0, 0, 0, 0, 0, 0\n0, 0]", fillcolor="#6aece3"] ;
78 -> 79 ;
80 [label="X[1217] <= 0.0\ngini = 0.99\nsamples = 485\nvalue = [2, 11, 12, 8, 2, 8, 10, 0, 4, 1, 4, 8, 8, 24\n8, 18, 6, 5, 5, 11, 18, 11, 7, 6, 15, 8, 8\n6, 8, 13, 0, 10, 11, 19, 3, 7, 7, 3, 9, 9, 5\n11, 1, 7, 12, 8, 20, 7, 4, 3, 1, 13, 14, 2\n4, 0, 9, 13, 4, 6, 4, 5, 3, 12, 1, 3, 7, 4\n5, 7, 18, 3, 8, 7, 6, 16, 4, 6, 9, 10, 5, 3\n13, 9, 8, 7, 2, 6, 7, 9, 12, 10, 21, 3, 3, 5\n12, 2, 3, 4]", fillcolor="#fffffe"] ;
78 -> 80 ;
81 [label="gini = 0.63\nsamples = 4\nvalue = [0, 0, 0, 0, 0, 0, 0, 0, 0, 0, 0, 0, 0, 6\n0, 0, 0, 0, 0, 0, 0, 0, 0, 0, 0, 0, 0, 0\n0, 0, 0, 1, 0, 0, 0, 0, 0, 0, 0, 2, 0, 0\n0, 0, 0, 0, 0, 0, 0, 0, 0, 0, 0, 0, 0, 0\n0, 0, 0, 0, 0, 0, 0, 0, 0, 0, 0, 0, 0, 2\n0, 0, 0, 0, 0, 0, 0, 0, 0, 0, 0, 0, 0, 0\n0, 0, 0, 0, 0, 0, 0, 0, 0, 0, 0, 0, 0, 0\n0, 0]", fillcolor="#e5f3a7"] ;
80 -> 81 ;
82 [label="X[1096] <= 0.62\ngini = 0.99\nsamples = 481\nvalue = [2, 11, 12, 8, 2, 8, 10, 0, 4, 1, 4, 8, 8, 18\n8, 18, 6, 5, 5, 11, 18, 11, 7, 6, 15, 8, 8\n6, 8, 13, 0, 9, 11, 19, 3, 7, 7, 3, 9, 7, 5\n11, 1, 7, 12, 8, 20, 7, 4, 3, 1, 13, 14, 2\n4, 0, 9, 13, 4, 6, 4, 5, 3, 12, 1, 3, 7, 4\n5, 5, 18, 3, 8, 7, 6, 16, 4, 6, 9, 10, 5, 3\n13, 9, 8, 7, 2, 6, 7, 9, 12, 10, 21, 3, 3, 5\n12, 2, 3, 4]", fillcolor="#ffffff"] ;
80 -> 82 ;
83 [label="X[2042] <= 0.02\ngini = 0.99\nsamples = 444\nvalue = [2, 7, 9, 8, 2, 5, 9, 0, 4, 1, 4, 8, 8, 18\n8, 7, 6, 5, 5, 11, 18, 10, 7, 6, 15, 6, 8, 6\n8, 13, 0, 5, 11, 17, 3, 7, 5, 3, 9, 6, 5, 11\n1, 7, 12, 7, 10, 5, 4, 3, 0, 12, 14, 2, 3, 0\n9, 13, 4, 6, 3, 5, 3, 12, 1, 3, 7, 4, 5, 5\n17, 3, 8, 7, 6, 15, 4, 6, 9, 10, 3, 3, 13, 9\n8, 7, 2, 6, 7, 9, 9, 10, 21, 3, 3, 4, 12, 2\n2, 4]", fillcolor="#fffefe"] ;
82 -> 83 ;
84 [label="X[1107] <= 0.03\ngini = 0.93\nsamples = 35\nvalue = [0, 0, 0, 0, 0, 0, 0, 0, 0, 0, 1, 0, 0, 0\n1, 1, 0, 0, 0, 1, 0, 0, 0, 1, 0, 1, 0, 0\n0, 0, 0, 0, 0, 1, 3, 0, 0, 0, 0, 0, 0, 4\n0, 0, 0, 0, 0, 0, 0, 2, 0, 3, 0, 0, 0, 0\n2, 0, 0, 1, 0, 1, 1, 0, 1, 0, 0, 0, 0, 0\n0, 0, 1, 0, 2, 0, 0, 2, 1, 1, 0, 0, 0, 0\n0, 0, 0, 0, 0, 0, 5, 1, 9, 0, 0, 0, 0, 1\n0, 0]", fillcolor="#fdedee"] ;
83 -> 84 ;
85 [label="gini = 0.83\nsamples = 8\nvalue = [0, 0, 0, 0, 0, 0, 0, 0, 0, 0, 0, 0, 0, 0\n1, 0, 0, 0, 0, 1, 0, 0, 0, 0, 0, 0, 0, 0\n0, 0, 0, 0, 0, 0, 3, 0, 0, 0, 0, 0, 0, 0\n0, 0, 0, 0, 0, 0, 0, 2, 0, 0, 0, 0, 0, 0\n2, 0, 0, 0, 0, 0, 0, 0, 0, 0, 0, 0, 0, 0\n0, 0, 0, 0, 0, 0, 0, 2, 0, 0, 0, 0, 0, 0\n0, 0, 0, 0, 0, 0, 0, 0, 0, 0, 0, 0, 0, 1\n0, 0]", fillcolor="#ebfcf3"] ;
84 -> 85 ;
86 [label="gini = 0.89\nsamples = 27\nvalue = [0, 0, 0, 0, 0, 0, 0, 0, 0, 0, 1, 0, 0, 0\n0, 1, 0, 0, 0, 0, 0, 0, 0, 1, 0, 1, 0, 0\n0, 0, 0, 0, 0, 1, 0, 0, 0, 0, 0, 0, 0, 4\n0, 0, 0, 0, 0, 0, 0, 0, 0, 3, 0, 0, 0, 0\n0, 0, 0, 1, 0, 1, 1, 0, 1, 0, 0, 0, 0, 0\n0, 0, 1, 0, 2, 0, 0, 0, 1, 1, 0, 0, 0, 0\n0, 0, 0, 0, 0, 0, 5, 1, 9, 0, 0, 0, 0, 0\n0, 0]", fillcolor="#fce5e7"] ;
84 -> 86 ;
87 [label="X[1356] <= 0.01\ngini = 0.99\nsamples = 409\nvalue = [2, 7, 9, 8, 2, 5, 9, 0, 4, 1, 3, 8, 8, 18\n7, 6, 6, 5, 5, 10, 18, 10, 7, 5, 15, 5, 8, 6\n8, 13, 0, 5, 11, 16, 0, 7, 5, 3, 9, 6, 5, 7\n1, 7, 12, 7, 10, 5, 4, 1, 0, 9, 14, 2, 3, 0\n7, 13, 4, 5, 3, 4, 2, 12, 0, 3, 7, 4, 5, 5\n17, 3, 7, 7, 4, 15, 4, 4, 8, 9, 3, 3, 13, 9\n8, 7, 2, 6, 7, 9, 4, 9, 12, 3, 3, 4, 12, 1\n2, 4]", fillcolor="#ffffff"] ;
83 -> 87 ;
88 [label="gini = 0.0\nsamples = 2\nvalue = [0, 0, 0, 0, 0, 0, 0, 0, 0, 0, 0, 0, 0, 0\n0, 0, 0, 0, 0, 0, 0, 0, 0, 0, 0, 0, 0, 0\n0, 0, 0, 0, 0, 0, 0, 0, 0, 0, 0, 0, 0, 0\n0, 0, 0, 0, 0, 0, 0, 0, 0, 0, 4, 0, 0, 0\n0, 0, 0, 0, 0, 0, 0, 0, 0, 0, 0, 0, 0, 0\n0, 0, 0, 0, 0, 0, 0, 0, 0, 0, 0, 0, 0, 0\n0, 0, 0, 0, 0, 0, 0, 0, 0, 0, 0, 0, 0, 0\n0, 0]", fillcolor="#3989e5"] ;
87 -> 88 ;
89 [label="gini = 0.99\nsamples = 407\nvalue = [2, 7, 9, 8, 2, 5, 9, 0, 4, 1, 3, 8, 8, 18\n7, 6, 6, 5, 5, 10, 18, 10, 7, 5, 15, 5, 8, 6\n8, 13, 0, 5, 11, 16, 0, 7, 5, 3, 9, 6, 5, 7\n1, 7, 12, 7, 10, 5, 4, 1, 0, 9, 10, 2, 3, 0\n7, 13, 4, 5, 3, 4, 2, 12, 0, 3, 7, 4, 5, 5\n17, 3, 7, 7, 4, 15, 4, 4, 8, 9, 3, 3, 13, 9\n8, 7, 2, 6, 7, 9, 4, 9, 12, 3, 3, 4, 12, 1\n2, 4]", fillcolor="#ffffff"] ;
87 -> 89 ;
90 [label="X[2683] <= 0.12\ngini = 0.91\nsamples = 37\nvalue = [0, 4, 3, 0, 0, 3, 1, 0, 0, 0, 0, 0, 0, 0\n0, 11, 0, 0, 0, 0, 0, 1, 0, 0, 0, 2, 0, 0\n0, 0, 0, 4, 0, 2, 0, 0, 2, 0, 0, 1, 0, 0\n0, 0, 0, 1, 10, 2, 0, 0, 1, 1, 0, 0, 1, 0\n0, 0, 0, 0, 1, 0, 0, 0, 0, 0, 0, 0, 0, 0\n1, 0, 0, 0, 0, 1, 0, 0, 0, 0, 2, 0, 0, 0\n0, 0, 0, 0, 0, 0, 3, 0, 0, 0, 0, 1, 0, 0\n1, 0]", fillcolor="#fdfefb"] ;
82 -> 90 ;
91 [label="gini = 0.62\nsamples = 9\nvalue = [0, 0, 0, 0, 0, 0, 0, 0, 0, 0, 0, 0, 0, 0\n0, 11, 0, 0, 0, 0, 0, 0, 0, 0, 0, 0, 0, 0\n0, 0, 0, 0, 0, 0, 0, 0, 0, 0, 0, 0, 0, 0\n0, 0, 0, 0, 3, 0, 0, 0, 1, 0, 0, 0, 0, 0\n0, 0, 0, 0, 1, 0, 0, 0, 0, 0, 0, 0, 0, 0\n0, 0, 0, 0, 0, 0, 0, 0, 0, 0, 2, 0, 0, 0\n0, 0, 0, 0, 0, 0, 0, 0, 0, 0, 0, 0, 0, 0\n1, 0]", fillcolor="#d6f29c"] ;
90 -> 91 ;
92 [label="gini = 0.92\nsamples = 28\nvalue = [0, 4, 3, 0, 0, 3, 1, 0, 0, 0, 0, 0, 0, 0\n0, 0, 0, 0, 0, 0, 0, 1, 0, 0, 0, 2, 0, 0\n0, 0, 0, 4, 0, 2, 0, 0, 2, 0, 0, 1, 0, 0\n0, 0, 0, 1, 7, 2, 0, 0, 0, 1, 0, 0, 1, 0\n0, 0, 0, 0, 0, 0, 0, 0, 0, 0, 0, 0, 0, 0\n1, 0, 0, 0, 0, 1, 0, 0, 0, 0, 0, 0, 0, 0\n0, 0, 0, 0, 0, 0, 3, 0, 0, 0, 0, 1, 0, 0\n0, 0]", fillcolor="#effbfd"] ;
90 -> 92 ;
93 [label="gini = 0.64\nsamples = 4\nvalue = [0, 0, 0, 0, 0, 0, 0, 0, 0, 0, 0, 0, 0, 0\n0, 0, 0, 0, 0, 0, 0, 0, 0, 0, 0, 0, 0, 0\n0, 0, 0, 0, 0, 0, 0, 0, 0, 0, 0, 0, 0, 0\n0, 0, 0, 0, 0, 0, 0, 0, 0, 0, 0, 0, 0, 0\n0, 0, 1, 0, 0, 0, 0, 0, 0, 0, 0, 0, 0, 3\n0, 0, 1, 5, 0, 0, 0, 0, 0, 0, 0, 0, 0, 0\n0, 0, 0, 0, 0, 0, 0, 0, 0, 0, 0, 0, 0, 0\n0, 0]", fillcolor="#edc6f8"] ;
77 -> 93 ;
94 [label="X[1802] <= 0.81\ngini = 0.99\nsamples = 771\nvalue = [10, 15, 4, 16, 10, 10, 8, 12, 15, 12, 13, 10\n10, 7, 11, 12, 14, 23, 11, 14, 15, 8, 10, 6, 9\n5, 5, 15, 13, 8, 7, 10, 12, 8, 14, 14, 7, 19\n7, 17, 11, 8, 17, 12, 7, 11, 7, 12, 6, 11, 14\n13, 8, 14, 23, 15, 7, 6, 10, 17, 5, 5, 5, 11\n15, 17, 9, 13, 7, 11, 17, 15, 19, 6, 18, 4, 13\n11, 27, 11, 23, 6, 25, 12, 9, 12, 13, 12, 12\n11, 12, 6, 10, 8, 25, 4, 8, 9, 14, 16]", fillcolor="#ffffff"] ;
74 -> 94 ;
95 [label="X[1565] <= 0.85\ngini = 0.99\nsamples = 768\nvalue = [10, 15, 4, 16, 10, 10, 8, 12, 15, 12, 13, 10\n10, 7, 11, 12, 14, 23, 11, 14, 15, 8, 10, 6, 9\n5, 5, 15, 13, 8, 7, 10, 12, 8, 14, 14, 7, 19\n3, 17, 11, 8, 17, 12, 7, 11, 7, 12, 6, 11, 14\n13, 8, 14, 23, 15, 7, 6, 10, 17, 5, 5, 5, 11\n15, 17, 9, 13, 7, 11, 17, 15, 19, 6, 18, 4, 13\n11, 27, 11, 23, 6, 23, 12, 9, 12, 13, 12, 12\n11, 12, 6, 10, 8, 25, 4, 8, 9, 14, 16]", fillcolor="#ffffff"] ;
94 -> 95 ;
96 [label="X[137] <= 0.92\ngini = 0.99\nsamples = 763\nvalue = [10, 15, 4, 16, 10, 10, 8, 12, 15, 12, 13, 10\n10, 7, 11, 12, 14, 23, 11, 14, 15, 8, 9, 5, 9\n5, 5, 15, 13, 8, 7, 10, 12, 8, 14, 14, 7, 19\n3, 17, 11, 8, 12, 11, 7, 11, 7, 12, 6, 11, 14\n13, 8, 14, 23, 15, 7, 6, 10, 17, 5, 5, 5, 11\n15, 17, 9, 13, 7, 11, 17, 15, 19, 6, 18, 4, 13\n11, 27, 11, 23, 6, 23, 12, 9, 12, 13, 12, 12\n11, 12, 6, 10, 8, 25, 4, 8, 9, 14, 16]", fillcolor="#ffffff"] ;
95 -> 96 ;
97 [label="X[1661] <= 0.0\ngini = 0.99\nsamples = 761\nvalue = [10, 15, 4, 16, 10, 10, 8, 12, 15, 12, 13, 10\n10, 7, 11, 12, 14, 23, 11, 14, 15, 8, 9, 5, 9\n5, 5, 11, 13, 8, 7, 10, 12, 8, 14, 14, 7, 19\n3, 17, 11, 8, 12, 11, 7, 11, 7, 12, 6, 11, 14\n13, 8, 14, 23, 15, 7, 6, 10, 17, 5, 5, 5, 11\n15, 17, 9, 13, 7, 11, 17, 15, 19, 6, 18, 4, 13\n11, 27, 11, 23, 6, 23, 12, 9, 12, 13, 12, 12\n11, 12, 6, 10, 8, 24, 4, 8, 9, 14, 16]", fillcolor="#fffeff"] ;
96 -> 97 ;
98 [label="gini = 0.76\nsamples = 8\nvalue = [0, 0, 0, 0, 0, 0, 0, 0, 0, 0, 0, 0, 0, 1\n0, 0, 0, 6, 0, 0, 0, 0, 0, 0, 0, 0, 0, 0\n0, 0, 0, 0, 0, 0, 0, 0, 0, 0, 0, 0, 0, 0\n0, 0, 0, 0, 0, 0, 0, 0, 0, 0, 0, 0, 0, 0\n0, 0, 0, 0, 0, 2, 0, 0, 0, 0, 0, 0, 0, 2\n0, 0, 0, 0, 0, 0, 0, 0, 0, 0, 0, 0, 0, 0\n0, 0, 0, 0, 0, 0, 0, 0, 0, 0, 0, 0, 0, 2\n2, 0]", fillcolor="#e0f7c2"] ;
97 -> 98 ;
99 [label="X[1172] <= 0.9\ngini = 0.99\nsamples = 753\nvalue = [10, 15, 4, 16, 10, 10, 8, 12, 15, 12, 13, 10\n10, 6, 11, 12, 14, 17, 11, 14, 15, 8, 9, 5, 9\n5, 5, 11, 13, 8, 7, 10, 12, 8, 14, 14, 7, 19\n3, 17, 11, 8, 12, 11, 7, 11, 7, 12, 6, 11, 14\n13, 8, 14, 23, 15, 7, 6, 10, 17, 5, 3, 5, 11\n15, 17, 9, 13, 7, 9, 17, 15, 19, 6, 18, 4, 13\n11, 27, 11, 23, 6, 23, 12, 9, 12, 13, 12, 12\n11, 12, 6, 10, 8, 24, 4, 8, 7, 12, 16]", fillcolor="#fffeff"] ;
97 -> 99 ;
100 [label="X[255] <= 0.62\ngini = 0.99\nsamples = 752\nvalue = [10, 15, 4, 16, 10, 10, 8, 12, 15, 12, 13, 10\n10, 6, 11, 12, 14, 17, 11, 14, 15, 8, 9, 5, 9\n5, 5, 11, 13, 8, 7, 10, 12, 8, 14, 14, 7, 19\n3, 17, 11, 8, 12, 7, 7, 11, 7, 12, 6, 11, 14\n13, 8, 14, 23, 15, 7, 6, 10, 17, 5, 3, 5, 11\n15, 17, 9, 13, 7, 9, 17, 15, 19, 6, 18, 4, 13\n11, 27, 11, 23, 6, 23, 12, 9, 12, 13, 12, 12\n11, 12, 6, 10, 8, 24, 4, 8, 7, 12, 16]", fillcolor="#fffeff"] ;
99 -> 100 ;
101 [label="X[2165] <= 0.95\ngini = 0.99\nsamples = 735\nvalue = [10, 13, 4, 16, 10, 10, 8, 12, 14, 12, 13, 10\n10, 6, 11, 12, 14, 16, 11, 14, 15, 8, 9, 5, 8\n5, 5, 11, 12, 8, 6, 10, 12, 8, 14, 14, 7, 18\n3, 17, 11, 8, 12, 7, 7, 11, 7, 12, 6, 11, 14\n13, 7, 14, 22, 15, 7, 6, 10, 17, 5, 3, 5, 11\n12, 17, 9, 6, 7, 9, 17, 15, 19, 6, 18, 4, 13\n11, 23, 11, 23, 6, 23, 11, 9, 12, 13, 12, 12\n11, 12, 6, 10, 8, 24, 1, 8, 7, 12, 16]", fillcolor="#ffffff"] ;
100 -> 101 ;
102 [label="gini = 0.99\nsamples = 734\nvalue = [10, 13, 4, 16, 10, 10, 8, 12, 14, 12, 13, 10\n10, 6, 11, 12, 14, 16, 11, 14, 15, 8, 9, 5, 8\n5, 5, 11, 12, 8, 6, 10, 12, 8, 14, 14, 7, 18\n3, 17, 11, 8, 12, 7, 7, 11, 7, 12, 6, 11, 14\n13, 7, 14, 22, 15, 7, 6, 10, 17, 5, 3, 5, 11\n12, 17, 9, 6, 7, 9, 17, 15, 19, 6, 18, 4, 13\n11, 23, 11, 23, 6, 23, 11, 9, 12, 13, 12, 12\n11, 12, 3, 10, 8, 24, 1, 8, 7, 12, 16]", fillcolor="#ffffff"] ;
101 -> 102 ;
103 [label="gini = 0.0\nsamples = 1\nvalue = [0, 0, 0, 0, 0, 0, 0, 0, 0, 0, 0, 0, 0, 0\n0, 0, 0, 0, 0, 0, 0, 0, 0, 0, 0, 0, 0, 0\n0, 0, 0, 0, 0, 0, 0, 0, 0, 0, 0, 0, 0, 0\n0, 0, 0, 0, 0, 0, 0, 0, 0, 0, 0, 0, 0, 0\n0, 0, 0, 0, 0, 0, 0, 0, 0, 0, 0, 0, 0, 0\n0, 0, 0, 0, 0, 0, 0, 0, 0, 0, 0, 0, 0, 0\n0, 0, 0, 0, 0, 0, 0, 3, 0, 0, 0, 0, 0, 0\n0, 0]", fillcolor="#e53950"] ;
101 -> 103 ;
104 [label="gini = 0.88\nsamples = 17\nvalue = [0, 2, 0, 0, 0, 0, 0, 0, 1, 0, 0, 0, 0, 0\n0, 0, 0, 1, 0, 0, 0, 0, 0, 0, 1, 0, 0, 0\n1, 0, 1, 0, 0, 0, 0, 0, 0, 1, 0, 0, 0, 0\n0, 0, 0, 0, 0, 0, 0, 0, 0, 0, 1, 0, 1, 0\n0, 0, 0, 0, 0, 0, 0, 0, 3, 0, 0, 7, 0, 0\n0, 0, 0, 0, 0, 0, 0, 0, 4, 0, 0, 0, 0, 1\n0, 0, 0, 0, 0, 0, 0, 0, 0, 0, 0, 3, 0, 0\n0, 0]", fillcolor="#f0e6fc"] ;
100 -> 104 ;
105 [label="gini = 0.0\nsamples = 1\nvalue = [0, 0, 0, 0, 0, 0, 0, 0, 0, 0, 0, 0, 0, 0\n0, 0, 0, 0, 0, 0, 0, 0, 0, 0, 0, 0, 0, 0\n0, 0, 0, 0, 0, 0, 0, 0, 0, 0, 0, 0, 0, 0\n0, 4, 0, 0, 0, 0, 0, 0, 0, 0, 0, 0, 0, 0\n0, 0, 0, 0, 0, 0, 0, 0, 0, 0, 0, 0, 0, 0\n0, 0, 0, 0, 0, 0, 0, 0, 0, 0, 0, 0, 0, 0\n0, 0, 0, 0, 0, 0, 0, 0, 0, 0, 0, 0, 0, 0\n0, 0]", fillcolor="#39e5e2"] ;
99 -> 105 ;
106 [label="gini = 0.32\nsamples = 2\nvalue = [0, 0, 0, 0, 0, 0, 0, 0, 0, 0, 0, 0, 0, 0\n0, 0, 0, 0, 0, 0, 0, 0, 0, 0, 0, 0, 0, 4\n0, 0, 0, 0, 0, 0, 0, 0, 0, 0, 0, 0, 0, 0\n0, 0, 0, 0, 0, 0, 0, 0, 0, 0, 0, 0, 0, 0\n0, 0, 0, 0, 0, 0, 0, 0, 0, 0, 0, 0, 0, 0\n0, 0, 0, 0, 0, 0, 0, 0, 0, 0, 0, 0, 0, 0\n0, 0, 0, 0, 0, 0, 0, 0, 0, 0, 1, 0, 0, 0\n0, 0]", fillcolor="#6aec6f"] ;
96 -> 106 ;
107 [label="gini = 0.56\nsamples = 5\nvalue = [0, 0, 0, 0, 0, 0, 0, 0, 0, 0, 0, 0, 0, 0\n0, 0, 0, 0, 0, 0, 0, 0, 1, 1, 0, 0, 0, 0\n0, 0, 0, 0, 0, 0, 0, 0, 0, 0, 0, 0, 0, 0\n5, 1, 0, 0, 0, 0, 0, 0, 0, 0, 0, 0, 0, 0\n0, 0, 0, 0, 0, 0, 0, 0, 0, 0, 0, 0, 0, 0\n0, 0, 0, 0, 0, 0, 0, 0, 0, 0, 0, 0, 0, 0\n0, 0, 0, 0, 0, 0, 0, 0, 0, 0, 0, 0, 0, 0\n0, 0]", fillcolor="#8ef0ea"] ;
95 -> 107 ;
108 [label="gini = 0.44\nsamples = 3\nvalue = [0, 0, 0, 0, 0, 0, 0, 0, 0, 0, 0, 0, 0, 0\n0, 0, 0, 0, 0, 0, 0, 0, 0, 0, 0, 0, 0, 0\n0, 0, 0, 0, 0, 0, 0, 0, 0, 0, 4, 0, 0, 0\n0, 0, 0, 0, 0, 0, 0, 0, 0, 0, 0, 0, 0, 0\n0, 0, 0, 0, 0, 0, 0, 0, 0, 0, 0, 0, 0, 0\n0, 0, 0, 0, 0, 0, 0, 0, 0, 0, 0, 0, 2, 0\n0, 0, 0, 0, 0, 0, 0, 0, 0, 0, 0, 0, 0, 0\n0, 0]", fillcolor="#9cf2d6"] ;
94 -> 108 ;
109 [label="gini = 0.59\nsamples = 3\nvalue = [0, 0, 0, 0, 0, 0, 0, 0, 0, 0, 0, 0, 0, 0\n0, 0, 0, 0, 0, 0, 0, 0, 0, 0, 0, 0, 0, 0\n0, 0, 0, 4, 0, 0, 0, 0, 0, 0, 1, 0, 0, 0\n0, 0, 0, 0, 3, 0, 0, 0, 0, 0, 0, 0, 0, 0\n0, 0, 0, 0, 0, 0, 0, 0, 0, 0, 0, 0, 0, 0\n0, 0, 0, 0, 0, 0, 0, 0, 0, 0, 0, 0, 0, 0\n0, 0, 0, 0, 0, 0, 0, 0, 0, 0, 0, 0, 0, 0\n0, 0]", fillcolor="#d7fae1"] ;
71 -> 109 ;
110 [label="gini = 0.0\nsamples = 2\nvalue = [0, 0, 0, 0, 0, 0, 0, 0, 0, 0, 0, 0, 3, 0\n0, 0, 0, 0, 0, 0, 0, 0, 0, 0, 0, 0, 0, 0\n0, 0, 0, 0, 0, 0, 0, 0, 0, 0, 0, 0, 0, 0\n0, 0, 0, 0, 0, 0, 0, 0, 0, 0, 0, 0, 0, 0\n0, 0, 0, 0, 0, 0, 0, 0, 0, 0, 0, 0, 0, 0\n0, 0, 0, 0, 0, 0, 0, 0, 0, 0, 0, 0, 0, 0\n0, 0, 0, 0, 0, 0, 0, 0, 0, 0, 0, 0, 0, 0\n0, 0]", fillcolor="#cee539"] ;
70 -> 110 ;
111 [label="gini = 0.0\nsamples = 1\nvalue = [0, 0, 0, 0, 0, 0, 0, 0, 0, 0, 0, 0, 0, 0\n0, 0, 0, 0, 0, 0, 0, 0, 0, 0, 0, 0, 0, 0\n0, 0, 0, 0, 0, 0, 0, 0, 0, 0, 0, 0, 0, 0\n0, 0, 0, 0, 0, 0, 0, 0, 0, 0, 0, 0, 0, 0\n0, 0, 0, 0, 0, 0, 0, 0, 0, 0, 0, 0, 0, 0\n0, 0, 0, 0, 0, 0, 0, 0, 0, 3, 0, 0, 0, 0\n0, 0, 0, 0, 0, 0, 0, 0, 0, 0, 0, 0, 0, 0\n0, 0]", fillcolor="#e539cb"] ;
67 -> 111 ;
112 [label="gini = 0.69\nsamples = 7\nvalue = [0, 1, 0, 0, 0, 0, 0, 0, 0, 0, 0, 0, 0, 0\n0, 0, 0, 0, 1, 0, 0, 0, 0, 0, 0, 0, 0, 0\n6, 0, 0, 0, 0, 0, 0, 0, 0, 0, 1, 0, 0, 0\n0, 0, 0, 0, 0, 0, 0, 0, 0, 0, 0, 0, 0, 0\n0, 0, 0, 0, 0, 0, 0, 0, 0, 0, 0, 0, 0, 0\n0, 0, 0, 0, 0, 0, 0, 0, 0, 0, 0, 0, 0, 0\n0, 0, 0, 0, 0, 0, 0, 0, 1, 0, 0, 0, 0, 0\n0, 2]", fillcolor="#b0f5b5"] ;
48 -> 112 ;
113 [label="gini = 0.89\nsamples = 21\nvalue = [0, 0, 0, 2, 4, 2, 0, 0, 0, 0, 0, 0, 0, 0\n0, 1, 0, 0, 0, 0, 0, 0, 0, 0, 0, 0, 0, 2\n0, 0, 0, 0, 0, 0, 0, 0, 0, 1, 0, 0, 0, 0\n0, 1, 0, 0, 0, 0, 0, 2, 0, 3, 0, 0, 2, 1\n2, 0, 0, 0, 0, 0, 0, 0, 0, 2, 0, 0, 0, 0\n0, 0, 0, 0, 0, 0, 0, 0, 0, 0, 0, 1, 0, 0\n0, 9, 0, 0, 0, 0, 0, 0, 0, 0, 0, 0, 0, 0\n0, 0]", fillcolor="#fbdfec"] ;
47 -> 113 ;
114 [label="gini = 0.8\nsamples = 9\nvalue = [0, 0, 0, 0, 0, 0, 0, 0, 0, 2, 0, 0, 0, 0\n0, 0, 0, 0, 2, 0, 0, 0, 1, 0, 0, 0, 0, 0\n0, 0, 0, 0, 0, 0, 0, 0, 0, 0, 1, 6, 0, 0\n0, 0, 0, 0, 0, 0, 0, 0, 0, 0, 0, 1, 0, 0\n0, 0, 0, 0, 1, 0, 0, 0, 0, 0, 0, 0, 0, 0\n0, 0, 0, 0, 0, 0, 0, 0, 0, 0, 0, 0, 0, 0\n0, 0, 0, 0, 0, 4, 0, 0, 0, 0, 0, 0, 0, 0\n0, 0]", fillcolor="#e3fbf5"] ;
46 -> 114 ;
115 [label="gini = 0.44\nsamples = 2\nvalue = [0, 0, 0, 0, 0, 0, 0, 0, 0, 0, 0, 0, 0, 0\n0, 0, 0, 0, 0, 0, 0, 0, 0, 0, 0, 0, 0, 0\n2, 0, 0, 0, 0, 0, 0, 0, 0, 0, 0, 0, 0, 0\n0, 0, 0, 0, 0, 0, 0, 0, 0, 0, 0, 0, 0, 0\n0, 0, 0, 0, 0, 0, 0, 0, 0, 0, 0, 0, 0, 0\n0, 0, 0, 0, 0, 0, 0, 4, 0, 0, 0, 0, 0, 0\n0, 0, 0, 0, 0, 0, 0, 0, 0, 0, 0, 0, 0, 0\n0, 0]", fillcolor="#f29cef"] ;
45 -> 115 ;
116 [label="gini = 0.62\nsamples = 5\nvalue = [0, 0, 0, 0, 0, 0, 0, 0, 0, 0, 0, 0, 0, 0\n0, 0, 0, 0, 0, 0, 0, 0, 0, 0, 0, 0, 0, 0\n0, 0, 0, 0, 2, 0, 0, 0, 0, 0, 0, 0, 0, 0\n0, 0, 0, 0, 0, 5, 0, 0, 0, 0, 0, 0, 0, 0\n0, 0, 0, 0, 1, 0, 0, 1, 0, 0, 0, 0, 0, 0\n0, 0, 0, 0, 0, 0, 0, 0, 0, 0, 0, 0, 0, 0\n0, 0, 0, 0, 0, 0, 0, 0, 0, 0, 0, 0, 0, 0\n0, 0]", fillcolor="#aae3f4"] ;
44 -> 116 ;
117 [label="gini = 0.72\nsamples = 7\nvalue = [0, 0, 0, 0, 0, 0, 3, 0, 0, 0, 0, 0, 0, 0\n0, 0, 0, 1, 0, 0, 0, 0, 0, 0, 0, 0, 0, 0\n0, 0, 0, 0, 0, 0, 0, 0, 0, 0, 0, 0, 0, 0\n0, 0, 0, 0, 0, 0, 0, 0, 0, 0, 0, 0, 0, 0\n0, 0, 0, 0, 0, 0, 0, 0, 0, 0, 5, 0, 0, 0\n0, 0, 0, 0, 2, 0, 0, 0, 1, 0, 0, 0, 0, 0\n0, 0, 0, 0, 0, 0, 0, 0, 0, 0, 0, 0, 0, 0\n0, 0]", fillcolor="#e1d3f9"] ;
41 -> 117 ;
118 [label="X[1682] <= 0.82\ngini = 0.96\nsamples = 63\nvalue = [0, 1, 0, 0, 12, 0, 8, 5, 1, 0, 2, 1, 0, 0\n0, 1, 0, 0, 2, 0, 2, 1, 1, 0, 0, 2, 0, 0\n1, 0, 3, 0, 1, 0, 1, 0, 2, 0, 0, 0, 0, 0\n0, 4, 0, 3, 1, 0, 3, 0, 3, 1, 0, 3, 0, 1\n0, 2, 2, 3, 0, 0, 2, 1, 1, 5, 0, 1, 2, 0\n0, 0, 0, 1, 1, 1, 0, 0, 0, 0, 0, 0, 1, 0\n0, 0, 1, 1, 1, 0, 0, 0, 1, 1, 1, 0, 1, 1\n1, 0]", fillcolor="#fefbf6"] ;
40 -> 118 ;
119 [label="X[1329] <= 0.76\ngini = 0.97\nsamples = 61\nvalue = [0, 1, 0, 0, 5, 0, 8, 5, 0, 0, 2, 1, 0, 0\n0, 1, 0, 0, 2, 0, 2, 1, 1, 0, 0, 2, 0, 0\n1, 0, 3, 0, 1, 0, 1, 0, 2, 0, 0, 0, 0, 0\n0, 4, 0, 3, 1, 0, 3, 0, 3, 1, 0, 3, 0, 1\n0, 2, 2, 3, 0, 0, 2, 1, 1, 5, 0, 1, 2, 0\n0, 0, 0, 1, 1, 1, 0, 0, 0, 0, 0, 0, 1, 0\n0, 0, 1, 1, 1, 0, 0, 0, 1, 1, 1, 0, 1, 1\n1, 0]", fillcolor="#fefdf8"] ;
118 -> 119 ;
120 [label="X[2392] <= 0.78\ngini = 0.97\nsamples = 59\nvalue = [0, 1, 0, 0, 5, 0, 8, 0, 0, 0, 2, 1, 0, 0\n0, 1, 0, 0, 2, 0, 2, 1, 1, 0, 0, 2, 0, 0\n1, 0, 3, 0, 1, 0, 1, 0, 2, 0, 0, 0, 0, 0\n0, 4, 0, 3, 1, 0, 3, 0, 3, 1, 0, 3, 0, 1\n0, 2, 2, 3, 0, 0, 2, 1, 1, 5, 0, 1, 2, 0\n0, 0, 0, 1, 1, 1, 0, 0, 0, 0, 0, 0, 1, 0\n0, 0, 1, 1, 1, 0, 0, 0, 1, 1, 1, 0, 1, 1\n1, 0]", fillcolor="#fefdf8"] ;
119 -> 120 ;
121 [label="X[2967] <= 0.1\ngini = 0.96\nsamples = 56\nvalue = [0, 1, 0, 0, 5, 0, 8, 0, 0, 0, 2, 1, 0, 0\n0, 1, 0, 0, 2, 0, 2, 1, 1, 0, 0, 2, 0, 0\n1, 0, 3, 0, 1, 0, 1, 0, 2, 0, 0, 0, 0, 0\n0, 4, 0, 3, 1, 0, 3, 0, 3, 1, 0, 3, 0, 1\n0, 2, 2, 3, 0, 0, 2, 0, 1, 0, 0, 1, 2, 0\n0, 0, 0, 1, 1, 1, 0, 0, 0, 0, 0, 0, 1, 0\n0, 0, 1, 1, 1, 0, 0, 0, 1, 1, 1, 0, 1, 1\n1, 0]", fillcolor="#fefcf7"] ;
120 -> 121 ;
122 [label="gini = 0.41\nsamples = 3\nvalue = [0, 0, 0, 0, 0, 0, 5, 0, 0, 0, 0, 0, 0, 0\n0, 0, 0, 0, 0, 0, 0, 0, 0, 0, 0, 0, 0, 0\n0, 0, 0, 0, 0, 0, 0, 0, 0, 0, 0, 0, 0, 0\n0, 0, 0, 0, 0, 0, 0, 0, 0, 0, 0, 0, 0, 0\n0, 0, 0, 0, 0, 0, 2, 0, 0, 0, 0, 0, 0, 0\n0, 0, 0, 0, 0, 0, 0, 0, 0, 0, 0, 0, 0, 0\n0, 0, 0, 0, 0, 0, 0, 0, 0, 0, 0, 0, 0, 0\n0, 0]", fillcolor="#efd788"] ;
121 -> 122 ;
123 [label="X[590] <= 0.06\ngini = 0.97\nsamples = 53\nvalue = [0, 1, 0, 0, 5, 0, 3, 0, 0, 0, 2, 1, 0, 0\n0, 1, 0, 0, 2, 0, 2, 1, 1, 0, 0, 2, 0, 0\n1, 0, 3, 0, 1, 0, 1, 0, 2, 0, 0, 0, 0, 0\n0, 4, 0, 3, 1, 0, 3, 0, 3, 1, 0, 3, 0, 1\n0, 2, 2, 3, 0, 0, 0, 0, 1, 0, 0, 1, 2, 0\n0, 0, 0, 1, 1, 1, 0, 0, 0, 0, 0, 0, 1, 0\n0, 0, 1, 1, 1, 0, 0, 0, 1, 1, 1, 0, 1, 1\n1, 0]", fillcolor="#fffefc"] ;
121 -> 123 ;
124 [label="gini = 0.32\nsamples = 3\nvalue = [0, 0, 0, 0, 0, 0, 0, 0, 0, 0, 0, 0, 0, 0\n0, 0, 0, 0, 0, 0, 0, 0, 0, 0, 0, 0, 0, 0\n0, 0, 0, 0, 0, 0, 0, 0, 0, 0, 0, 0, 0, 0\n0, 4, 0, 0, 0, 0, 0, 0, 0, 0, 0, 0, 0, 0\n0, 0, 0, 0, 0, 0, 0, 0, 0, 0, 0, 0, 0, 0\n0, 0, 0, 0, 0, 0, 0, 0, 0, 0, 0, 0, 0, 0\n0, 0, 0, 0, 0, 0, 0, 0, 0, 0, 0, 0, 0, 1\n0, 0]", fillcolor="#6aece9"] ;
123 -> 124 ;
125 [label="X[2805] <= 0.62\ngini = 0.97\nsamples = 50\nvalue = [0, 1, 0, 0, 5, 0, 3, 0, 0, 0, 2, 1, 0, 0\n0, 1, 0, 0, 2, 0, 2, 1, 1, 0, 0, 2, 0, 0\n1, 0, 3, 0, 1, 0, 1, 0, 2, 0, 0, 0, 0, 0\n0, 0, 0, 3, 1, 0, 3, 0, 3, 1, 0, 3, 0, 1\n0, 2, 2, 3, 0, 0, 0, 0, 1, 0, 0, 1, 2, 0\n0, 0, 0, 1, 1, 1, 0, 0, 0, 0, 0, 0, 1, 0\n0, 0, 1, 1, 1, 0, 0, 0, 1, 1, 1, 0, 1, 0\n1, 0]", fillcolor="#fefcf9"] ;
123 -> 125 ;
126 [label="X[2455] <= 0.63\ngini = 0.97\nsamples = 49\nvalue = [0, 1, 0, 0, 5, 0, 3, 0, 0, 0, 2, 1, 0, 0\n0, 1, 0, 0, 2, 0, 2, 1, 1, 0, 0, 2, 0, 0\n1, 0, 3, 0, 1, 0, 1, 0, 2, 0, 0, 0, 0, 0\n0, 0, 0, 3, 1, 0, 3, 0, 0, 1, 0, 3, 0, 1\n0, 2, 2, 3, 0, 0, 0, 0, 1, 0, 0, 1, 2, 0\n0, 0, 0, 1, 1, 1, 0, 0, 0, 0, 0, 0, 1, 0\n0, 0, 1, 1, 1, 0, 0, 0, 1, 1, 1, 0, 1, 0\n1, 0]", fillcolor="#fefcf9"] ;
125 -> 126 ;
127 [label="X[1747] <= 0.07\ngini = 0.97\nsamples = 45\nvalue = [0, 1, 0, 0, 1, 0, 3, 0, 0, 0, 2, 1, 0, 0\n0, 1, 0, 0, 2, 0, 2, 1, 1, 0, 0, 2, 0, 0\n1, 0, 3, 0, 1, 0, 1, 0, 2, 0, 0, 0, 0, 0\n0, 0, 0, 3, 1, 0, 3, 0, 0, 1, 0, 3, 0, 1\n0, 2, 2, 3, 0, 0, 0, 0, 0, 0, 0, 0, 2, 0\n0, 0, 0, 1, 1, 1, 0, 0, 0, 0, 0, 0, 1, 0\n0, 0, 1, 1, 1, 0, 0, 0, 1, 1, 1, 0, 1, 0\n1, 0]", fillcolor="#ffffff"] ;
126 -> 127 ;
128 [label="gini = 0.48\nsamples = 3\nvalue = [0, 0, 0, 0, 0, 0, 0, 0, 0, 0, 2, 0, 0, 0\n0, 0, 0, 0, 0, 0, 0, 0, 0, 0, 0, 0, 0, 0\n0, 0, 0, 0, 0, 0, 0, 0, 0, 0, 0, 0, 0, 0\n0, 0, 0, 0, 0, 0, 0, 0, 0, 0, 0, 0, 0, 0\n0, 0, 0, 3, 0, 0, 0, 0, 0, 0, 0, 0, 0, 0\n0, 0, 0, 0, 0, 0, 0, 0, 0, 0, 0, 0, 0, 0\n0, 0, 0, 0, 0, 0, 0, 0, 0, 0, 0, 0, 0, 0\n0, 0]", fillcolor="#bdc0f6"] ;
127 -> 128 ;
129 [label="X[1943] <= 0.19\ngini = 0.97\nsamples = 42\nvalue = [0, 1, 0, 0, 1, 0, 3, 0, 0, 0, 0, 1, 0, 0\n0, 1, 0, 0, 2, 0, 2, 1, 1, 0, 0, 2, 0, 0\n1, 0, 3, 0, 1, 0, 1, 0, 2, 0, 0, 0, 0, 0\n0, 0, 0, 3, 1, 0, 3, 0, 0, 1, 0, 3, 0, 1\n0, 2, 2, 0, 0, 0, 0, 0, 0, 0, 0, 0, 2, 0\n0, 0, 0, 1, 1, 1, 0, 0, 0, 0, 0, 0, 1, 0\n0, 0, 1, 1, 1, 0, 0, 0, 1, 1, 1, 0, 1, 0\n1, 0]", fillcolor="#ffffff"] ;
127 -> 129 ;
130 [label="gini = 0.0\nsamples = 1\nvalue = [0, 0, 0, 0, 0, 0, 0, 0, 0, 0, 0, 0, 0, 0\n0, 0, 0, 0, 0, 0, 0, 0, 0, 0, 0, 0, 0, 0\n0, 0, 0, 0, 0, 0, 0, 0, 0, 0, 0, 0, 0, 0\n0, 0, 0, 3, 0, 0, 0, 0, 0, 0, 0, 0, 0, 0\n0, 0, 0, 0, 0, 0, 0, 0, 0, 0, 0, 0, 0, 0\n0, 0, 0, 0, 0, 0, 0, 0, 0, 0, 0, 0, 0, 0\n0, 0, 0, 0, 0, 0, 0, 0, 0, 0, 0, 0, 0, 0\n0, 0]", fillcolor="#39d1e5"] ;
129 -> 130 ;
131 [label="X[2929] <= 0.04\ngini = 0.96\nsamples = 41\nvalue = [0, 1, 0, 0, 1, 0, 3, 0, 0, 0, 0, 1, 0, 0\n0, 1, 0, 0, 2, 0, 2, 1, 1, 0, 0, 2, 0, 0\n1, 0, 3, 0, 1, 0, 1, 0, 2, 0, 0, 0, 0, 0\n0, 0, 0, 0, 1, 0, 3, 0, 0, 1, 0, 3, 0, 1\n0, 2, 2, 0, 0, 0, 0, 0, 0, 0, 0, 0, 2, 0\n0, 0, 0, 1, 1, 1, 0, 0, 0, 0, 0, 0, 1, 0\n0, 0, 1, 1, 1, 0, 0, 0, 1, 1, 1, 0, 1, 0\n1, 0]", fillcolor="#ffffff"] ;
129 -> 131 ;
132 [label="gini = 0.0\nsamples = 1\nvalue = [0, 0, 0, 0, 0, 0, 3, 0, 0, 0, 0, 0, 0, 0\n0, 0, 0, 0, 0, 0, 0, 0, 0, 0, 0, 0, 0, 0\n0, 0, 0, 0, 0, 0, 0, 0, 0, 0, 0, 0, 0, 0\n0, 0, 0, 0, 0, 0, 0, 0, 0, 0, 0, 0, 0, 0\n0, 0, 0, 0, 0, 0, 0, 0, 0, 0, 0, 0, 0, 0\n0, 0, 0, 0, 0, 0, 0, 0, 0, 0, 0, 0, 0, 0\n0, 0, 0, 0, 0, 0, 0, 0, 0, 0, 0, 0, 0, 0\n0, 0]", fillcolor="#e5bd39"] ;
131 -> 132 ;
133 [label="X[2399] <= 0.55\ngini = 0.96\nsamples = 40\nvalue = [0, 1, 0, 0, 1, 0, 0, 0, 0, 0, 0, 1, 0, 0\n0, 1, 0, 0, 2, 0, 2, 1, 1, 0, 0, 2, 0, 0\n1, 0, 3, 0, 1, 0, 1, 0, 2, 0, 0, 0, 0, 0\n0, 0, 0, 0, 1, 0, 3, 0, 0, 1, 0, 3, 0, 1\n0, 2, 2, 0, 0, 0, 0, 0, 0, 0, 0, 0, 2, 0\n0, 0, 0, 1, 1, 1, 0, 0, 0, 0, 0, 0, 1, 0\n0, 0, 1, 1, 1, 0, 0, 0, 1, 1, 1, 0, 1, 0\n1, 0]", fillcolor="#ffffff"] ;
131 -> 133 ;
134 [label="X[1686] <= 0.82\ngini = 0.96\nsamples = 39\nvalue = [0, 1, 0, 0, 1, 0, 0, 0, 0, 0, 0, 1, 0, 0\n0, 1, 0, 0, 2, 0, 2, 1, 1, 0, 0, 2, 0, 0\n1, 0, 0, 0, 1, 0, 1, 0, 2, 0, 0, 0, 0, 0\n0, 0, 0, 0, 1, 0, 3, 0, 0, 1, 0, 3, 0, 1\n0, 2, 2, 0, 0, 0, 0, 0, 0, 0, 0, 0, 2, 0\n0, 0, 0, 1, 1, 1, 0, 0, 0, 0, 0, 0, 1, 0\n0, 0, 1, 1, 1, 0, 0, 0, 1, 1, 1, 0, 1, 0\n1, 0]", fillcolor="#ffffff"] ;
133 -> 134 ;
135 [label="X[1344] <= 0.99\ngini = 0.96\nsamples = 37\nvalue = [0, 1, 0, 0, 1, 0, 0, 0, 0, 0, 0, 1, 0, 0\n0, 1, 0, 0, 2, 0, 2, 1, 1, 0, 0, 2, 0, 0\n1, 0, 0, 0, 1, 0, 1, 0, 2, 0, 0, 0, 0, 0\n0, 0, 0, 0, 1, 0, 3, 0, 0, 1, 0, 0, 0, 1\n0, 2, 2, 0, 0, 0, 0, 0, 0, 0, 0, 0, 2, 0\n0, 0, 0, 1, 1, 1, 0, 0, 0, 0, 0, 0, 1, 0\n0, 0, 1, 1, 1, 0, 0, 0, 1, 1, 1, 0, 1, 0\n1, 0]", fillcolor="#fafdfe"] ;
134 -> 135 ;
136 [label="X[461] <= 0.12\ngini = 0.96\nsamples = 36\nvalue = [0, 1, 0, 0, 1, 0, 0, 0, 0, 0, 0, 1, 0, 0\n0, 1, 0, 0, 2, 0, 2, 1, 1, 0, 0, 0, 0, 0\n1, 0, 0, 0, 1, 0, 1, 0, 2, 0, 0, 0, 0, 0\n0, 0, 0, 0, 1, 0, 3, 0, 0, 1, 0, 0, 0, 1\n0, 2, 2, 0, 0, 0, 0, 0, 0, 0, 0, 0, 2, 0\n0, 0, 0, 1, 1, 1, 0, 0, 0, 0, 0, 0, 1, 0\n0, 0, 1, 1, 1, 0, 0, 0, 1, 1, 1, 0, 1, 0\n1, 0]", fillcolor="#fafdfe"] ;
135 -> 136 ;
137 [label="gini = 0.0\nsamples = 2\nvalue = [0, 0, 0, 0, 0, 0, 0, 0, 0, 0, 0, 0, 0, 0\n0, 0, 0, 0, 0, 0, 0, 0, 0, 0, 0, 0, 0, 0\n0, 0, 0, 0, 0, 0, 0, 0, 0, 0, 0, 0, 0, 0\n0, 0, 0, 0, 0, 0, 3, 0, 0, 0, 0, 0, 0, 0\n0, 0, 0, 0, 0, 0, 0, 0, 0, 0, 0, 0, 0, 0\n0, 0, 0, 0, 0, 0, 0, 0, 0, 0, 0, 0, 0, 0\n0, 0, 0, 0, 0, 0, 0, 0, 0, 0, 0, 0, 0, 0\n0, 0]", fillcolor="#39b4e5"] ;
136 -> 137 ;
138 [label="X[2740] <= 0.67\ngini = 0.96\nsamples = 34\nvalue = [0, 1, 0, 0, 1, 0, 0, 0, 0, 0, 0, 1, 0, 0\n0, 1, 0, 0, 2, 0, 2, 1, 1, 0, 0, 0, 0, 0\n1, 0, 0, 0, 1, 0, 1, 0, 2, 0, 0, 0, 0, 0\n0, 0, 0, 0, 1, 0, 0, 0, 0, 1, 0, 0, 0, 1\n0, 2, 2, 0, 0, 0, 0, 0, 0, 0, 0, 0, 2, 0\n0, 0, 0, 1, 1, 1, 0, 0, 0, 0, 0, 0, 1, 0\n0, 0, 1, 1, 1, 0, 0, 0, 1, 1, 1, 0, 1, 0\n1, 0]", fillcolor="#ffffff"] ;
136 -> 138 ;
139 [label="X[670] <= 0.85\ngini = 0.96\nsamples = 33\nvalue = [0, 1, 0, 0, 1, 0, 0, 0, 0, 0, 0, 1, 0, 0\n0, 1, 0, 0, 2, 0, 2, 1, 1, 0, 0, 0, 0, 0\n1, 0, 0, 0, 1, 0, 1, 0, 2, 0, 0, 0, 0, 0\n0, 0, 0, 0, 1, 0, 0, 0, 0, 1, 0, 0, 0, 1\n0, 0, 2, 0, 0, 0, 0, 0, 0, 0, 0, 0, 2, 0\n0, 0, 0, 1, 1, 1, 0, 0, 0, 0, 0, 0, 1, 0\n0, 0, 1, 1, 1, 0, 0, 0, 1, 1, 1, 0, 1, 0\n1, 0]", fillcolor="#ffffff"] ;
138 -> 139 ;
140 [label="X[1329] <= 0.0\ngini = 0.96\nsamples = 32\nvalue = [0, 1, 0, 0, 1, 0, 0, 0, 0, 0, 0, 1, 0, 0\n0, 1, 0, 0, 0, 0, 2, 1, 1, 0, 0, 0, 0, 0\n1, 0, 0, 0, 1, 0, 1, 0, 2, 0, 0, 0, 0, 0\n0, 0, 0, 0, 1, 0, 0, 0, 0, 1, 0, 0, 0, 1\n0, 0, 2, 0, 0, 0, 0, 0, 0, 0, 0, 0, 2, 0\n0, 0, 0, 1, 1, 1, 0, 0, 0, 0, 0, 0, 1, 0\n0, 0, 1, 1, 1, 0, 0, 0, 1, 1, 1, 0, 1, 0\n1, 0]", fillcolor="#ffffff"] ;
139 -> 140 ;
141 [label="gini = 0.0\nsamples = 2\nvalue = [0, 0, 0, 0, 0, 0, 0, 0, 0, 0, 0, 0, 0, 0\n0, 0, 0, 0, 0, 0, 0, 0, 0, 0, 0, 0, 0, 0\n0, 0, 0, 0, 0, 0, 0, 0, 2, 0, 0, 0, 0, 0\n0, 0, 0, 0, 0, 0, 0, 0, 0, 0, 0, 0, 0, 0\n0, 0, 0, 0, 0, 0, 0, 0, 0, 0, 0, 0, 0, 0\n0, 0, 0, 0, 0, 0, 0, 0, 0, 0, 0, 0, 0, 0\n0, 0, 0, 0, 0, 0, 0, 0, 0, 0, 0, 0, 0, 0\n0, 0]", fillcolor="#39e59a"] ;
140 -> 141 ;
142 [label="X[2476] <= 0.16\ngini = 0.96\nsamples = 30\nvalue = [0, 1, 0, 0, 1, 0, 0, 0, 0, 0, 0, 1, 0, 0\n0, 1, 0, 0, 0, 0, 2, 1, 1, 0, 0, 0, 0, 0\n1, 0, 0, 0, 1, 0, 1, 0, 0, 0, 0, 0, 0, 0\n0, 0, 0, 0, 1, 0, 0, 0, 0, 1, 0, 0, 0, 1\n0, 0, 2, 0, 0, 0, 0, 0, 0, 0, 0, 0, 2, 0\n0, 0, 0, 1, 1, 1, 0, 0, 0, 0, 0, 0, 1, 0\n0, 0, 1, 1, 1, 0, 0, 0, 1, 1, 1, 0, 1, 0\n1, 0]", fillcolor="#ffffff"] ;
140 -> 142 ;
143 [label="gini = 0.84\nsamples = 9\nvalue = [0, 0, 0, 0, 0, 0, 0, 0, 0, 0, 0, 0, 0, 0\n0, 0, 0, 0, 0, 0, 0, 0, 0, 0, 0, 0, 0, 0\n0, 0, 0, 0, 0, 0, 0, 0, 0, 0, 0, 0, 0, 0\n0, 0, 0, 0, 1, 0, 0, 0, 0, 0, 0, 0, 0, 0\n0, 0, 2, 0, 0, 0, 0, 0, 0, 0, 0, 0, 2, 0\n0, 0, 0, 0, 1, 1, 0, 0, 0, 0, 0, 0, 1, 0\n0, 0, 0, 1, 0, 0, 0, 0, 0, 0, 0, 0, 0, 0\n0, 0]", fillcolor="#ffffff"] ;
142 -> 143 ;
144 [label="gini = 0.95\nsamples = 21\nvalue = [0, 1, 0, 0, 1, 0, 0, 0, 0, 0, 0, 1, 0, 0\n0, 1, 0, 0, 0, 0, 2, 1, 1, 0, 0, 0, 0, 0\n1, 0, 0, 0, 1, 0, 1, 0, 0, 0, 0, 0, 0, 0\n0, 0, 0, 0, 0, 0, 0, 0, 0, 1, 0, 0, 0, 1\n0, 0, 0, 0, 0, 0, 0, 0, 0, 0, 0, 0, 0, 0\n0, 0, 0, 1, 0, 0, 0, 0, 0, 0, 0, 0, 0, 0\n0, 0, 1, 0, 1, 0, 0, 0, 1, 1, 1, 0, 1, 0\n1, 0]", fillcolor="#f8fef5"] ;
142 -> 144 ;
145 [label="gini = 0.0\nsamples = 1\nvalue = [0, 0, 0, 0, 0, 0, 0, 0, 0, 0, 0, 0, 0, 0\n0, 0, 0, 0, 2, 0, 0, 0, 0, 0, 0, 0, 0, 0\n0, 0, 0, 0, 0, 0, 0, 0, 0, 0, 0, 0, 0, 0\n0, 0, 0, 0, 0, 0, 0, 0, 0, 0, 0, 0, 0, 0\n0, 0, 0, 0, 0, 0, 0, 0, 0, 0, 0, 0, 0, 0\n0, 0, 0, 0, 0, 0, 0, 0, 0, 0, 0, 0, 0, 0\n0, 0, 0, 0, 0, 0, 0, 0, 0, 0, 0, 0, 0, 0\n0, 0]", fillcolor="#92e539"] ;
139 -> 145 ;
146 [label="gini = 0.0\nsamples = 1\nvalue = [0, 0, 0, 0, 0, 0, 0, 0, 0, 0, 0, 0, 0, 0\n0, 0, 0, 0, 0, 0, 0, 0, 0, 0, 0, 0, 0, 0\n0, 0, 0, 0, 0, 0, 0, 0, 0, 0, 0, 0, 0, 0\n0, 0, 0, 0, 0, 0, 0, 0, 0, 0, 0, 0, 0, 0\n0, 2, 0, 0, 0, 0, 0, 0, 0, 0, 0, 0, 0, 0\n0, 0, 0, 0, 0, 0, 0, 0, 0, 0, 0, 0, 0, 0\n0, 0, 0, 0, 0, 0, 0, 0, 0, 0, 0, 0, 0, 0\n0, 0]", fillcolor="#3956e5"] ;
138 -> 146 ;
147 [label="gini = 0.0\nsamples = 1\nvalue = [0, 0, 0, 0, 0, 0, 0, 0, 0, 0, 0, 0, 0, 0\n0, 0, 0, 0, 0, 0, 0, 0, 0, 0, 0, 2, 0, 0\n0, 0, 0, 0, 0, 0, 0, 0, 0, 0, 0, 0, 0, 0\n0, 0, 0, 0, 0, 0, 0, 0, 0, 0, 0, 0, 0, 0\n0, 0, 0, 0, 0, 0, 0, 0, 0, 0, 0, 0, 0, 0\n0, 0, 0, 0, 0, 0, 0, 0, 0, 0, 0, 0, 0, 0\n0, 0, 0, 0, 0, 0, 0, 0, 0, 0, 0, 0, 0, 0\n0, 0]", fillcolor="#47e539"] ;
135 -> 147 ;
148 [label="gini = 0.0\nsamples = 2\nvalue = [0, 0, 0, 0, 0, 0, 0, 0, 0, 0, 0, 0, 0, 0\n0, 0, 0, 0, 0, 0, 0, 0, 0, 0, 0, 0, 0, 0\n0, 0, 0, 0, 0, 0, 0, 0, 0, 0, 0, 0, 0, 0\n0, 0, 0, 0, 0, 0, 0, 0, 0, 0, 0, 3, 0, 0\n0, 0, 0, 0, 0, 0, 0, 0, 0, 0, 0, 0, 0, 0\n0, 0, 0, 0, 0, 0, 0, 0, 0, 0, 0, 0, 0, 0\n0, 0, 0, 0, 0, 0, 0, 0, 0, 0, 0, 0, 0, 0\n0, 0]", fillcolor="#3981e5"] ;
134 -> 148 ;
149 [label="gini = 0.0\nsamples = 1\nvalue = [0, 0, 0, 0, 0, 0, 0, 0, 0, 0, 0, 0, 0, 0\n0, 0, 0, 0, 0, 0, 0, 0, 0, 0, 0, 0, 0, 0\n0, 0, 3, 0, 0, 0, 0, 0, 0, 0, 0, 0, 0, 0\n0, 0, 0, 0, 0, 0, 0, 0, 0, 0, 0, 0, 0, 0\n0, 0, 0, 0, 0, 0, 0, 0, 0, 0, 0, 0, 0, 0\n0, 0, 0, 0, 0, 0, 0, 0, 0, 0, 0, 0, 0, 0\n0, 0, 0, 0, 0, 0, 0, 0, 0, 0, 0, 0, 0, 0\n0, 0]", fillcolor="#39e55e"] ;
133 -> 149 ;
150 [label="gini = 0.5\nsamples = 4\nvalue = [0, 0, 0, 0, 4, 0, 0, 0, 0, 0, 0, 0, 0, 0\n0, 0, 0, 0, 0, 0, 0, 0, 0, 0, 0, 0, 0, 0\n0, 0, 0, 0, 0, 0, 0, 0, 0, 0, 0, 0, 0, 0\n0, 0, 0, 0, 0, 0, 0, 0, 0, 0, 0, 0, 0, 0\n0, 0, 0, 0, 0, 0, 0, 0, 1, 0, 0, 1, 0, 0\n0, 0, 0, 0, 0, 0, 0, 0, 0, 0, 0, 0, 0, 0\n0, 0, 0, 0, 0, 0, 0, 0, 0, 0, 0, 0, 0, 0\n0, 0]", fillcolor="#efcb88"] ;
126 -> 150 ;
151 [label="gini = 0.0\nsamples = 1\nvalue = [0, 0, 0, 0, 0, 0, 0, 0, 0, 0, 0, 0, 0, 0\n0, 0, 0, 0, 0, 0, 0, 0, 0, 0, 0, 0, 0, 0\n0, 0, 0, 0, 0, 0, 0, 0, 0, 0, 0, 0, 0, 0\n0, 0, 0, 0, 0, 0, 0, 0, 3, 0, 0, 0, 0, 0\n0, 0, 0, 0, 0, 0, 0, 0, 0, 0, 0, 0, 0, 0\n0, 0, 0, 0, 0, 0, 0, 0, 0, 0, 0, 0, 0, 0\n0, 0, 0, 0, 0, 0, 0, 0, 0, 0, 0, 0, 0, 0\n0, 0]", fillcolor="#399de5"] ;
125 -> 151 ;
152 [label="gini = 0.28\nsamples = 3\nvalue = [0, 0, 0, 0, 0, 0, 0, 0, 0, 0, 0, 0, 0, 0\n0, 0, 0, 0, 0, 0, 0, 0, 0, 0, 0, 0, 0, 0\n0, 0, 0, 0, 0, 0, 0, 0, 0, 0, 0, 0, 0, 0\n0, 0, 0, 0, 0, 0, 0, 0, 0, 0, 0, 0, 0, 0\n0, 0, 0, 0, 0, 0, 0, 1, 0, 5, 0, 0, 0, 0\n0, 0, 0, 0, 0, 0, 0, 0, 0, 0, 0, 0, 0, 0\n0, 0, 0, 0, 0, 0, 0, 0, 0, 0, 0, 0, 0, 0\n0, 0]", fillcolor="#8c61ea"] ;
120 -> 152 ;
153 [label="gini = 0.0\nsamples = 2\nvalue = [0, 0, 0, 0, 0, 0, 0, 5, 0, 0, 0, 0, 0, 0\n0, 0, 0, 0, 0, 0, 0, 0, 0, 0, 0, 0, 0, 0\n0, 0, 0, 0, 0, 0, 0, 0, 0, 0, 0, 0, 0, 0\n0, 0, 0, 0, 0, 0, 0, 0, 0, 0, 0, 0, 0, 0\n0, 0, 0, 0, 0, 0, 0, 0, 0, 0, 0, 0, 0, 0\n0, 0, 0, 0, 0, 0, 0, 0, 0, 0, 0, 0, 0, 0\n0, 0, 0, 0, 0, 0, 0, 0, 0, 0, 0, 0, 0, 0\n0, 0]", fillcolor="#e5c839"] ;
119 -> 153 ;
154 [label="gini = 0.22\nsamples = 2\nvalue = [0, 0, 0, 0, 7, 0, 0, 0, 1, 0, 0, 0, 0, 0\n0, 0, 0, 0, 0, 0, 0, 0, 0, 0, 0, 0, 0, 0\n0, 0, 0, 0, 0, 0, 0, 0, 0, 0, 0, 0, 0, 0\n0, 0, 0, 0, 0, 0, 0, 0, 0, 0, 0, 0, 0, 0\n0, 0, 0, 0, 0, 0, 0, 0, 0, 0, 0, 0, 0, 0\n0, 0, 0, 0, 0, 0, 0, 0, 0, 0, 0, 0, 0, 0\n0, 0, 0, 0, 0, 0, 0, 0, 0, 0, 0, 0, 0, 0\n0, 0]", fillcolor="#e9b555"] ;
118 -> 154 ;
155 [label="gini = 0.0\nsamples = 1\nvalue = [0, 0, 0, 0, 0, 0, 0, 0, 0, 0, 0, 0, 0, 0\n0, 0, 0, 0, 0, 0, 4, 0, 0, 0, 0, 0, 0, 0\n0, 0, 0, 0, 0, 0, 0, 0, 0, 0, 0, 0, 0, 0\n0, 0, 0, 0, 0, 0, 0, 0, 0, 0, 0, 0, 0, 0\n0, 0, 0, 0, 0, 0, 0, 0, 0, 0, 0, 0, 0, 0\n0, 0, 0, 0, 0, 0, 0, 0, 0, 0, 0, 0, 0, 0\n0, 0, 0, 0, 0, 0, 0, 0, 0, 0, 0, 0, 0, 0\n0, 0]", fillcolor="#7be539"] ;
35 -> 155 ;
156 [label="X[2237] <= 0.01\ngini = 0.98\nsamples = 182\nvalue = [4, 0, 2, 4, 0, 0, 1, 5, 1, 2, 0, 1, 0, 2\n2, 0, 3, 3, 1, 5, 2, 0, 1, 3, 4, 0, 2, 0\n0, 2, 2, 4, 3, 1, 2, 2, 1, 5, 0, 1, 8, 3\n1, 0, 1, 1, 2, 5, 6, 5, 0, 10, 1, 0, 12, 0\n4, 3, 2, 0, 6, 18, 4, 6, 1, 2, 10, 0, 4, 1\n1, 4, 2, 2, 4, 0, 1, 0, 4, 5, 3, 1, 1, 8\n2, 4, 3, 6, 2, 5, 4, 7, 5, 0, 3, 2, 5, 0\n0, 4]", fillcolor="#fbfafe"] ;
34 -> 156 ;
157 [label="gini = 0.64\nsamples = 7\nvalue = [0, 0, 0, 0, 0, 0, 0, 0, 0, 0, 0, 0, 0, 0\n0, 0, 1, 0, 0, 0, 0, 0, 0, 0, 0, 0, 0, 0\n0, 0, 0, 0, 0, 0, 0, 0, 0, 0, 0, 0, 0, 0\n0, 0, 0, 0, 0, 0, 0, 0, 0, 0, 0, 0, 0, 0\n0, 1, 0, 0, 0, 0, 0, 1, 0, 0, 0, 0, 0, 0\n0, 0, 0, 0, 0, 0, 0, 0, 0, 0, 0, 0, 0, 5\n0, 0, 0, 0, 0, 0, 0, 0, 0, 0, 1, 0, 0, 0\n0, 0]", fillcolor="#f29cd1"] ;
156 -> 157 ;
158 [label="X[804] <= 0.89\ngini = 0.98\nsamples = 175\nvalue = [4, 0, 2, 4, 0, 0, 1, 5, 1, 2, 0, 1, 0, 2\n2, 0, 2, 3, 1, 5, 2, 0, 1, 3, 4, 0, 2, 0\n0, 2, 2, 4, 3, 1, 2, 2, 1, 5, 0, 1, 8, 3\n1, 0, 1, 1, 2, 5, 6, 5, 0, 10, 1, 0, 12, 0\n4, 2, 2, 0, 6, 18, 4, 5, 1, 2, 10, 0, 4, 1\n1, 4, 2, 2, 4, 0, 1, 0, 4, 5, 3, 1, 1, 3\n2, 4, 3, 6, 2, 5, 4, 7, 5, 0, 2, 2, 5, 0\n0, 4]", fillcolor="#fbfafe"] ;
156 -> 158 ;
159 [label="X[1098] <= 0.07\ngini = 0.98\nsamples = 174\nvalue = [4, 0, 2, 4, 0, 0, 1, 5, 1, 2, 0, 1, 0, 2\n2, 0, 2, 3, 1, 5, 2, 0, 1, 3, 4, 0, 2, 0\n0, 2, 2, 4, 3, 1, 2, 2, 1, 5, 0, 1, 8, 3\n1, 0, 1, 1, 2, 5, 6, 5, 0, 10, 1, 0, 12, 0\n4, 2, 2, 0, 6, 18, 4, 5, 1, 2, 10, 0, 4, 1\n1, 4, 2, 2, 4, 0, 1, 0, 1, 5, 3, 1, 1, 3\n2, 4, 3, 6, 2, 5, 4, 7, 5, 0, 2, 2, 5, 0\n0, 4]", fillcolor="#fbfafe"] ;
158 -> 159 ;
160 [label="gini = 0.44\nsamples = 2\nvalue = [0, 0, 0, 0, 0, 0, 0, 0, 0, 0, 0, 0, 0, 0\n0, 0, 0, 0, 0, 4, 0, 0, 0, 0, 0, 0, 0, 0\n0, 0, 0, 0, 0, 0, 0, 0, 0, 0, 0, 0, 0, 0\n0, 0, 0, 0, 2, 0, 0, 0, 0, 0, 0, 0, 0, 0\n0, 0, 0, 0, 0, 0, 0, 0, 0, 0, 0, 0, 0, 0\n0, 0, 0, 0, 0, 0, 0, 0, 0, 0, 0, 0, 0, 0\n0, 0, 0, 0, 0, 0, 0, 0, 0, 0, 0, 0, 0, 0\n0, 0]", fillcolor="#c2f29c"] ;
159 -> 160 ;
161 [label="X[1831] <= 0.46\ngini = 0.98\nsamples = 172\nvalue = [4, 0, 2, 4, 0, 0, 1, 5, 1, 2, 0, 1, 0, 2\n2, 0, 2, 3, 1, 1, 2, 0, 1, 3, 4, 0, 2, 0\n0, 2, 2, 4, 3, 1, 2, 2, 1, 5, 0, 1, 8, 3\n1, 0, 1, 1, 0, 5, 6, 5, 0, 10, 1, 0, 12, 0\n4, 2, 2, 0, 6, 18, 4, 5, 1, 2, 10, 0, 4, 1\n1, 4, 2, 2, 4, 0, 1, 0, 1, 5, 3, 1, 1, 3\n2, 4, 3, 6, 2, 5, 4, 7, 5, 0, 2, 2, 5, 0\n0, 4]", fillcolor="#fafafe"] ;
159 -> 161 ;
162 [label="X[666] <= 0.96\ngini = 0.98\nsamples = 171\nvalue = [4, 0, 2, 4, 0, 0, 1, 5, 1, 2, 0, 1, 0, 2\n2, 0, 2, 3, 1, 1, 2, 0, 1, 3, 4, 0, 2, 0\n0, 2, 2, 4, 3, 1, 2, 2, 1, 5, 0, 1, 8, 3\n1, 0, 1, 1, 0, 5, 2, 5, 0, 10, 1, 0, 12, 0\n4, 2, 2, 0, 6, 18, 4, 5, 1, 2, 10, 0, 4, 1\n1, 4, 2, 2, 4, 0, 1, 0, 1, 5, 3, 1, 1, 3\n2, 4, 3, 6, 2, 5, 4, 7, 5, 0, 2, 2, 5, 0\n0, 4]", fillcolor="#fafafe"] ;
161 -> 162 ;
163 [label="X[1266] <= 0.23\ngini = 0.98\nsamples = 170\nvalue = [4, 0, 2, 4, 0, 0, 1, 5, 1, 2, 0, 1, 0, 2\n2, 0, 2, 3, 1, 1, 2, 0, 1, 3, 4, 0, 2, 0\n0, 2, 2, 4, 3, 1, 2, 2, 1, 2, 0, 1, 8, 3\n1, 0, 1, 1, 0, 5, 2, 5, 0, 10, 1, 0, 12, 0\n4, 2, 2, 0, 6, 18, 4, 5, 1, 2, 10, 0, 4, 1\n1, 4, 2, 2, 4, 0, 1, 0, 1, 5, 3, 1, 1, 3\n2, 4, 3, 6, 2, 5, 4, 7, 5, 0, 2, 2, 5, 0\n0, 4]", fillcolor="#fafafe"] ;
162 -> 163 ;
164 [label="X[2029] <= 0.31\ngini = 0.92\nsamples = 32\nvalue = [0, 0, 0, 0, 0, 0, 0, 0, 0, 0, 0, 1, 0, 2\n0, 0, 0, 0, 1, 1, 0, 0, 0, 0, 0, 0, 0, 0\n0, 2, 0, 4, 0, 0, 0, 0, 1, 0, 0, 0, 1, 1\n0, 0, 0, 1, 0, 4, 0, 1, 0, 9, 0, 0, 5, 0\n1, 2, 0, 0, 2, 0, 0, 0, 0, 0, 0, 0, 2, 0\n0, 0, 0, 0, 0, 0, 0, 0, 0, 2, 2, 0, 0, 0\n0, 0, 0, 0, 0, 2, 0, 2, 0, 0, 0, 0, 0, 0\n0, 0]", fillcolor="#edf5fd"] ;
163 -> 164 ;
165 [label="gini = 0.94\nsamples = 26\nvalue = [0, 0, 0, 0, 0, 0, 0, 0, 0, 0, 0, 1, 0, 0\n0, 0, 0, 0, 1, 1, 0, 0, 0, 0, 0, 0, 0, 0\n0, 2, 0, 4, 0, 0, 0, 0, 1, 0, 0, 0, 1, 1\n0, 0, 0, 1, 0, 1, 0, 1, 0, 2, 0, 0, 5, 0\n1, 2, 0, 0, 2, 0, 0, 0, 0, 0, 0, 0, 2, 0\n0, 0, 0, 0, 0, 0, 0, 0, 0, 2, 2, 0, 0, 0\n0, 0, 0, 0, 0, 2, 0, 2, 0, 0, 0, 0, 0, 0\n0, 0]", fillcolor="#f9fbfe"] ;
164 -> 165 ;
166 [label="gini = 0.57\nsamples = 6\nvalue = [0, 0, 0, 0, 0, 0, 0, 0, 0, 0, 0, 0, 0, 2\n0, 0, 0, 0, 0, 0, 0, 0, 0, 0, 0, 0, 0, 0\n0, 0, 0, 0, 0, 0, 0, 0, 0, 0, 0, 0, 0, 0\n0, 0, 0, 0, 0, 3, 0, 0, 0, 7, 0, 0, 0, 0\n0, 0, 0, 0, 0, 0, 0, 0, 0, 0, 0, 0, 0, 0\n0, 0, 0, 0, 0, 0, 0, 0, 0, 0, 0, 0, 0, 0\n0, 0, 0, 0, 0, 0, 0, 0, 0, 0, 0, 0, 0, 0\n0, 0]", fillcolor="#a7d0f3"] ;
164 -> 166 ;
167 [label="X[2037] <= 0.22\ngini = 0.97\nsamples = 138\nvalue = [4, 0, 2, 4, 0, 0, 1, 5, 1, 2, 0, 0, 0, 0\n2, 0, 2, 3, 0, 0, 2, 0, 1, 3, 4, 0, 2, 0\n0, 0, 2, 0, 3, 1, 2, 2, 0, 2, 0, 1, 7, 2\n1, 0, 1, 0, 0, 1, 2, 4, 0, 1, 1, 0, 7, 0\n3, 0, 2, 0, 4, 18, 4, 5, 1, 2, 10, 0, 2, 1\n1, 4, 2, 2, 4, 0, 1, 0, 1, 3, 1, 1, 1, 3\n2, 4, 3, 6, 2, 3, 4, 5, 5, 0, 2, 2, 5, 0\n0, 4]", fillcolor="#f7f7fe"] ;
163 -> 167 ;
168 [label="X[1859] <= 0.16\ngini = 0.94\nsamples = 66\nvalue = [2, 0, 1, 3, 0, 0, 0, 3, 1, 0, 0, 0, 0, 0\n0, 0, 0, 0, 0, 0, 2, 0, 0, 2, 1, 0, 0, 0\n0, 0, 2, 0, 1, 0, 2, 0, 0, 1, 0, 0, 5, 2\n0, 0, 0, 0, 0, 1, 1, 2, 0, 0, 1, 0, 0, 0\n0, 0, 1, 0, 4, 17, 2, 3, 1, 1, 9, 0, 2, 0\n1, 1, 0, 2, 4, 0, 0, 0, 1, 1, 0, 1, 1, 0\n2, 0, 0, 0, 0, 0, 2, 5, 2, 0, 1, 0, 5, 0\n0, 0]", fillcolor="#efeefd"] ;
167 -> 168 ;
169 [label="X[2498] <= 0.79\ngini = 0.96\nsamples = 41\nvalue = [2, 0, 0, 0, 0, 0, 0, 3, 0, 0, 0, 0, 0, 0\n0, 0, 0, 0, 0, 0, 2, 0, 0, 2, 1, 0, 0, 0\n0, 0, 2, 0, 1, 0, 0, 0, 0, 0, 0, 0, 4, 2\n0, 0, 0, 0, 0, 1, 1, 2, 0, 0, 1, 0, 0, 0\n0, 0, 1, 0, 3, 2, 2, 2, 1, 0, 4, 0, 1, 0\n0, 1, 0, 0, 4, 0, 0, 0, 1, 1, 0, 1, 0, 0\n2, 0, 0, 0, 0, 0, 0, 2, 2, 0, 1, 0, 3, 0\n0, 0]", fillcolor="#ffffff"] ;
168 -> 169 ;
170 [label="X[2377] <= 0.78\ngini = 0.96\nsamples = 40\nvalue = [2, 0, 0, 0, 0, 0, 0, 3, 0, 0, 0, 0, 0, 0\n0, 0, 0, 0, 0, 0, 2, 0, 0, 2, 1, 0, 0, 0\n0, 0, 2, 0, 1, 0, 0, 0, 0, 0, 0, 0, 4, 2\n0, 0, 0, 0, 0, 1, 1, 2, 0, 0, 1, 0, 0, 0\n0, 0, 1, 0, 3, 2, 2, 2, 1, 0, 4, 0, 1, 0\n0, 1, 0, 0, 4, 0, 0, 0, 1, 1, 0, 1, 0, 0\n2, 0, 0, 0, 0, 0, 0, 2, 2, 0, 1, 0, 0, 0\n0, 0]", fillcolor="#ffffff"] ;
169 -> 170 ;
171 [label="X[1654] <= 0.71\ngini = 0.95\nsamples = 36\nvalue = [2, 0, 0, 0, 0, 0, 0, 3, 0, 0, 0, 0, 0, 0\n0, 0, 0, 0, 0, 0, 0, 0, 0, 2, 1, 0, 0, 0\n0, 0, 2, 0, 1, 0, 0, 0, 0, 0, 0, 0, 4, 2\n0, 0, 0, 0, 0, 1, 1, 2, 0, 0, 1, 0, 0, 0\n0, 0, 1, 0, 0, 2, 2, 2, 1, 0, 4, 0, 1, 0\n0, 1, 0, 0, 4, 0, 0, 0, 1, 1, 0, 1, 0, 0\n2, 0, 0, 0, 0, 0, 0, 2, 2, 0, 1, 0, 0, 0\n0, 0]", fillcolor="#ffffff"] ;
170 -> 171 ;
172 [label="X[31] <= 0.72\ngini = 0.96\nsamples = 35\nvalue = [2, 0, 0, 0, 0, 0, 0, 3, 0, 0, 0, 0, 0, 0\n0, 0, 0, 0, 0, 0, 0, 0, 0, 2, 1, 0, 0, 0\n0, 0, 2, 0, 1, 0, 0, 0, 0, 0, 0, 0, 1, 2\n0, 0, 0, 0, 0, 1, 1, 2, 0, 0, 1, 0, 0, 0\n0, 0, 1, 0, 0, 2, 2, 2, 1, 0, 4, 0, 1, 0\n0, 1, 0, 0, 4, 0, 0, 0, 1, 1, 0, 1, 0, 0\n2, 0, 0, 0, 0, 0, 0, 2, 2, 0, 1, 0, 0, 0\n0, 0]", fillcolor="#ffffff"] ;
171 -> 172 ;
173 [label="gini = 0.95\nsamples = 29\nvalue = [2, 0, 0, 0, 0, 0, 0, 3, 0, 0, 0, 0, 0, 0\n0, 0, 0, 0, 0, 0, 0, 0, 0, 0, 0, 0, 0, 0\n0, 0, 2, 0, 1, 0, 0, 0, 0, 0, 0, 0, 1, 2\n0, 0, 0, 0, 0, 1, 1, 2, 0, 0, 1, 0, 0, 0\n0, 0, 1, 0, 0, 2, 2, 2, 1, 0, 0, 0, 0, 0\n0, 1, 0, 0, 4, 0, 0, 0, 1, 1, 0, 1, 0, 0\n2, 0, 0, 0, 0, 0, 0, 2, 2, 0, 0, 0, 0, 0\n0, 0]", fillcolor="#fef9fe"] ;
172 -> 173 ;
174 [label="gini = 0.72\nsamples = 6\nvalue = [0, 0, 0, 0, 0, 0, 0, 0, 0, 0, 0, 0, 0, 0\n0, 0, 0, 0, 0, 0, 0, 0, 0, 2, 1, 0, 0, 0\n0, 0, 0, 0, 0, 0, 0, 0, 0, 0, 0, 0, 0, 0\n0, 0, 0, 0, 0, 0, 0, 0, 0, 0, 0, 0, 0, 0\n0, 0, 0, 0, 0, 0, 0, 0, 0, 0, 4, 0, 1, 0\n0, 0, 0, 0, 0, 0, 0, 0, 0, 0, 0, 0, 0, 0\n0, 0, 0, 0, 0, 0, 0, 0, 0, 0, 1, 0, 0, 0\n0, 0]", fillcolor="#d8c6f8"] ;
172 -> 174 ;
175 [label="gini = 0.0\nsamples = 1\nvalue = [0, 0, 0, 0, 0, 0, 0, 0, 0, 0, 0, 0, 0, 0\n0, 0, 0, 0, 0, 0, 0, 0, 0, 0, 0, 0, 0, 0\n0, 0, 0, 0, 0, 0, 0, 0, 0, 0, 0, 0, 3, 0\n0, 0, 0, 0, 0, 0, 0, 0, 0, 0, 0, 0, 0, 0\n0, 0, 0, 0, 0, 0, 0, 0, 0, 0, 0, 0, 0, 0\n0, 0, 0, 0, 0, 0, 0, 0, 0, 0, 0, 0, 0, 0\n0, 0, 0, 0, 0, 0, 0, 0, 0, 0, 0, 0, 0, 0\n0, 0]", fillcolor="#39e5c5"] ;
171 -> 175 ;
176 [label="gini = 0.48\nsamples = 4\nvalue = [0, 0, 0, 0, 0, 0, 0, 0, 0, 0, 0, 0, 0, 0\n0, 0, 0, 0, 0, 0, 2, 0, 0, 0, 0, 0, 0, 0\n0, 0, 0, 0, 0, 0, 0, 0, 0, 0, 0, 0, 0, 0\n0, 0, 0, 0, 0, 0, 0, 0, 0, 0, 0, 0, 0, 0\n0, 0, 0, 0, 3, 0, 0, 0, 0, 0, 0, 0, 0, 0\n0, 0, 0, 0, 0, 0, 0, 0, 0, 0, 0, 0, 0, 0\n0, 0, 0, 0, 0, 0, 0, 0, 0, 0, 0, 0, 0, 0\n0, 0]", fillcolor="#bebdf6"] ;
170 -> 176 ;
177 [label="gini = 0.0\nsamples = 1\nvalue = [0, 0, 0, 0, 0, 0, 0, 0, 0, 0, 0, 0, 0, 0\n0, 0, 0, 0, 0, 0, 0, 0, 0, 0, 0, 0, 0, 0\n0, 0, 0, 0, 0, 0, 0, 0, 0, 0, 0, 0, 0, 0\n0, 0, 0, 0, 0, 0, 0, 0, 0, 0, 0, 0, 0, 0\n0, 0, 0, 0, 0, 0, 0, 0, 0, 0, 0, 0, 0, 0\n0, 0, 0, 0, 0, 0, 0, 0, 0, 0, 0, 0, 0, 0\n0, 0, 0, 0, 0, 0, 0, 0, 0, 0, 0, 0, 3, 0\n0, 0]", fillcolor="#e55639"] ;
169 -> 177 ;
178 [label="gini = 0.85\nsamples = 25\nvalue = [0, 0, 1, 3, 0, 0, 0, 0, 1, 0, 0, 0, 0, 0\n0, 0, 0, 0, 0, 0, 0, 0, 0, 0, 0, 0, 0, 0\n0, 0, 0, 0, 0, 0, 2, 0, 0, 1, 0, 0, 1, 0\n0, 0, 0, 0, 0, 0, 0, 0, 0, 0, 0, 0, 0, 0\n0, 0, 0, 0, 1, 15, 0, 1, 0, 1, 5, 0, 1, 0\n1, 0, 0, 2, 0, 0, 0, 0, 0, 0, 0, 0, 1, 0\n0, 0, 0, 0, 0, 0, 2, 3, 0, 0, 0, 0, 2, 0\n0, 0]", fillcolor="#cfccf8"] ;
168 -> 178 ;
179 [label="X[976] <= 0.03\ngini = 0.97\nsamples = 72\nvalue = [2, 0, 1, 1, 0, 0, 1, 2, 0, 2, 0, 0, 0, 0\n2, 0, 2, 3, 0, 0, 0, 0, 1, 1, 3, 0, 2, 0\n0, 0, 0, 0, 2, 1, 0, 2, 0, 1, 0, 1, 2, 0\n1, 0, 1, 0, 0, 0, 1, 2, 0, 1, 0, 0, 7, 0\n3, 0, 1, 0, 0, 1, 2, 2, 0, 1, 1, 0, 0, 1\n0, 3, 2, 0, 0, 0, 1, 0, 0, 2, 1, 0, 0, 3\n0, 4, 3, 6, 2, 3, 2, 0, 3, 0, 1, 2, 0, 0\n0, 4]", fillcolor="#fdfeff"] ;
167 -> 179 ;
180 [label="gini = 0.0\nsamples = 1\nvalue = [0, 0, 0, 0, 0, 0, 0, 0, 0, 0, 0, 0, 0, 0\n0, 0, 0, 0, 0, 0, 0, 0, 0, 0, 0, 0, 0, 0\n0, 0, 0, 0, 0, 0, 0, 0, 0, 0, 0, 0, 0, 0\n0, 0, 0, 0, 0, 0, 0, 0, 0, 0, 0, 0, 4, 0\n0, 0, 0, 0, 0, 0, 0, 0, 0, 0, 0, 0, 0, 0\n0, 0, 0, 0, 0, 0, 0, 0, 0, 0, 0, 0, 0, 0\n0, 0, 0, 0, 0, 0, 0, 0, 0, 0, 0, 0, 0, 0\n0, 0]", fillcolor="#3975e5"] ;
179 -> 180 ;
181 [label="X[599] <= 0.76\ngini = 0.97\nsamples = 71\nvalue = [2, 0, 1, 1, 0, 0, 1, 2, 0, 2, 0, 0, 0, 0\n2, 0, 2, 3, 0, 0, 0, 0, 1, 1, 3, 0, 2, 0\n0, 0, 0, 0, 2, 1, 0, 2, 0, 1, 0, 1, 2, 0\n1, 0, 1, 0, 0, 0, 1, 2, 0, 1, 0, 0, 3, 0\n3, 0, 1, 0, 0, 1, 2, 2, 0, 1, 1, 0, 0, 1\n0, 3, 2, 0, 0, 0, 1, 0, 0, 2, 1, 0, 0, 3\n0, 4, 3, 6, 2, 3, 2, 0, 3, 0, 1, 2, 0, 0\n0, 4]", fillcolor="#fefbfc"] ;
179 -> 181 ;
182 [label="X[100] <= 0.12\ngini = 0.97\nsamples = 66\nvalue = [2, 0, 1, 1, 0, 0, 0, 2, 0, 2, 0, 0, 0, 0\n2, 0, 2, 3, 0, 0, 0, 0, 1, 1, 3, 0, 2, 0\n0, 0, 0, 0, 2, 1, 0, 2, 0, 1, 0, 1, 2, 0\n1, 0, 1, 0, 0, 0, 1, 2, 0, 1, 0, 0, 3, 0\n2, 0, 0, 0, 0, 1, 2, 2, 0, 1, 1, 0, 0, 1\n0, 3, 2, 0, 0, 0, 1, 0, 0, 2, 1, 0, 0, 3\n0, 4, 3, 1, 2, 3, 2, 0, 3, 0, 1, 2, 0, 0\n0, 4]", fillcolor="#ffffff"] ;
181 -> 182 ;
183 [label="gini = 0.0\nsamples = 1\nvalue = [0, 0, 0, 0, 0, 0, 0, 0, 0, 0, 0, 0, 0, 0\n0, 0, 0, 0, 0, 0, 0, 0, 0, 0, 0, 0, 0, 0\n0, 0, 0, 0, 0, 0, 0, 0, 0, 0, 0, 0, 0, 0\n0, 0, 0, 0, 0, 0, 0, 0, 0, 0, 0, 0, 0, 0\n0, 0, 0, 0, 0, 0, 0, 0, 0, 0, 0, 0, 0, 0\n0, 0, 0, 0, 0, 0, 0, 0, 0, 0, 0, 0, 0, 0\n0, 0, 3, 0, 0, 0, 0, 0, 0, 0, 0, 0, 0, 0\n0, 0]", fillcolor="#e53983"] ;
182 -> 183 ;
184 [label="X[196] <= 0.97\ngini = 0.97\nsamples = 65\nvalue = [2, 0, 1, 1, 0, 0, 0, 2, 0, 2, 0, 0, 0, 0\n2, 0, 2, 3, 0, 0, 0, 0, 1, 1, 3, 0, 2, 0\n0, 0, 0, 0, 2, 1, 0, 2, 0, 1, 0, 1, 2, 0\n1, 0, 1, 0, 0, 0, 1, 2, 0, 1, 0, 0, 3, 0\n2, 0, 0, 0, 0, 1, 2, 2, 0, 1, 1, 0, 0, 1\n0, 3, 2, 0, 0, 0, 1, 0, 0, 2, 1, 0, 0, 3\n0, 4, 0, 1, 2, 3, 2, 0, 3, 0, 1, 2, 0, 0\n0, 4]", fillcolor="#ffffff"] ;
182 -> 184 ;
185 [label="X[1351] <= 0.15\ngini = 0.97\nsamples = 60\nvalue = [2, 0, 1, 1, 0, 0, 0, 2, 0, 2, 0, 0, 0, 0\n2, 0, 2, 3, 0, 0, 0, 0, 1, 1, 1, 0, 2, 0\n0, 0, 0, 0, 2, 1, 0, 2, 0, 1, 0, 1, 2, 0\n1, 0, 1, 0, 0, 0, 1, 2, 0, 1, 0, 0, 3, 0\n2, 0, 0, 0, 0, 1, 2, 2, 0, 1, 1, 0, 0, 1\n0, 3, 2, 0, 0, 0, 1, 0, 0, 0, 1, 0, 0, 3\n0, 0, 0, 1, 1, 3, 2, 0, 3, 0, 1, 2, 0, 0\n0, 4]", fillcolor="#fffdfc"] ;
184 -> 185 ;
186 [label="gini = 0.38\nsamples = 2\nvalue = [0, 0, 0, 0, 0, 0, 0, 0, 0, 0, 0, 0, 0, 0\n0, 0, 1, 0, 0, 0, 0, 0, 0, 0, 0, 0, 0, 0\n0, 0, 0, 0, 0, 0, 0, 0, 0, 0, 0, 0, 0, 0\n0, 0, 0, 0, 0, 0, 0, 0, 0, 0, 0, 0, 0, 0\n0, 0, 0, 0, 0, 0, 0, 0, 0, 0, 0, 0, 0, 0\n0, 0, 0, 0, 0, 0, 0, 0, 0, 0, 0, 0, 0, 0\n0, 0, 0, 0, 0, 0, 0, 0, 3, 0, 0, 0, 0, 0\n0, 0]", fillcolor="#ee7b82"] ;
185 -> 186 ;
187 [label="X[2339] <= 0.88\ngini = 0.97\nsamples = 58\nvalue = [2, 0, 1, 1, 0, 0, 0, 2, 0, 2, 0, 0, 0, 0\n2, 0, 1, 3, 0, 0, 0, 0, 1, 1, 1, 0, 2, 0\n0, 0, 0, 0, 2, 1, 0, 2, 0, 1, 0, 1, 2, 0\n1, 0, 1, 0, 0, 0, 1, 2, 0, 1, 0, 0, 3, 0\n2, 0, 0, 0, 0, 1, 2, 2, 0, 1, 1, 0, 0, 1\n0, 3, 2, 0, 0, 0, 1, 0, 0, 0, 1, 0, 0, 3\n0, 0, 0, 1, 1, 3, 2, 0, 0, 0, 1, 2, 0, 0\n0, 4]", fillcolor="#fffdfc"] ;
185 -> 187 ;
188 [label="X[2382] <= 0.8\ngini = 0.97\nsamples = 55\nvalue = [2, 0, 1, 1, 0, 0, 0, 2, 0, 2, 0, 0, 0, 0\n2, 0, 1, 0, 0, 0, 0, 0, 1, 1, 1, 0, 2, 0\n0, 0, 0, 0, 2, 1, 0, 2, 0, 1, 0, 1, 2, 0\n1, 0, 1, 0, 0, 0, 1, 2, 0, 1, 0, 0, 3, 0\n2, 0, 0, 0, 0, 1, 2, 2, 0, 1, 1, 0, 0, 1\n0, 3, 2, 0, 0, 0, 1, 0, 0, 0, 1, 0, 0, 3\n0, 0, 0, 1, 1, 3, 2, 0, 0, 0, 1, 2, 0, 0\n0, 3]", fillcolor="#ffffff"] ;
187 -> 188 ;
189 [label="X[564] <= 0.1\ngini = 0.97\nsamples = 53\nvalue = [2, 0, 1, 1, 0, 0, 0, 2, 0, 2, 0, 0, 0, 0\n2, 0, 1, 0, 0, 0, 0, 0, 1, 1, 1, 0, 2, 0\n0, 0, 0, 0, 2, 1, 0, 2, 0, 1, 0, 1, 2, 0\n1, 0, 1, 0, 0, 0, 1, 2, 0, 1, 0, 0, 0, 0\n2, 0, 0, 0, 0, 1, 2, 2, 0, 1, 1, 0, 0, 1\n0, 3, 2, 0, 0, 0, 1, 0, 0, 0, 1, 0, 0, 3\n0, 0, 0, 1, 1, 3, 2, 0, 0, 0, 1, 2, 0, 0\n0, 3]", fillcolor="#ffffff"] ;
188 -> 189 ;
190 [label="gini = 0.0\nsamples = 2\nvalue = [0, 0, 0, 0, 0, 0, 0, 0, 0, 0, 0, 0, 0, 0\n0, 0, 0, 0, 0, 0, 0, 0, 0, 0, 0, 0, 0, 0\n0, 0, 0, 0, 0, 0, 0, 0, 0, 0, 0, 0, 0, 0\n0, 0, 0, 0, 0, 0, 0, 0, 0, 0, 0, 0, 0, 0\n0, 0, 0, 0, 0, 0, 0, 0, 0, 0, 0, 0, 0, 0\n0, 0, 0, 0, 0, 0, 0, 0, 0, 0, 0, 0, 0, 3\n0, 0, 0, 0, 0, 0, 0, 0, 0, 0, 0, 0, 0, 0\n0, 0]", fillcolor="#e539a3"] ;
189 -> 190 ;
191 [label="X[1786] <= 0.1\ngini = 0.97\nsamples = 51\nvalue = [2, 0, 1, 1, 0, 0, 0, 2, 0, 2, 0, 0, 0, 0\n2, 0, 1, 0, 0, 0, 0, 0, 1, 1, 1, 0, 2, 0\n0, 0, 0, 0, 2, 1, 0, 2, 0, 1, 0, 1, 2, 0\n1, 0, 1, 0, 0, 0, 1, 2, 0, 1, 0, 0, 0, 0\n2, 0, 0, 0, 0, 1, 2, 2, 0, 1, 1, 0, 0, 1\n0, 3, 2, 0, 0, 0, 1, 0, 0, 0, 1, 0, 0, 0\n0, 0, 0, 1, 1, 3, 2, 0, 0, 0, 1, 2, 0, 0\n0, 3]", fillcolor="#ffffff"] ;
189 -> 191 ;
192 [label="gini = 0.56\nsamples = 4\nvalue = [0, 0, 0, 0, 0, 0, 0, 1, 0, 0, 0, 0, 0, 0\n0, 0, 0, 0, 0, 0, 0, 0, 0, 0, 0, 0, 0, 0\n0, 0, 0, 0, 0, 0, 0, 0, 0, 0, 0, 0, 0, 0\n0, 0, 0, 0, 0, 0, 0, 0, 0, 0, 0, 0, 0, 0\n0, 0, 0, 0, 0, 0, 0, 0, 0, 0, 0, 0, 0, 0\n0, 1, 0, 0, 0, 0, 0, 0, 0, 0, 0, 0, 0, 0\n0, 0, 0, 0, 0, 3, 0, 0, 0, 0, 0, 0, 0, 0\n0, 0]", fillcolor="#f29cb2"] ;
191 -> 192 ;
193 [label="X[1714] <= 0.63\ngini = 0.97\nsamples = 47\nvalue = [2, 0, 1, 1, 0, 0, 0, 1, 0, 2, 0, 0, 0, 0\n2, 0, 1, 0, 0, 0, 0, 0, 1, 1, 1, 0, 2, 0\n0, 0, 0, 0, 2, 1, 0, 2, 0, 1, 0, 1, 2, 0\n1, 0, 1, 0, 0, 0, 1, 2, 0, 1, 0, 0, 0, 0\n2, 0, 0, 0, 0, 1, 2, 2, 0, 1, 1, 0, 0, 1\n0, 2, 2, 0, 0, 0, 1, 0, 0, 0, 1, 0, 0, 0\n0, 0, 0, 1, 1, 0, 2, 0, 0, 0, 1, 2, 0, 0\n0, 3]", fillcolor="#fffcfb"] ;
191 -> 193 ;
194 [label="X[1269] <= 0.08\ngini = 0.97\nsamples = 45\nvalue = [2, 0, 1, 1, 0, 0, 0, 1, 0, 2, 0, 0, 0, 0\n2, 0, 1, 0, 0, 0, 0, 0, 1, 1, 1, 0, 2, 0\n0, 0, 0, 0, 2, 1, 0, 2, 0, 1, 0, 1, 2, 0\n1, 0, 1, 0, 0, 0, 1, 2, 0, 1, 0, 0, 0, 0\n2, 0, 0, 0, 0, 1, 2, 2, 0, 1, 1, 0, 0, 1\n0, 2, 2, 0, 0, 0, 1, 0, 0, 0, 1, 0, 0, 0\n0, 0, 0, 1, 1, 0, 2, 0, 0, 0, 1, 2, 0, 0\n0, 0]", fillcolor="#ffffff"] ;
193 -> 194 ;
195 [label="gini = 0.0\nsamples = 1\nvalue = [0, 0, 0, 0, 0, 0, 0, 0, 0, 0, 0, 0, 0, 0\n0, 0, 0, 0, 0, 0, 0, 0, 0, 0, 0, 0, 2, 0\n0, 0, 0, 0, 0, 0, 0, 0, 0, 0, 0, 0, 0, 0\n0, 0, 0, 0, 0, 0, 0, 0, 0, 0, 0, 0, 0, 0\n0, 0, 0, 0, 0, 0, 0, 0, 0, 0, 0, 0, 0, 0\n0, 0, 0, 0, 0, 0, 0, 0, 0, 0, 0, 0, 0, 0\n0, 0, 0, 0, 0, 0, 0, 0, 0, 0, 0, 0, 0, 0\n0, 0]", fillcolor="#3fe539"] ;
194 -> 195 ;
196 [label="X[2417] <= 0.91\ngini = 0.97\nsamples = 44\nvalue = [2, 0, 1, 1, 0, 0, 0, 1, 0, 2, 0, 0, 0, 0\n2, 0, 1, 0, 0, 0, 0, 0, 1, 1, 1, 0, 0, 0\n0, 0, 0, 0, 2, 1, 0, 2, 0, 1, 0, 1, 2, 0\n1, 0, 1, 0, 0, 0, 1, 2, 0, 1, 0, 0, 0, 0\n2, 0, 0, 0, 0, 1, 2, 2, 0, 1, 1, 0, 0, 1\n0, 2, 2, 0, 0, 0, 1, 0, 0, 0, 1, 0, 0, 0\n0, 0, 0, 1, 1, 0, 2, 0, 0, 0, 1, 2, 0, 0\n0, 0]", fillcolor="#ffffff"] ;
194 -> 196 ;
197 [label="X[876] <= 0.78\ngini = 0.97\nsamples = 43\nvalue = [2, 0, 1, 1, 0, 0, 0, 1, 0, 2, 0, 0, 0, 0\n2, 0, 1, 0, 0, 0, 0, 0, 1, 1, 1, 0, 0, 0\n0, 0, 0, 0, 0, 1, 0, 2, 0, 1, 0, 1, 2, 0\n1, 0, 1, 0, 0, 0, 1, 2, 0, 1, 0, 0, 0, 0\n2, 0, 0, 0, 0, 1, 2, 2, 0, 1, 1, 0, 0, 1\n0, 2, 2, 0, 0, 0, 1, 0, 0, 0, 1, 0, 0, 0\n0, 0, 0, 1, 1, 0, 2, 0, 0, 0, 1, 2, 0, 0\n0, 0]", fillcolor="#ffffff"] ;
196 -> 197 ;
198 [label="X[2342] <= 0.03\ngini = 0.97\nsamples = 42\nvalue = [2, 0, 1, 1, 0, 0, 0, 1, 0, 2, 0, 0, 0, 0\n2, 0, 1, 0, 0, 0, 0, 0, 1, 1, 1, 0, 0, 0\n0, 0, 0, 0, 0, 1, 0, 2, 0, 1, 0, 1, 2, 0\n1, 0, 1, 0, 0, 0, 1, 2, 0, 1, 0, 0, 0, 0\n2, 0, 0, 0, 0, 1, 2, 2, 0, 1, 1, 0, 0, 1\n0, 2, 0, 0, 0, 0, 1, 0, 0, 0, 1, 0, 0, 0\n0, 0, 0, 1, 1, 0, 2, 0, 0, 0, 1, 2, 0, 0\n0, 0]", fillcolor="#ffffff"] ;
197 -> 198 ;
199 [label="gini = 0.0\nsamples = 2\nvalue = [0, 0, 0, 0, 0, 0, 0, 0, 0, 0, 0, 0, 0, 0\n0, 0, 0, 0, 0, 0, 0, 0, 0, 0, 0, 0, 0, 0\n0, 0, 0, 0, 0, 0, 0, 0, 0, 0, 0, 0, 2, 0\n0, 0, 0, 0, 0, 0, 0, 0, 0, 0, 0, 0, 0, 0\n0, 0, 0, 0, 0, 0, 0, 0, 0, 0, 0, 0, 0, 0\n0, 0, 0, 0, 0, 0, 0, 0, 0, 0, 0, 0, 0, 0\n0, 0, 0, 0, 0, 0, 0, 0, 0, 0, 0, 0, 0, 0\n0, 0]", fillcolor="#39e5c5"] ;
198 -> 199 ;
200 [label="X[915] <= 0.02\ngini = 0.97\nsamples = 40\nvalue = [2, 0, 1, 1, 0, 0, 0, 1, 0, 2, 0, 0, 0, 0\n2, 0, 1, 0, 0, 0, 0, 0, 1, 1, 1, 0, 0, 0\n0, 0, 0, 0, 0, 1, 0, 2, 0, 1, 0, 1, 0, 0\n1, 0, 1, 0, 0, 0, 1, 2, 0, 1, 0, 0, 0, 0\n2, 0, 0, 0, 0, 1, 2, 2, 0, 1, 1, 0, 0, 1\n0, 2, 0, 0, 0, 0, 1, 0, 0, 0, 1, 0, 0, 0\n0, 0, 0, 1, 1, 0, 2, 0, 0, 0, 1, 2, 0, 0\n0, 0]", fillcolor="#ffffff"] ;
198 -> 200 ;
201 [label="gini = 0.0\nsamples = 1\nvalue = [0, 0, 0, 0, 0, 0, 0, 0, 0, 0, 0, 0, 0, 0\n2, 0, 0, 0, 0, 0, 0, 0, 0, 0, 0, 0, 0, 0\n0, 0, 0, 0, 0, 0, 0, 0, 0, 0, 0, 0, 0, 0\n0, 0, 0, 0, 0, 0, 0, 0, 0, 0, 0, 0, 0, 0\n0, 0, 0, 0, 0, 0, 0, 0, 0, 0, 0, 0, 0, 0\n0, 0, 0, 0, 0, 0, 0, 0, 0, 0, 0, 0, 0, 0\n0, 0, 0, 0, 0, 0, 0, 0, 0, 0, 0, 0, 0, 0\n0, 0]", fillcolor="#bae539"] ;
200 -> 201 ;
202 [label="X[1839] <= 0.04\ngini = 0.97\nsamples = 39\nvalue = [2, 0, 1, 1, 0, 0, 0, 1, 0, 2, 0, 0, 0, 0\n0, 0, 1, 0, 0, 0, 0, 0, 1, 1, 1, 0, 0, 0\n0, 0, 0, 0, 0, 1, 0, 2, 0, 1, 0, 1, 0, 0\n1, 0, 1, 0, 0, 0, 1, 2, 0, 1, 0, 0, 0, 0\n2, 0, 0, 0, 0, 1, 2, 2, 0, 1, 1, 0, 0, 1\n0, 2, 0, 0, 0, 0, 1, 0, 0, 0, 1, 0, 0, 0\n0, 0, 0, 1, 1, 0, 2, 0, 0, 0, 1, 2, 0, 0\n0, 0]", fillcolor="#ffffff"] ;
200 -> 202 ;
203 [label="gini = 0.0\nsamples = 1\nvalue = [0, 0, 0, 0, 0, 0, 0, 0, 0, 0, 0, 0, 0, 0\n0, 0, 0, 0, 0, 0, 0, 0, 0, 0, 0, 0, 0, 0\n0, 0, 0, 0, 0, 0, 0, 0, 0, 0, 0, 0, 0, 0\n0, 0, 0, 0, 0, 0, 0, 0, 0, 0, 0, 0, 0, 0\n0, 0, 0, 0, 0, 0, 0, 2, 0, 0, 0, 0, 0, 0\n0, 0, 0, 0, 0, 0, 0, 0, 0, 0, 0, 0, 0, 0\n0, 0, 0, 0, 0, 0, 0, 0, 0, 0, 0, 0, 0, 0\n0, 0]", fillcolor="#5839e5"] ;
202 -> 203 ;
204 [label="X[1157] <= 1.0\ngini = 0.96\nsamples = 38\nvalue = [2, 0, 1, 1, 0, 0, 0, 1, 0, 2, 0, 0, 0, 0\n0, 0, 1, 0, 0, 0, 0, 0, 1, 1, 1, 0, 0, 0\n0, 0, 0, 0, 0, 1, 0, 2, 0, 1, 0, 1, 0, 0\n1, 0, 1, 0, 0, 0, 1, 2, 0, 1, 0, 0, 0, 0\n2, 0, 0, 0, 0, 1, 2, 0, 0, 1, 1, 0, 0, 1\n0, 2, 0, 0, 0, 0, 1, 0, 0, 0, 1, 0, 0, 0\n0, 0, 0, 1, 1, 0, 2, 0, 0, 0, 1, 2, 0, 0\n0, 0]", fillcolor="#ffffff"] ;
202 -> 204 ;
205 [label="X[296] <= 0.21\ngini = 0.96\nsamples = 37\nvalue = [2, 0, 1, 1, 0, 0, 0, 1, 0, 0, 0, 0, 0, 0\n0, 0, 1, 0, 0, 0, 0, 0, 1, 1, 1, 0, 0, 0\n0, 0, 0, 0, 0, 1, 0, 2, 0, 1, 0, 1, 0, 0\n1, 0, 1, 0, 0, 0, 1, 2, 0, 1, 0, 0, 0, 0\n2, 0, 0, 0, 0, 1, 2, 0, 0, 1, 1, 0, 0, 1\n0, 2, 0, 0, 0, 0, 1, 0, 0, 0, 1, 0, 0, 0\n0, 0, 0, 1, 1, 0, 2, 0, 0, 0, 1, 2, 0, 0\n0, 0]", fillcolor="#ffffff"] ;
204 -> 205 ;
206 [label="gini = 0.0\nsamples = 1\nvalue = [0, 0, 0, 0, 0, 0, 0, 0, 0, 0, 0, 0, 0, 0\n0, 0, 0, 0, 0, 0, 0, 0, 0, 0, 0, 0, 0, 0\n0, 0, 0, 0, 0, 0, 0, 0, 0, 0, 0, 0, 0, 0\n0, 0, 0, 0, 0, 0, 0, 0, 0, 0, 0, 0, 0, 0\n2, 0, 0, 0, 0, 0, 0, 0, 0, 0, 0, 0, 0, 0\n0, 0, 0, 0, 0, 0, 0, 0, 0, 0, 0, 0, 0, 0\n0, 0, 0, 0, 0, 0, 0, 0, 0, 0, 0, 0, 0, 0\n0, 0]", fillcolor="#3961e5"] ;
205 -> 206 ;
207 [label="X[645] <= 0.9\ngini = 0.96\nsamples = 36\nvalue = [2, 0, 1, 1, 0, 0, 0, 1, 0, 0, 0, 0, 0, 0\n0, 0, 1, 0, 0, 0, 0, 0, 1, 1, 1, 0, 0, 0\n0, 0, 0, 0, 0, 1, 0, 2, 0, 1, 0, 1, 0, 0\n1, 0, 1, 0, 0, 0, 1, 2, 0, 1, 0, 0, 0, 0\n0, 0, 0, 0, 0, 1, 2, 0, 0, 1, 1, 0, 0, 1\n0, 2, 0, 0, 0, 0, 1, 0, 0, 0, 1, 0, 0, 0\n0, 0, 0, 1, 1, 0, 2, 0, 0, 0, 1, 2, 0, 0\n0, 0]", fillcolor="#ffffff"] ;
205 -> 207 ;
208 [label="gini = 0.96\nsamples = 35\nvalue = [2, 0, 1, 1, 0, 0, 0, 1, 0, 0, 0, 0, 0, 0\n0, 0, 1, 0, 0, 0, 0, 0, 1, 1, 1, 0, 0, 0\n0, 0, 0, 0, 0, 1, 0, 2, 0, 1, 0, 1, 0, 0\n1, 0, 1, 0, 0, 0, 1, 2, 0, 1, 0, 0, 0, 0\n0, 0, 0, 0, 0, 1, 2, 0, 0, 1, 1, 0, 0, 1\n0, 2, 0, 0, 0, 0, 1, 0, 0, 0, 1, 0, 0, 0\n0, 0, 0, 1, 1, 0, 0, 0, 0, 0, 1, 2, 0, 0\n0, 0]", fillcolor="#ffffff"] ;
207 -> 208 ;
209 [label="gini = 0.0\nsamples = 1\nvalue = [0, 0, 0, 0, 0, 0, 0, 0, 0, 0, 0, 0, 0, 0\n0, 0, 0, 0, 0, 0, 0, 0, 0, 0, 0, 0, 0, 0\n0, 0, 0, 0, 0, 0, 0, 0, 0, 0, 0, 0, 0, 0\n0, 0, 0, 0, 0, 0, 0, 0, 0, 0, 0, 0, 0, 0\n0, 0, 0, 0, 0, 0, 0, 0, 0, 0, 0, 0, 0, 0\n0, 0, 0, 0, 0, 0, 0, 0, 0, 0, 0, 0, 0, 0\n0, 0, 0, 0, 0, 0, 2, 0, 0, 0, 0, 0, 0, 0\n0, 0]", fillcolor="#e53958"] ;
207 -> 209 ;
210 [label="gini = 0.0\nsamples = 1\nvalue = [0, 0, 0, 0, 0, 0, 0, 0, 0, 2, 0, 0, 0, 0\n0, 0, 0, 0, 0, 0, 0, 0, 0, 0, 0, 0, 0, 0\n0, 0, 0, 0, 0, 0, 0, 0, 0, 0, 0, 0, 0, 0\n0, 0, 0, 0, 0, 0, 0, 0, 0, 0, 0, 0, 0, 0\n0, 0, 0, 0, 0, 0, 0, 0, 0, 0, 0, 0, 0, 0\n0, 0, 0, 0, 0, 0, 0, 0, 0, 0, 0, 0, 0, 0\n0, 0, 0, 0, 0, 0, 0, 0, 0, 0, 0, 0, 0, 0\n0, 0]", fillcolor="#e5dc39"] ;
204 -> 210 ;
211 [label="gini = 0.0\nsamples = 1\nvalue = [0, 0, 0, 0, 0, 0, 0, 0, 0, 0, 0, 0, 0, 0\n0, 0, 0, 0, 0, 0, 0, 0, 0, 0, 0, 0, 0, 0\n0, 0, 0, 0, 0, 0, 0, 0, 0, 0, 0, 0, 0, 0\n0, 0, 0, 0, 0, 0, 0, 0, 0, 0, 0, 0, 0, 0\n0, 0, 0, 0, 0, 0, 0, 0, 0, 0, 0, 0, 0, 0\n0, 0, 2, 0, 0, 0, 0, 0, 0, 0, 0, 0, 0, 0\n0, 0, 0, 0, 0, 0, 0, 0, 0, 0, 0, 0, 0, 0\n0, 0]", fillcolor="#b739e5"] ;
197 -> 211 ;
212 [label="gini = 0.0\nsamples = 1\nvalue = [0, 0, 0, 0, 0, 0, 0, 0, 0, 0, 0, 0, 0, 0\n0, 0, 0, 0, 0, 0, 0, 0, 0, 0, 0, 0, 0, 0\n0, 0, 0, 0, 2, 0, 0, 0, 0, 0, 0, 0, 0, 0\n0, 0, 0, 0, 0, 0, 0, 0, 0, 0, 0, 0, 0, 0\n0, 0, 0, 0, 0, 0, 0, 0, 0, 0, 0, 0, 0, 0\n0, 0, 0, 0, 0, 0, 0, 0, 0, 0, 0, 0, 0, 0\n0, 0, 0, 0, 0, 0, 0, 0, 0, 0, 0, 0, 0, 0\n0, 0]", fillcolor="#39e572"] ;
196 -> 212 ;
213 [label="gini = 0.0\nsamples = 2\nvalue = [0, 0, 0, 0, 0, 0, 0, 0, 0, 0, 0, 0, 0, 0\n0, 0, 0, 0, 0, 0, 0, 0, 0, 0, 0, 0, 0, 0\n0, 0, 0, 0, 0, 0, 0, 0, 0, 0, 0, 0, 0, 0\n0, 0, 0, 0, 0, 0, 0, 0, 0, 0, 0, 0, 0, 0\n0, 0, 0, 0, 0, 0, 0, 0, 0, 0, 0, 0, 0, 0\n0, 0, 0, 0, 0, 0, 0, 0, 0, 0, 0, 0, 0, 0\n0, 0, 0, 0, 0, 0, 0, 0, 0, 0, 0, 0, 0, 0\n0, 3]", fillcolor="#e57539"] ;
193 -> 213 ;
214 [label="gini = 0.0\nsamples = 2\nvalue = [0, 0, 0, 0, 0, 0, 0, 0, 0, 0, 0, 0, 0, 0\n0, 0, 0, 0, 0, 0, 0, 0, 0, 0, 0, 0, 0, 0\n0, 0, 0, 0, 0, 0, 0, 0, 0, 0, 0, 0, 0, 0\n0, 0, 0, 0, 0, 0, 0, 0, 0, 0, 0, 0, 3, 0\n0, 0, 0, 0, 0, 0, 0, 0, 0, 0, 0, 0, 0, 0\n0, 0, 0, 0, 0, 0, 0, 0, 0, 0, 0, 0, 0, 0\n0, 0, 0, 0, 0, 0, 0, 0, 0, 0, 0, 0, 0, 0\n0, 0]", fillcolor="#3975e5"] ;
188 -> 214 ;
215 [label="gini = 0.38\nsamples = 3\nvalue = [0, 0, 0, 0, 0, 0, 0, 0, 0, 0, 0, 0, 0, 0\n0, 0, 0, 3, 0, 0, 0, 0, 0, 0, 0, 0, 0, 0\n0, 0, 0, 0, 0, 0, 0, 0, 0, 0, 0, 0, 0, 0\n0, 0, 0, 0, 0, 0, 0, 0, 0, 0, 0, 0, 0, 0\n0, 0, 0, 0, 0, 0, 0, 0, 0, 0, 0, 0, 0, 0\n0, 0, 0, 0, 0, 0, 0, 0, 0, 0, 0, 0, 0, 0\n0, 0, 0, 0, 0, 0, 0, 0, 0, 0, 0, 0, 0, 0\n0, 1]", fillcolor="#bcee7b"] ;
187 -> 215 ;
216 [label="gini = 0.69\nsamples = 5\nvalue = [0, 0, 0, 0, 0, 0, 0, 0, 0, 0, 0, 0, 0, 0\n0, 0, 0, 0, 0, 0, 0, 0, 0, 0, 2, 0, 0, 0\n0, 0, 0, 0, 0, 0, 0, 0, 0, 0, 0, 0, 0, 0\n0, 0, 0, 0, 0, 0, 0, 0, 0, 0, 0, 0, 0, 0\n0, 0, 0, 0, 0, 0, 0, 0, 0, 0, 0, 0, 0, 0\n0, 0, 0, 0, 0, 0, 0, 0, 0, 2, 0, 0, 0, 0\n0, 4, 0, 0, 1, 0, 0, 0, 0, 0, 0, 0, 0, 0\n0, 0]", fillcolor="#f8c6de"] ;
184 -> 216 ;
217 [label="gini = 0.56\nsamples = 5\nvalue = [0, 0, 0, 0, 0, 0, 1, 0, 0, 0, 0, 0, 0, 0\n0, 0, 0, 0, 0, 0, 0, 0, 0, 0, 0, 0, 0, 0\n0, 0, 0, 0, 0, 0, 0, 0, 0, 0, 0, 0, 0, 0\n0, 0, 0, 0, 0, 0, 0, 0, 0, 0, 0, 0, 0, 0\n1, 0, 1, 0, 0, 0, 0, 0, 0, 0, 0, 0, 0, 0\n0, 0, 0, 0, 0, 0, 0, 0, 0, 0, 0, 0, 0, 0\n0, 0, 0, 5, 0, 0, 0, 0, 0, 0, 0, 0, 0, 0\n0, 0]", fillcolor="#f08eb2"] ;
181 -> 217 ;
218 [label="gini = 0.0\nsamples = 1\nvalue = [0, 0, 0, 0, 0, 0, 0, 0, 0, 0, 0, 0, 0, 0\n0, 0, 0, 0, 0, 0, 0, 0, 0, 0, 0, 0, 0, 0\n0, 0, 0, 0, 0, 0, 0, 0, 0, 3, 0, 0, 0, 0\n0, 0, 0, 0, 0, 0, 0, 0, 0, 0, 0, 0, 0, 0\n0, 0, 0, 0, 0, 0, 0, 0, 0, 0, 0, 0, 0, 0\n0, 0, 0, 0, 0, 0, 0, 0, 0, 0, 0, 0, 0, 0\n0, 0, 0, 0, 0, 0, 0, 0, 0, 0, 0, 0, 0, 0\n0, 0]", fillcolor="#39e5a6"] ;
162 -> 218 ;
219 [label="gini = 0.0\nsamples = 1\nvalue = [0, 0, 0, 0, 0, 0, 0, 0, 0, 0, 0, 0, 0, 0\n0, 0, 0, 0, 0, 0, 0, 0, 0, 0, 0, 0, 0, 0\n0, 0, 0, 0, 0, 0, 0, 0, 0, 0, 0, 0, 0, 0\n0, 0, 0, 0, 0, 0, 4, 0, 0, 0, 0, 0, 0, 0\n0, 0, 0, 0, 0, 0, 0, 0, 0, 0, 0, 0, 0, 0\n0, 0, 0, 0, 0, 0, 0, 0, 0, 0, 0, 0, 0, 0\n0, 0, 0, 0, 0, 0, 0, 0, 0, 0, 0, 0, 0, 0\n0, 0]", fillcolor="#39b4e5"] ;
161 -> 219 ;
220 [label="gini = 0.0\nsamples = 1\nvalue = [0, 0, 0, 0, 0, 0, 0, 0, 0, 0, 0, 0, 0, 0\n0, 0, 0, 0, 0, 0, 0, 0, 0, 0, 0, 0, 0, 0\n0, 0, 0, 0, 0, 0, 0, 0, 0, 0, 0, 0, 0, 0\n0, 0, 0, 0, 0, 0, 0, 0, 0, 0, 0, 0, 0, 0\n0, 0, 0, 0, 0, 0, 0, 0, 0, 0, 0, 0, 0, 0\n0, 0, 0, 0, 0, 0, 0, 0, 3, 0, 0, 0, 0, 0\n0, 0, 0, 0, 0, 0, 0, 0, 0, 0, 0, 0, 0, 0\n0, 0]", fillcolor="#e539d7"] ;
158 -> 220 ;
221 [label="gini = 0.83\nsamples = 12\nvalue = [0, 0, 0, 0, 0, 0, 0, 0, 0, 0, 0, 0, 0, 0\n0, 0, 0, 0, 0, 0, 0, 0, 0, 0, 0, 0, 0, 0\n0, 0, 0, 0, 0, 0, 0, 0, 0, 0, 0, 1, 0, 0\n0, 0, 0, 0, 1, 0, 0, 0, 0, 0, 0, 0, 0, 0\n0, 0, 1, 0, 0, 0, 0, 0, 0, 0, 0, 0, 0, 0\n0, 5, 0, 3, 0, 0, 0, 0, 3, 1, 0, 0, 0, 0\n0, 0, 0, 1, 0, 0, 0, 0, 6, 0, 0, 0, 0, 0\n0, 0]", fillcolor="#fdf3f4"] ;
33 -> 221 ;
222 [label="gini = 0.45\nsamples = 4\nvalue = [0, 0, 0, 0, 0, 0, 0, 0, 0, 0, 0, 0, 0, 1\n0, 0, 0, 0, 0, 0, 0, 0, 0, 0, 0, 0, 0, 0\n0, 0, 0, 0, 0, 0, 0, 0, 0, 0, 0, 0, 0, 0\n0, 0, 0, 0, 0, 0, 5, 0, 0, 0, 0, 0, 0, 1\n0, 0, 0, 0, 0, 0, 0, 0, 0, 0, 0, 0, 0, 0\n0, 0, 0, 0, 0, 0, 0, 0, 0, 0, 0, 0, 0, 0\n0, 0, 0, 0, 0, 0, 0, 0, 0, 0, 0, 0, 0, 0\n0, 0]", fillcolor="#7bcdee"] ;
32 -> 222 ;
223 [label="gini = 0.82\nsamples = 11\nvalue = [6, 0, 0, 0, 0, 0, 0, 0, 0, 0, 0, 0, 0, 0\n0, 0, 0, 0, 0, 0, 0, 0, 0, 1, 0, 0, 0, 0\n0, 0, 0, 0, 2, 0, 0, 4, 0, 0, 0, 0, 0, 0\n0, 0, 0, 0, 0, 0, 0, 0, 0, 0, 0, 1, 1, 1\n0, 0, 0, 0, 0, 0, 2, 0, 0, 0, 0, 0, 0, 0\n0, 0, 0, 0, 0, 0, 0, 0, 0, 0, 0, 0, 0, 0\n0, 0, 0, 0, 0, 0, 0, 0, 0, 1, 0, 0, 0, 0\n0, 0]", fillcolor="#fceee5"] ;
29 -> 223 ;
224 [label="X[1525] <= 0.75\ngini = 0.97\nsamples = 111\nvalue = [0, 1, 0, 5, 3, 0, 2, 2, 0, 0, 0, 4, 0, 1\n8, 0, 5, 1, 1, 0, 2, 0, 0, 2, 2, 12, 3, 2\n4, 0, 0, 2, 1, 12, 1, 6, 1, 0, 0, 6, 1, 0\n0, 5, 0, 0, 3, 1, 0, 2, 0, 2, 1, 2, 0, 0\n2, 4, 0, 4, 3, 0, 4, 0, 7, 0, 0, 1, 0, 1\n0, 0, 0, 0, 0, 1, 0, 7, 0, 1, 9, 1, 3, 2\n0, 0, 2, 5, 1, 0, 0, 2, 2, 2, 1, 1, 2, 0\n0, 1]", fillcolor="#ffffff"] ;
28 -> 224 ;
225 [label="X[1207] <= 0.7\ngini = 0.97\nsamples = 106\nvalue = [0, 1, 0, 5, 3, 0, 2, 2, 0, 0, 0, 4, 0, 0\n8, 0, 5, 1, 1, 0, 2, 0, 0, 2, 2, 5, 3, 2\n4, 0, 0, 2, 1, 10, 1, 6, 1, 0, 0, 6, 1, 0\n0, 5, 0, 0, 3, 1, 0, 2, 0, 2, 1, 2, 0, 0\n2, 4, 0, 4, 3, 0, 4, 0, 7, 0, 0, 1, 0, 1\n0, 0, 0, 0, 0, 1, 0, 7, 0, 1, 9, 1, 3, 2\n0, 0, 2, 5, 1, 0, 0, 2, 2, 2, 1, 1, 2, 0\n0, 1]", fillcolor="#fefffe"] ;
224 -> 225 ;
226 [label="X[1831] <= 0.48\ngini = 0.97\nsamples = 101\nvalue = [0, 1, 0, 0, 3, 0, 2, 2, 0, 0, 0, 4, 0, 0\n8, 0, 5, 1, 1, 0, 2, 0, 0, 2, 2, 5, 3, 2\n4, 0, 0, 2, 1, 10, 1, 6, 1, 0, 0, 6, 1, 0\n0, 5, 0, 0, 3, 1, 0, 2, 0, 2, 1, 2, 0, 0\n2, 4, 0, 4, 3, 0, 4, 0, 5, 0, 0, 1, 0, 1\n0, 0, 0, 0, 0, 1, 0, 7, 0, 1, 8, 1, 3, 2\n0, 0, 2, 5, 1, 0, 0, 2, 2, 2, 1, 1, 2, 0\n0, 1]", fillcolor="#fcfffd"] ;
225 -> 226 ;
227 [label="X[846] <= 0.15\ngini = 0.97\nsamples = 100\nvalue = [0, 1, 0, 0, 3, 0, 2, 2, 0, 0, 0, 4, 0, 0\n8, 0, 5, 1, 1, 0, 2, 0, 0, 2, 2, 5, 3, 2\n4, 0, 0, 2, 1, 10, 1, 6, 1, 0, 0, 6, 1, 0\n0, 5, 0, 0, 3, 1, 0, 2, 0, 2, 1, 2, 0, 0\n2, 4, 0, 0, 3, 0, 4, 0, 5, 0, 0, 1, 0, 1\n0, 0, 0, 0, 0, 1, 0, 7, 0, 1, 8, 1, 3, 2\n0, 0, 2, 5, 1, 0, 0, 2, 2, 2, 1, 1, 2, 0\n0, 1]", fillcolor="#fcfffd"] ;
226 -> 227 ;
228 [label="gini = 0.66\nsamples = 4\nvalue = [0, 0, 0, 0, 0, 0, 0, 0, 0, 0, 0, 0, 0, 0\n4, 0, 0, 0, 0, 0, 0, 0, 0, 0, 0, 0, 0, 0\n0, 0, 0, 0, 0, 0, 0, 4, 0, 0, 0, 0, 0, 0\n0, 0, 0, 0, 0, 0, 0, 0, 0, 0, 0, 0, 0, 0\n0, 3, 0, 0, 0, 0, 0, 0, 0, 0, 0, 0, 0, 0\n0, 0, 0, 0, 0, 0, 0, 0, 0, 0, 0, 0, 0, 0\n0, 0, 0, 0, 0, 0, 0, 0, 0, 0, 0, 0, 0, 0\n0, 0]", fillcolor="#ffffff"] ;
227 -> 228 ;
229 [label="X[466] <= 0.09\ngini = 0.97\nsamples = 96\nvalue = [0, 1, 0, 0, 3, 0, 2, 2, 0, 0, 0, 4, 0, 0\n4, 0, 5, 1, 1, 0, 2, 0, 0, 2, 2, 5, 3, 2\n4, 0, 0, 2, 1, 10, 1, 2, 1, 0, 0, 6, 1, 0\n0, 5, 0, 0, 3, 1, 0, 2, 0, 2, 1, 2, 0, 0\n2, 1, 0, 0, 3, 0, 4, 0, 5, 0, 0, 1, 0, 1\n0, 0, 0, 0, 0, 1, 0, 7, 0, 1, 8, 1, 3, 2\n0, 0, 2, 5, 1, 0, 0, 2, 2, 2, 1, 1, 2, 0\n0, 1]", fillcolor="#fcfffd"] ;
227 -> 229 ;
230 [label="gini = 0.28\nsamples = 2\nvalue = [0, 0, 0, 0, 0, 0, 0, 0, 0, 0, 0, 0, 0, 0\n0, 0, 0, 0, 0, 0, 0, 0, 0, 0, 0, 0, 0, 0\n0, 0, 0, 0, 0, 5, 0, 0, 0, 0, 0, 0, 0, 0\n0, 1, 0, 0, 0, 0, 0, 0, 0, 0, 0, 0, 0, 0\n0, 0, 0, 0, 0, 0, 0, 0, 0, 0, 0, 0, 0, 0\n0, 0, 0, 0, 0, 0, 0, 0, 0, 0, 0, 0, 0, 0\n0, 0, 0, 0, 0, 0, 0, 0, 0, 0, 0, 0, 0, 0\n0, 0]", fillcolor="#61ea95"] ;
229 -> 230 ;
231 [label="X[972] <= 0.95\ngini = 0.97\nsamples = 94\nvalue = [0, 1, 0, 0, 3, 0, 2, 2, 0, 0, 0, 4, 0, 0\n4, 0, 5, 1, 1, 0, 2, 0, 0, 2, 2, 5, 3, 2\n4, 0, 0, 2, 1, 5, 1, 2, 1, 0, 0, 6, 1, 0\n0, 4, 0, 0, 3, 1, 0, 2, 0, 2, 1, 2, 0, 0\n2, 1, 0, 0, 3, 0, 4, 0, 5, 0, 0, 1, 0, 1\n0, 0, 0, 0, 0, 1, 0, 7, 0, 1, 8, 1, 3, 2\n0, 0, 2, 5, 1, 0, 0, 2, 2, 2, 1, 1, 2, 0\n0, 1]", fillcolor="#fffdff"] ;
229 -> 231 ;
232 [label="X[1407] <= 0.07\ngini = 0.97\nsamples = 85\nvalue = [0, 1, 0, 0, 0, 0, 1, 2, 0, 0, 0, 1, 0, 0\n4, 0, 5, 1, 1, 0, 2, 0, 0, 2, 2, 5, 3, 2\n4, 0, 0, 2, 1, 5, 1, 2, 1, 0, 0, 6, 1, 0\n0, 4, 0, 0, 3, 1, 0, 2, 0, 2, 1, 2, 0, 0\n2, 1, 0, 0, 3, 0, 4, 0, 5, 0, 0, 1, 0, 1\n0, 0, 0, 0, 0, 1, 0, 5, 0, 0, 2, 1, 3, 2\n0, 0, 2, 5, 1, 0, 0, 2, 2, 2, 1, 1, 2, 0\n0, 1]", fillcolor="#fdfffe"] ;
231 -> 232 ;
233 [label="gini = 0.86\nsamples = 14\nvalue = [0, 0, 0, 0, 0, 0, 0, 0, 0, 0, 0, 0, 0, 0\n2, 0, 5, 0, 0, 0, 0, 0, 0, 0, 0, 0, 0, 0\n0, 0, 0, 0, 0, 0, 1, 0, 0, 0, 0, 3, 0, 0\n0, 0, 0, 0, 1, 0, 0, 0, 0, 0, 0, 0, 0, 0\n0, 0, 0, 0, 0, 0, 4, 0, 5, 0, 0, 0, 0, 0\n0, 0, 0, 0, 0, 0, 0, 0, 0, 0, 0, 0, 0, 2\n0, 0, 2, 0, 0, 0, 0, 0, 0, 0, 0, 0, 0, 0\n0, 0]", fillcolor="#ffffff"] ;
232 -> 233 ;
234 [label="X[329] <= 0.9\ngini = 0.97\nsamples = 71\nvalue = [0, 1, 0, 0, 0, 0, 1, 2, 0, 0, 0, 1, 0, 0\n2, 0, 0, 1, 1, 0, 2, 0, 0, 2, 2, 5, 3, 2\n4, 0, 0, 2, 1, 5, 0, 2, 1, 0, 0, 3, 1, 0\n0, 4, 0, 0, 2, 1, 0, 2, 0, 2, 1, 2, 0, 0\n2, 1, 0, 0, 3, 0, 0, 0, 0, 0, 0, 1, 0, 1\n0, 0, 0, 0, 0, 1, 0, 5, 0, 0, 2, 1, 3, 0\n0, 0, 0, 5, 1, 0, 0, 2, 2, 2, 1, 1, 2, 0\n0, 1]", fillcolor="#ffffff"] ;
232 -> 234 ;
235 [label="X[1816] <= 0.1\ngini = 0.97\nsamples = 62\nvalue = [0, 1, 0, 0, 0, 0, 1, 2, 0, 0, 0, 1, 0, 0\n2, 0, 0, 1, 0, 0, 2, 0, 0, 2, 2, 3, 3, 2\n4, 0, 0, 1, 1, 0, 0, 2, 1, 0, 0, 3, 1, 0\n0, 4, 0, 0, 2, 1, 0, 1, 0, 2, 1, 2, 0, 0\n2, 1, 0, 0, 3, 0, 0, 0, 0, 0, 0, 1, 0, 0\n0, 0, 0, 0, 0, 1, 0, 5, 0, 0, 2, 1, 3, 0\n0, 0, 0, 5, 1, 0, 0, 2, 2, 2, 1, 0, 2, 0\n0, 1]", fillcolor="#ffffff"] ;
234 -> 235 ;
236 [label="gini = 0.83\nsamples = 11\nvalue = [0, 0, 0, 0, 0, 0, 0, 0, 0, 0, 0, 0, 0, 0\n2, 0, 0, 1, 0, 0, 0, 0, 0, 0, 0, 0, 1, 0\n1, 0, 0, 0, 0, 0, 0, 0, 0, 0, 0, 0, 0, 0\n0, 0, 0, 0, 0, 0, 0, 1, 0, 0, 0, 0, 0, 0\n0, 0, 0, 0, 0, 0, 0, 0, 0, 0, 0, 0, 0, 0\n0, 0, 0, 0, 0, 0, 0, 5, 0, 0, 0, 0, 1, 0\n0, 0, 0, 0, 0, 0, 0, 0, 2, 0, 1, 0, 0, 0\n0, 0]", fillcolor="#f9d1f8"] ;
235 -> 236 ;
237 [label="X[2138] <= 0.48\ngini = 0.97\nsamples = 51\nvalue = [0, 1, 0, 0, 0, 0, 1, 2, 0, 0, 0, 1, 0, 0\n0, 0, 0, 0, 0, 0, 2, 0, 0, 2, 2, 3, 2, 2\n3, 0, 0, 1, 1, 0, 0, 2, 1, 0, 0, 3, 1, 0\n0, 4, 0, 0, 2, 1, 0, 0, 0, 2, 1, 2, 0, 0\n2, 1, 0, 0, 3, 0, 0, 0, 0, 0, 0, 1, 0, 0\n0, 0, 0, 0, 0, 1, 0, 0, 0, 0, 2, 1, 2, 0\n0, 0, 0, 5, 1, 0, 0, 2, 0, 2, 0, 0, 2, 0\n0, 1]", fillcolor="#fffcfd"] ;
235 -> 237 ;
238 [label="X[606] <= 0.6\ngini = 0.97\nsamples = 47\nvalue = [0, 1, 0, 0, 0, 0, 1, 2, 0, 0, 0, 1, 0, 0\n0, 0, 0, 0, 0, 0, 2, 0, 0, 2, 2, 3, 1, 2\n3, 0, 0, 1, 1, 0, 0, 2, 1, 0, 0, 0, 1, 0\n0, 1, 0, 0, 2, 1, 0, 0, 0, 2, 1, 2, 0, 0\n2, 1, 0, 0, 3, 0, 0, 0, 0, 0, 0, 1, 0, 0\n0, 0, 0, 0, 0, 1, 0, 0, 0, 0, 2, 1, 2, 0\n0, 0, 0, 5, 1, 0, 0, 2, 0, 2, 0, 0, 2, 0\n0, 1]", fillcolor="#fef8fa"] ;
237 -> 238 ;
239 [label="X[2900] <= 0.05\ngini = 0.96\nsamples = 32\nvalue = [0, 0, 0, 0, 0, 0, 1, 2, 0, 0, 0, 1, 0, 0\n0, 0, 0, 0, 0, 0, 2, 0, 0, 2, 2, 0, 1, 2\n0, 0, 0, 1, 0, 0, 0, 2, 1, 0, 0, 0, 1, 0\n0, 0, 0, 0, 1, 1, 0, 0, 0, 2, 1, 2, 0, 0\n2, 1, 0, 0, 0, 0, 0, 0, 0, 0, 0, 1, 0, 0\n0, 0, 0, 0, 0, 1, 0, 0, 0, 0, 2, 1, 2, 0\n0, 0, 0, 0, 1, 0, 0, 2, 0, 1, 0, 0, 1, 0\n0, 1]", fillcolor="#ffffff"] ;
238 -> 239 ;
